

<?xml version="1.0"?>
<opencv_storage>
<cascade>
  <stageType>BOOST</stageType>
  <featureType>HAAR</featureType>
  <height>48</height>
  <width>30</width>
  <stageParams>
    <boostType>GAB</boostType>
    <minHitRate>9.9500000476837158e-01</minHitRate>
    <maxFalseAlarm>4.0000000596046448e-01</maxFalseAlarm>
    <weightTrimRate>9.4999999999999996e-01</weightTrimRate>
    <maxDepth>1</maxDepth>
    <maxWeakCount>100</maxWeakCount></stageParams>
  <featureParams>
    <maxCatCount>0</maxCatCount>
    <featSize>1</featSize>
    <mode>ALL</mode></featureParams>
  <stageNum>17</stageNum>
  <stages>
    <!-- stage 0 -->
    <_>
      <maxWeakCount>8</maxWeakCount>
      <stageThreshold>-1.3888068199157715e+00</stageThreshold>
      <weakClassifiers>
        <_>
          <internalNodes>
            0 -1 34 -9.9425017833709717e-02</internalNodes>
          <leafValues>
            6.1169099807739258e-01 -7.3997235298156738e-01</leafValues></_>
        <_>
          <internalNodes>
            0 -1 135 -2.0688408985733986e-03</internalNodes>
          <leafValues>
            6.2094497680664062e-01 -4.4528636336326599e-01</leafValues></_>
        <_>
          <internalNodes>
            0 -1 169 -2.7522061020135880e-02</internalNodes>
          <leafValues>
            5.8890652656555176e-01 -4.7185972332954407e-01</leafValues></_>
        <_>
          <internalNodes>
            0 -1 123 -2.0261565223336220e-03</internalNodes>
          <leafValues>
            6.4994388818740845e-01 -3.6822757124900818e-01</leafValues></_>
        <_>
          <internalNodes>
            0 -1 61 -1.0843235068023205e-02</internalNodes>
          <leafValues>
            5.7118731737136841e-01 -2.8926131129264832e-01</leafValues></_>
        <_>
          <internalNodes>
            0 -1 277 -8.1431202124804258e-04</internalNodes>
          <leafValues>
            4.6080759167671204e-01 -3.8698074221611023e-01</leafValues></_>
        <_>
          <internalNodes>
            0 -1 204 -2.2189505398273468e-04</internalNodes>
          <leafValues>
            7.7264088392257690e-01 -1.7723511159420013e-01</leafValues></_>
        <_>
          <internalNodes>
            0 -1 188 1.4386952854692936e-02</internalNodes>
          <leafValues>
            -3.0764800310134888e-01 5.5581527948379517e-01</leafValues></_></weakClassifiers></_>
    <!-- stage 1 -->
    <_>
      <maxWeakCount>9</maxWeakCount>
      <stageThreshold>-1.2182633876800537e+00</stageThreshold>
      <weakClassifiers>
        <_>
          <internalNodes>
            0 -1 7 -1.3360965251922607e-01</internalNodes>
          <leafValues>
            6.1674010753631592e-01 -6.9786095619201660e-01</leafValues></_>
        <_>
          <internalNodes>
            0 -1 139 -1.5530898235738277e-03</internalNodes>
          <leafValues>
            6.7530745267868042e-01 -2.7557197213172913e-01</leafValues></_>
        <_>
          <internalNodes>
            0 -1 142 3.1809130450710654e-04</internalNodes>
          <leafValues>
            -2.3985971510410309e-01 6.6889220476150513e-01</leafValues></_>
        <_>
          <internalNodes>
            0 -1 232 3.7347178906202316e-02</internalNodes>
          <leafValues>
            -3.2270359992980957e-01 4.6026539802551270e-01</leafValues></_>
        <_>
          <internalNodes>
            0 -1 22 -1.0854407446458936e-04</internalNodes>
          <leafValues>
            3.5759714245796204e-01 -4.8145282268524170e-01</leafValues></_>
        <_>
          <internalNodes>
            0 -1 97 1.8223011866211891e-03</internalNodes>
          <leafValues>
            -2.5210687518119812e-01 5.9444594383239746e-01</leafValues></_>
        <_>
          <internalNodes>
            0 -1 200 8.3129416452720761e-04</internalNodes>
          <leafValues>
            -1.4778384566307068e-01 7.6694434881210327e-01</leafValues></_>
        <_>
          <internalNodes>
            0 -1 155 4.5874677598476410e-03</internalNodes>
          <leafValues>
            -1.4761516451835632e-01 7.9632592201232910e-01</leafValues></_>
        <_>
          <internalNodes>
            0 -1 92 -2.2487924434244633e-03</internalNodes>
          <leafValues>
            5.0013881921768188e-01 -2.6300993561744690e-01</leafValues></_></weakClassifiers></_>
    <!-- stage 2 -->
    <_>
      <maxWeakCount>13</maxWeakCount>
      <stageThreshold>-1.4109152555465698e+00</stageThreshold>
      <weakClassifiers>
        <_>
          <internalNodes>
            0 -1 33 -1.9101922214031219e-01</internalNodes>
          <leafValues>
            6.1235952377319336e-01 -5.4373520612716675e-01</leafValues></_>
        <_>
          <internalNodes>
            0 -1 0 -6.4247858524322510e-01</internalNodes>
          <leafValues>
            6.8614059686660767e-01 -2.1772250533103943e-01</leafValues></_>
        <_>
          <internalNodes>
            0 -1 76 8.4945149719715118e-03</internalNodes>
          <leafValues>
            -3.5500162839889526e-01 3.1935718655586243e-01</leafValues></_>
        <_>
          <internalNodes>
            0 -1 218 -2.2306535392999649e-03</internalNodes>
          <leafValues>
            4.8237541317939758e-01 -2.8306037187576294e-01</leafValues></_>
        <_>
          <internalNodes>
            0 -1 121 -1.6647260636091232e-02</internalNodes>
          <leafValues>
            6.8209487199783325e-01 -1.3606719672679901e-01</leafValues></_>
        <_>
          <internalNodes>
            0 -1 247 5.5036339908838272e-03</internalNodes>
          <leafValues>
            -1.5560089051723480e-01 6.7212754487991333e-01</leafValues></_>
        <_>
          <internalNodes>
            0 -1 297 -1.8979474902153015e-02</internalNodes>
          <leafValues>
            4.9435237050056458e-01 -2.3718628287315369e-01</leafValues></_>
        <_>
          <internalNodes>
            0 -1 128 1.1653559282422066e-02</internalNodes>
          <leafValues>
            -1.2579630315303802e-01 6.7229586839675903e-01</leafValues></_>
        <_>
          <internalNodes>
            0 -1 75 -1.4296123757958412e-02</internalNodes>
          <leafValues>
            4.0289673209190369e-01 -3.1579020619392395e-01</leafValues></_>
        <_>
          <internalNodes>
            0 -1 94 -9.8408234771341085e-04</internalNodes>
          <leafValues>
            4.6908086538314819e-01 -3.0520004034042358e-01</leafValues></_>
        <_>
          <internalNodes>
            0 -1 74 -1.5315418131649494e-03</internalNodes>
          <leafValues>
            5.0471466779708862e-01 -2.1867300570011139e-01</leafValues></_>
        <_>
          <internalNodes>
            0 -1 295 -5.3482223302125931e-04</internalNodes>
          <leafValues>
            -9.5018130540847778e-01 1.4829252660274506e-01</leafValues></_>
        <_>
          <internalNodes>
            0 -1 281 -4.2322962544858456e-03</internalNodes>
          <leafValues>
            6.0212528705596924e-01 -2.4897189438343048e-01</leafValues></_></weakClassifiers></_>
    <!-- stage 3 -->
    <_>
      <maxWeakCount>17</maxWeakCount>
      <stageThreshold>-9.2248469591140747e-01</stageThreshold>
      <weakClassifiers>
        <_>
          <internalNodes>
            0 -1 2 -7.9743009805679321e-01</internalNodes>
          <leafValues>
            3.5560858249664307e-01 -4.9936142563819885e-01</leafValues></_>
        <_>
          <internalNodes>
            0 -1 93 2.6958798989653587e-03</internalNodes>
          <leafValues>
            -1.9068613648414612e-01 5.5927252769470215e-01</leafValues></_>
        <_>
          <internalNodes>
            0 -1 202 5.3997291252017021e-04</internalNodes>
          <leafValues>
            -1.5225525200366974e-01 7.1561294794082642e-01</leafValues></_>
        <_>
          <internalNodes>
            0 -1 8 -1.5913603827357292e-02</internalNodes>
          <leafValues>
            3.9551618695259094e-01 -2.6075008511543274e-01</leafValues></_>
        <_>
          <internalNodes>
            0 -1 28 -6.9617331027984619e-02</internalNodes>
          <leafValues>
            4.2437651753425598e-01 -2.4026316404342651e-01</leafValues></_>
        <_>
          <internalNodes>
            0 -1 43 1.1285610526101664e-04</internalNodes>
          <leafValues>
            1.8445090949535370e-01 -5.5837404727935791e-01</leafValues></_>
        <_>
          <internalNodes>
            0 -1 109 1.2082567811012268e-01</internalNodes>
          <leafValues>
            -1.0523863136768341e-01 7.4733138084411621e-01</leafValues></_>
        <_>
          <internalNodes>
            0 -1 199 2.3990087211132050e-03</internalNodes>
          <leafValues>
            -3.8429030776023865e-01 2.4891546368598938e-01</leafValues></_>
        <_>
          <internalNodes>
            0 -1 249 -2.5814755354076624e-03</internalNodes>
          <leafValues>
            5.0471293926239014e-01 -1.8701615929603577e-01</leafValues></_>
        <_>
          <internalNodes>
            0 -1 147 1.3265695422887802e-02</internalNodes>
          <leafValues>
            -1.9111870229244232e-01 5.0349336862564087e-01</leafValues></_>
        <_>
          <internalNodes>
            0 -1 42 -4.4606997107621282e-05</internalNodes>
          <leafValues>
            -4.9355247616767883e-01 1.7109148204326630e-01</leafValues></_>
        <_>
          <internalNodes>
            0 -1 266 5.8407159522175789e-03</internalNodes>
          <leafValues>
            -8.3313301205635071e-02 8.2329100370407104e-01</leafValues></_>
        <_>
          <internalNodes>
            0 -1 130 1.2953029945492744e-02</internalNodes>
          <leafValues>
            -1.3805924355983734e-01 5.8403378725051880e-01</leafValues></_>
        <_>
          <internalNodes>
            0 -1 285 3.2305959612131119e-02</internalNodes>
          <leafValues>
            -1.6933362185955048e-01 5.4570072889328003e-01</leafValues></_>
        <_>
          <internalNodes>
            0 -1 111 5.1376136252656579e-04</internalNodes>
          <leafValues>
            -1.4304220676422119e-01 6.4366173744201660e-01</leafValues></_>
        <_>
          <internalNodes>
            0 -1 32 -1.5126988291740417e-01</internalNodes>
          <leafValues>
            3.3172768354415894e-01 -3.0001750588417053e-01</leafValues></_>
        <_>
          <internalNodes>
            0 -1 126 -1.0638259118422866e-04</internalNodes>
          <leafValues>
            5.4998058080673218e-01 -1.7750108242034912e-01</leafValues></_></weakClassifiers></_>
    <!-- stage 4 -->
    <_>
      <maxWeakCount>16</maxWeakCount>
      <stageThreshold>-8.6981034278869629e-01</stageThreshold>
      <weakClassifiers>
        <_>
          <internalNodes>
            0 -1 9 -6.9084517657756805e-02</internalNodes>
          <leafValues>
            1.8709677457809448e-01 -6.1512029170989990e-01</leafValues></_>
        <_>
          <internalNodes>
            0 -1 47 -1.0356750339269638e-02</internalNodes>
          <leafValues>
            2.4543073773384094e-01 -3.9678689837455750e-01</leafValues></_>
        <_>
          <internalNodes>
            0 -1 325 -8.1125115684699267e-05</internalNodes>
          <leafValues>
            -6.3083958625793457e-01 1.3932125270366669e-01</leafValues></_>
        <_>
          <internalNodes>
            0 -1 100 9.8774097859859467e-03</internalNodes>
          <leafValues>
            -3.2907494902610779e-01 2.9733240604400635e-01</leafValues></_>
        <_>
          <internalNodes>
            0 -1 45 1.2707005254924297e-02</internalNodes>
          <leafValues>
            -2.4555441737174988e-01 4.5968866348266602e-01</leafValues></_>
        <_>
          <internalNodes>
            0 -1 136 -1.4400596264749765e-03</internalNodes>
          <leafValues>
            4.6246168017387390e-01 -1.7979343235492706e-01</leafValues></_>
        <_>
          <internalNodes>
            0 -1 108 1.9092883449047804e-03</internalNodes>
          <leafValues>
            -2.1555635333061218e-01 4.5225843787193298e-01</leafValues></_>
        <_>
          <internalNodes>
            0 -1 15 2.7178434538654983e-04</internalNodes>
          <leafValues>
            1.6834177076816559e-01 -6.1313730478286743e-01</leafValues></_>
        <_>
          <internalNodes>
            0 -1 17 -1.7989143088925630e-04</internalNodes>
          <leafValues>
            -6.8147295713424683e-01 1.3964694738388062e-01</leafValues></_>
        <_>
          <internalNodes>
            0 -1 211 -3.3576756715774536e-02</internalNodes>
          <leafValues>
            6.6902971267700195e-01 -1.5462587773799896e-01</leafValues></_>
        <_>
          <internalNodes>
            0 -1 238 -8.7748432997614145e-04</internalNodes>
          <leafValues>
            4.8488968610763550e-01 -2.1358698606491089e-01</leafValues></_>
        <_>
          <internalNodes>
            0 -1 243 1.5981798991560936e-02</internalNodes>
          <leafValues>
            -1.6811712086200714e-01 5.5238169431686401e-01</leafValues></_>
        <_>
          <internalNodes>
            0 -1 132 1.7910401802510023e-03</internalNodes>
          <leafValues>
            -1.7482541501522064e-01 4.8136076331138611e-01</leafValues></_>
        <_>
          <internalNodes>
            0 -1 73 -3.7116140127182007e-02</internalNodes>
          <leafValues>
            3.4089720249176025e-01 -2.8778183460235596e-01</leafValues></_>
        <_>
          <internalNodes>
            0 -1 317 7.4647570727393031e-05</internalNodes>
          <leafValues>
            1.5469773113727570e-01 -6.4625692367553711e-01</leafValues></_>
        <_>
          <internalNodes>
            0 -1 270 -4.4432175345718861e-03</internalNodes>
          <leafValues>
            3.9819449186325073e-01 -2.5710609555244446e-01</leafValues></_></weakClassifiers></_>
    <!-- stage 5 -->
    <_>
      <maxWeakCount>16</maxWeakCount>
      <stageThreshold>-8.7766462564468384e-01</stageThreshold>
      <weakClassifiers>
        <_>
          <internalNodes>
            0 -1 282 5.4479204118251801e-02</internalNodes>
          <leafValues>
            -3.3070087432861328e-01 4.9206349253654480e-01</leafValues></_>
        <_>
          <internalNodes>
            0 -1 311 1.8131839169654995e-04</internalNodes>
          <leafValues>
            1.6932485997676849e-01 -4.7020700573921204e-01</leafValues></_>
        <_>
          <internalNodes>
            0 -1 5 -3.6874723434448242e-01</internalNodes>
          <leafValues>
            2.2882030904293060e-01 -3.4403467178344727e-01</leafValues></_>
        <_>
          <internalNodes>
            0 -1 154 -8.0985366366803646e-04</internalNodes>
          <leafValues>
            4.5728039741516113e-01 -1.9668640196323395e-01</leafValues></_>
        <_>
          <internalNodes>
            0 -1 166 -1.0983101092278957e-03</internalNodes>
          <leafValues>
            5.1422864198684692e-01 -1.8646380305290222e-01</leafValues></_>
        <_>
          <internalNodes>
            0 -1 261 3.2516606152057648e-03</internalNodes>
          <leafValues>
            -1.5361718833446503e-01 5.7684326171875000e-01</leafValues></_>
        <_>
          <internalNodes>
            0 -1 315 -2.2074500157032162e-04</internalNodes>
          <leafValues>
            -6.9810634851455688e-01 1.5786398947238922e-01</leafValues></_>
        <_>
          <internalNodes>
            0 -1 58 -6.9568473845720291e-03</internalNodes>
          <leafValues>
            -6.7859685420989990e-01 1.2342779338359833e-01</leafValues></_>
        <_>
          <internalNodes>
            0 -1 60 -1.9558448344469070e-02</internalNodes>
          <leafValues>
            6.0818898677825928e-01 -1.3416565954685211e-01</leafValues></_>
        <_>
          <internalNodes>
            0 -1 36 6.8033405113965273e-05</internalNodes>
          <leafValues>
            1.9541803002357483e-01 -4.3980655074119568e-01</leafValues></_>
        <_>
          <internalNodes>
            0 -1 319 -2.7591077378019691e-04</internalNodes>
          <leafValues>
            3.1115958094596863e-01 -2.6229363679885864e-01</leafValues></_>
        <_>
          <internalNodes>
            0 -1 23 1.0115093027707189e-04</internalNodes>
          <leafValues>
            1.0358190536499023e-01 -7.5466799736022949e-01</leafValues></_>
        <_>
          <internalNodes>
            0 -1 157 -1.3350534718483686e-03</internalNodes>
          <leafValues>
            5.0368630886077881e-01 -1.9628269970417023e-01</leafValues></_>
        <_>
          <internalNodes>
            0 -1 175 6.5464694052934647e-03</internalNodes>
          <leafValues>
            1.2745453417301178e-01 -6.6706973314285278e-01</leafValues></_>
        <_>
          <internalNodes>
            0 -1 197 -2.5624006520956755e-03</internalNodes>
          <leafValues>
            6.8540024757385254e-01 -1.3345488905906677e-01</leafValues></_>
        <_>
          <internalNodes>
            0 -1 209 2.7284598909318447e-03</internalNodes>
          <leafValues>
            -1.6131944954395294e-01 5.2098172903060913e-01</leafValues></_></weakClassifiers></_>
    <!-- stage 6 -->
    <_>
      <maxWeakCount>18</maxWeakCount>
      <stageThreshold>-9.7401028871536255e-01</stageThreshold>
      <weakClassifiers>
        <_>
          <internalNodes>
            0 -1 231 3.2912336289882660e-02</internalNodes>
          <leafValues>
            -5.7115012407302856e-01 7.4020318686962128e-02</leafValues></_>
        <_>
          <internalNodes>
            0 -1 96 2.1266131661832333e-03</internalNodes>
          <leafValues>
            -2.0386071503162384e-01 4.4580757617950439e-01</leafValues></_>
        <_>
          <internalNodes>
            0 -1 143 -7.6532305683940649e-04</internalNodes>
          <leafValues>
            4.6900436282157898e-01 -1.9851212203502655e-01</leafValues></_>
        <_>
          <internalNodes>
            0 -1 70 -5.1616111704788636e-06</internalNodes>
          <leafValues>
            2.1182505786418915e-01 -3.8253688812255859e-01</leafValues></_>
        <_>
          <internalNodes>
            0 -1 6 -2.4170952383428812e-03</internalNodes>
          <leafValues>
            3.6405396461486816e-01 -2.0782367885112762e-01</leafValues></_>
        <_>
          <internalNodes>
            0 -1 318 -2.6819063350558281e-04</internalNodes>
          <leafValues>
            -6.6888391971588135e-01 1.2031366676092148e-01</leafValues></_>
        <_>
          <internalNodes>
            0 -1 274 -2.1608406677842140e-02</internalNodes>
          <leafValues>
            5.7312154769897461e-01 -1.6451254487037659e-01</leafValues></_>
        <_>
          <internalNodes>
            0 -1 214 3.3946773037314415e-03</internalNodes>
          <leafValues>
            -1.0477092862129211e-01 5.8654528856277466e-01</leafValues></_>
        <_>
          <internalNodes>
            0 -1 72 -3.4997515380382538e-02</internalNodes>
          <leafValues>
            1.7630474269390106e-01 -4.4958081841468811e-01</leafValues></_>
        <_>
          <internalNodes>
            0 -1 105 -3.5553092602640390e-03</internalNodes>
          <leafValues>
            6.0664284229278564e-01 -1.3569065928459167e-01</leafValues></_>
        <_>
          <internalNodes>
            0 -1 131 1.1914594506379217e-04</internalNodes>
          <leafValues>
            -1.9342923164367676e-01 4.6601426601409912e-01</leafValues></_>
        <_>
          <internalNodes>
            0 -1 265 1.8374150618910789e-02</internalNodes>
          <leafValues>
            -2.4124473333358765e-01 3.6251980066299438e-01</leafValues></_>
        <_>
          <internalNodes>
            0 -1 212 5.7682553306221962e-03</internalNodes>
          <leafValues>
            -1.5383577346801758e-01 5.6214487552642822e-01</leafValues></_>
        <_>
          <internalNodes>
            0 -1 137 -1.9609672017395496e-03</internalNodes>
          <leafValues>
            2.7827206254005432e-01 -2.9868465662002563e-01</leafValues></_>
        <_>
          <internalNodes>
            0 -1 48 6.5932452678680420e-02</internalNodes>
          <leafValues>
            -9.8485939204692841e-02 7.9679977893829346e-01</leafValues></_>
        <_>
          <internalNodes>
            0 -1 271 8.5794571787118912e-03</internalNodes>
          <leafValues>
            -1.0269686579704285e-01 6.5837568044662476e-01</leafValues></_>
        <_>
          <internalNodes>
            0 -1 316 -2.8354214009596035e-05</internalNodes>
          <leafValues>
            2.9824587702751160e-01 -2.6522275805473328e-01</leafValues></_>
        <_>
          <internalNodes>
            0 -1 224 -6.0402824601624161e-05</internalNodes>
          <leafValues>
            2.2651842236518860e-01 -3.5394096374511719e-01</leafValues></_></weakClassifiers></_>
    <!-- stage 7 -->
    <_>
      <maxWeakCount>18</maxWeakCount>
      <stageThreshold>-9.2458409070968628e-01</stageThreshold>
      <weakClassifiers>
        <_>
          <internalNodes>
            0 -1 119 -1.5803815796971321e-02</internalNodes>
          <leafValues>
            4.8292681574821472e-01 -3.4202608466148376e-01</leafValues></_>
        <_>
          <internalNodes>
            0 -1 144 5.8452971279621124e-04</internalNodes>
          <leafValues>
            -2.3742870986461639e-01 2.7965998649597168e-01</leafValues></_>
        <_>
          <internalNodes>
            0 -1 120 3.9873849600553513e-03</internalNodes>
          <leafValues>
            -2.1514929831027985e-01 4.3174919486045837e-01</leafValues></_>
        <_>
          <internalNodes>
            0 -1 304 -2.4963595205917954e-04</internalNodes>
          <leafValues>
            -4.4203776121139526e-01 1.9600605964660645e-01</leafValues></_>
        <_>
          <internalNodes>
            0 -1 309 1.8467460176907480e-04</internalNodes>
          <leafValues>
            2.0959630608558655e-01 -4.2585638165473938e-01</leafValues></_>
        <_>
          <internalNodes>
            0 -1 240 -5.6865066289901733e-03</internalNodes>
          <leafValues>
            5.2489566802978516e-01 -1.3895103335380554e-01</leafValues></_>
        <_>
          <internalNodes>
            0 -1 178 4.9152038991451263e-04</internalNodes>
          <leafValues>
            1.0054900497198105e-01 -6.4108288288116455e-01</leafValues></_>
        <_>
          <internalNodes>
            0 -1 193 -8.1619434058666229e-04</internalNodes>
          <leafValues>
            -6.6982382535934448e-01 1.1469123512506485e-01</leafValues></_>
        <_>
          <internalNodes>
            0 -1 176 5.6351441890001297e-03</internalNodes>
          <leafValues>
            -1.5219175815582275e-01 5.3355556726455688e-01</leafValues></_>
        <_>
          <internalNodes>
            0 -1 148 -3.1125999987125397e-02</internalNodes>
          <leafValues>
            4.6681529283523560e-01 -1.6814850270748138e-01</leafValues></_>
        <_>
          <internalNodes>
            0 -1 205 1.0818020382430404e-04</internalNodes>
          <leafValues>
            -1.5326851606369019e-01 5.1512700319290161e-01</leafValues></_>
        <_>
          <internalNodes>
            0 -1 294 2.0084604620933533e-02</internalNodes>
          <leafValues>
            -8.0587059259414673e-02 7.8534567356109619e-01</leafValues></_>
        <_>
          <internalNodes>
            0 -1 242 -9.0558588504791260e-02</internalNodes>
          <leafValues>
            5.9228855371475220e-01 -1.1521157622337341e-01</leafValues></_>
        <_>
          <internalNodes>
            0 -1 222 -5.2724508568644524e-03</internalNodes>
          <leafValues>
            -6.0965543985366821e-01 1.2494777143001556e-01</leafValues></_>
        <_>
          <internalNodes>
            0 -1 41 -2.3159158881753683e-03</internalNodes>
          <leafValues>
            4.7472274303436279e-01 -1.5766121447086334e-01</leafValues></_>
        <_>
          <internalNodes>
            0 -1 104 1.1989618651568890e-03</internalNodes>
          <leafValues>
            -1.7521946132183075e-01 6.0510522127151489e-01</leafValues></_>
        <_>
          <internalNodes>
            0 -1 69 -7.6532047241926193e-03</internalNodes>
          <leafValues>
            -6.4768999814987183e-01 1.4513686299324036e-01</leafValues></_>
        <_>
          <internalNodes>
            0 -1 125 -1.2951528187841177e-03</internalNodes>
          <leafValues>
            4.1560944914817810e-01 -1.9576980173587799e-01</leafValues></_></weakClassifiers></_>
    <!-- stage 8 -->
    <_>
      <maxWeakCount>20</maxWeakCount>
      <stageThreshold>-8.6865943670272827e-01</stageThreshold>
      <weakClassifiers>
        <_>
          <internalNodes>
            0 -1 29 -2.8847169876098633e-01</internalNodes>
          <leafValues>
            2.6096996665000916e-01 -4.6163848042488098e-01</leafValues></_>
        <_>
          <internalNodes>
            0 -1 241 -1.7688535153865814e-03</internalNodes>
          <leafValues>
            -6.9047927856445312e-01 8.5960112512111664e-02</leafValues></_>
        <_>
          <internalNodes>
            0 -1 301 -8.8642130140215158e-04</internalNodes>
          <leafValues>
            4.8607531189918518e-01 -1.2632195651531219e-01</leafValues></_>
        <_>
          <internalNodes>
            0 -1 192 2.8516706079244614e-03</internalNodes>
          <leafValues>
            8.6440883576869965e-02 -6.8162155151367188e-01</leafValues></_>
        <_>
          <internalNodes>
            0 -1 54 -8.4108556620776653e-05</internalNodes>
          <leafValues>
            -4.1071119904518127e-01 1.4223966002464294e-01</leafValues></_>
        <_>
          <internalNodes>
            0 -1 239 -3.8579301908612251e-03</internalNodes>
          <leafValues>
            4.1745185852050781e-01 -1.9280804693698883e-01</leafValues></_>
        <_>
          <internalNodes>
            0 -1 268 -2.9874730898882262e-05</internalNodes>
          <leafValues>
            2.9336443543434143e-01 -2.9801842570304871e-01</leafValues></_>
        <_>
          <internalNodes>
            0 -1 258 -2.0704682916402817e-02</internalNodes>
          <leafValues>
            3.7078058719635010e-01 -2.1697543561458588e-01</leafValues></_>
        <_>
          <internalNodes>
            0 -1 115 4.8226322978734970e-02</internalNodes>
          <leafValues>
            -1.4298823475837708e-01 4.2177295684814453e-01</leafValues></_>
        <_>
          <internalNodes>
            0 -1 53 -6.3419461250305176e-02</internalNodes>
          <leafValues>
            4.1932556033134460e-01 -1.8525637686252594e-01</leafValues></_>
        <_>
          <internalNodes>
            0 -1 110 -1.2902330607175827e-02</internalNodes>
          <leafValues>
            6.5528506040573120e-01 -8.5710212588310242e-02</leafValues></_>
        <_>
          <internalNodes>
            0 -1 56 2.9901671223342419e-04</internalNodes>
          <leafValues>
            9.6217468380928040e-02 -6.7136675119400024e-01</leafValues></_>
        <_>
          <internalNodes>
            0 -1 57 -5.8091478422284126e-04</internalNodes>
          <leafValues>
            -4.1278651356697083e-01 1.5564794838428497e-01</leafValues></_>
        <_>
          <internalNodes>
            0 -1 90 -2.2303920704871416e-03</internalNodes>
          <leafValues>
            8.0364525318145752e-01 -8.9388638734817505e-02</leafValues></_>
        <_>
          <internalNodes>
            0 -1 84 2.1588378585875034e-03</internalNodes>
          <leafValues>
            -1.1411489546298981e-01 5.7646769285202026e-01</leafValues></_>
        <_>
          <internalNodes>
            0 -1 113 -1.8853114917874336e-02</internalNodes>
          <leafValues>
            6.9808161258697510e-01 -9.7746893763542175e-02</leafValues></_>
        <_>
          <internalNodes>
            0 -1 162 -5.5065620690584183e-03</internalNodes>
          <leafValues>
            4.8892092704772949e-01 -1.2794390320777893e-01</leafValues></_>
        <_>
          <internalNodes>
            0 -1 149 5.0986837595701218e-04</internalNodes>
          <leafValues>
            -1.7635361850261688e-01 3.6683744192123413e-01</leafValues></_>
        <_>
          <internalNodes>
            0 -1 106 -6.3193090260028839e-02</internalNodes>
          <leafValues>
            3.2987642288208008e-01 -2.0540225505828857e-01</leafValues></_>
        <_>
          <internalNodes>
            0 -1 24 8.2020665286108851e-04</internalNodes>
          <leafValues>
            1.1841487884521484e-01 -5.4427868127822876e-01</leafValues></_></weakClassifiers></_>
    <!-- stage 9 -->
    <_>
      <maxWeakCount>22</maxWeakCount>
      <stageThreshold>-1.0418392419815063e+00</stageThreshold>
      <weakClassifiers>
        <_>
          <internalNodes>
            0 -1 71 -1.1134342849254608e-01</internalNodes>
          <leafValues>
            7.7056347452067215e-17 -5.1709401607513428e-01</leafValues></_>
        <_>
          <internalNodes>
            0 -1 171 1.1783678783103824e-03</internalNodes>
          <leafValues>
            -2.1555712819099426e-01 3.2779124379158020e-01</leafValues></_>
        <_>
          <internalNodes>
            0 -1 133 4.5363351819105446e-04</internalNodes>
          <leafValues>
            -2.4763099849224091e-01 2.7293443679809570e-01</leafValues></_>
        <_>
          <internalNodes>
            0 -1 81 9.4309024279937148e-04</internalNodes>
          <leafValues>
            -1.7591829597949982e-01 3.7919631600379944e-01</leafValues></_>
        <_>
          <internalNodes>
            0 -1 263 -6.2334947288036346e-03</internalNodes>
          <leafValues>
            5.0413459539413452e-01 -1.2325007468461990e-01</leafValues></_>
        <_>
          <internalNodes>
            0 -1 79 2.7024984592571855e-04</internalNodes>
          <leafValues>
            1.0065823793411255e-01 -6.3246703147888184e-01</leafValues></_>
        <_>
          <internalNodes>
            0 -1 302 1.1071784683736041e-04</internalNodes>
          <leafValues>
            1.9435137510299683e-01 -3.7552887201309204e-01</leafValues></_>
        <_>
          <internalNodes>
            0 -1 307 -1.4538137475028634e-03</internalNodes>
          <leafValues>
            5.3074043989181519e-01 -1.4196975529193878e-01</leafValues></_>
        <_>
          <internalNodes>
            0 -1 64 -8.9129611849784851e-02</internalNodes>
          <leafValues>
            2.5202476978302002e-01 -2.9844501614570618e-01</leafValues></_>
        <_>
          <internalNodes>
            0 -1 164 1.5427664038725197e-04</internalNodes>
          <leafValues>
            -2.5864112377166748e-01 2.6471713185310364e-01</leafValues></_>
        <_>
          <internalNodes>
            0 -1 51 -3.2302546314895153e-03</internalNodes>
          <leafValues>
            3.4290552139282227e-01 -1.9024726748466492e-01</leafValues></_>
        <_>
          <internalNodes>
            0 -1 183 -1.7196261323988438e-03</internalNodes>
          <leafValues>
            5.0418817996978760e-01 -1.4058244228363037e-01</leafValues></_>
        <_>
          <internalNodes>
            0 -1 303 -9.7910058684647083e-04</internalNodes>
          <leafValues>
            -4.8857888579368591e-01 1.5080958604812622e-01</leafValues></_>
        <_>
          <internalNodes>
            0 -1 251 -1.1140902061015368e-03</internalNodes>
          <leafValues>
            4.8916256427764893e-01 -1.6525712609291077e-01</leafValues></_>
        <_>
          <internalNodes>
            0 -1 12 1.8881866708397865e-04</internalNodes>
          <leafValues>
            1.4976568520069122e-01 -5.8094149827957153e-01</leafValues></_>
        <_>
          <internalNodes>
            0 -1 38 5.2995835430920124e-03</internalNodes>
          <leafValues>
            -2.8597199916839600e-01 2.7116954326629639e-01</leafValues></_>
        <_>
          <internalNodes>
            0 -1 62 -5.7958774268627167e-03</internalNodes>
          <leafValues>
            6.5885621309280396e-01 -1.1755568534135818e-01</leafValues></_>
        <_>
          <internalNodes>
            0 -1 16 -2.0679160952568054e-02</internalNodes>
          <leafValues>
            7.3812836408615112e-01 -8.6804986000061035e-02</leafValues></_>
        <_>
          <internalNodes>
            0 -1 237 -6.8960548378527164e-04</internalNodes>
          <leafValues>
            5.4035449028015137e-01 -1.1826441437005997e-01</leafValues></_>
        <_>
          <internalNodes>
            0 -1 191 1.5961358440108597e-04</internalNodes>
          <leafValues>
            1.6280978918075562e-01 -4.4264203310012817e-01</leafValues></_>
        <_>
          <internalNodes>
            0 -1 250 -1.8359342357143760e-04</internalNodes>
          <leafValues>
            4.3537938594818115e-01 -1.5575990080833435e-01</leafValues></_>
        <_>
          <internalNodes>
            0 -1 219 9.0601935517042875e-04</internalNodes>
          <leafValues>
            -1.6200023889541626e-01 4.2646354436874390e-01</leafValues></_></weakClassifiers></_>
    <!-- stage 10 -->
    <_>
      <maxWeakCount>21</maxWeakCount>
      <stageThreshold>-8.8091832399368286e-01</stageThreshold>
      <weakClassifiers>
        <_>
          <internalNodes>
            0 -1 83 -3.4133912413381040e-04</internalNodes>
          <leafValues>
            -5.1546390168368816e-03 -5.5868542194366455e-01</leafValues></_>
        <_>
          <internalNodes>
            0 -1 194 -5.2216142648831010e-04</internalNodes>
          <leafValues>
            -5.8195430040359497e-01 9.6358373761177063e-02</leafValues></_>
        <_>
          <internalNodes>
            0 -1 103 -1.3346919789910316e-02</internalNodes>
          <leafValues>
            4.6091195940971375e-01 -1.2308420985937119e-01</leafValues></_>
        <_>
          <internalNodes>
            0 -1 283 2.2316161543130875e-02</internalNodes>
          <leafValues>
            -9.8023027181625366e-02 6.4200329780578613e-01</leafValues></_>
        <_>
          <internalNodes>
            0 -1 102 5.3878296166658401e-03</internalNodes>
          <leafValues>
            -1.7561541497707367e-01 3.6381644010543823e-01</leafValues></_>
        <_>
          <internalNodes>
            0 -1 63 -7.3523563332855701e-04</internalNodes>
          <leafValues>
            5.3890103101730347e-01 -7.5900472700595856e-02</leafValues></_>
        <_>
          <internalNodes>
            0 -1 4 -2.0913604646921158e-02</internalNodes>
          <leafValues>
            -7.3660755157470703e-01 8.1685766577720642e-02</leafValues></_>
        <_>
          <internalNodes>
            0 -1 255 -1.6708535258658230e-04</internalNodes>
          <leafValues>
            1.6949853301048279e-01 -3.1285944581031799e-01</leafValues></_>
        <_>
          <internalNodes>
            0 -1 325 1.1752084537874907e-04</internalNodes>
          <leafValues>
            9.2495150864124298e-02 -6.5516656637191772e-01</leafValues></_>
        <_>
          <internalNodes>
            0 -1 165 -1.5641064383089542e-03</internalNodes>
          <leafValues>
            3.7805941700935364e-01 -1.5279340744018555e-01</leafValues></_>
        <_>
          <internalNodes>
            0 -1 31 -2.9150698333978653e-02</internalNodes>
          <leafValues>
            2.5560814142227173e-01 -2.4320165812969208e-01</leafValues></_>
        <_>
          <internalNodes>
            0 -1 215 -2.5290627032518387e-02</internalNodes>
          <leafValues>
            4.7666808962821960e-01 -1.4959190785884857e-01</leafValues></_>
        <_>
          <internalNodes>
            0 -1 91 3.5284645855426788e-04</internalNodes>
          <leafValues>
            1.9566357135772705e-01 -3.4500259160995483e-01</leafValues></_>
        <_>
          <internalNodes>
            0 -1 206 -1.1960417777299881e-01</internalNodes>
          <leafValues>
            -8.8298517465591431e-01 6.2869884073734283e-02</leafValues></_>
        <_>
          <internalNodes>
            0 -1 37 -3.9229315007105470e-05</internalNodes>
          <leafValues>
            2.6459068059921265e-01 -2.4871806800365448e-01</leafValues></_>
        <_>
          <internalNodes>
            0 -1 145 2.9527965933084488e-02</internalNodes>
          <leafValues>
            -2.8893378376960754e-01 2.2075271606445312e-01</leafValues></_>
        <_>
          <internalNodes>
            0 -1 138 1.9247391028329730e-03</internalNodes>
          <leafValues>
            -8.9253425598144531e-02 7.1854352951049805e-01</leafValues></_>
        <_>
          <internalNodes>
            0 -1 322 -1.0594729974400252e-04</internalNodes>
          <leafValues>
            -6.3009881973266602e-01 9.8204389214515686e-02</leafValues></_>
        <_>
          <internalNodes>
            0 -1 153 -2.9057520441710949e-03</internalNodes>
          <leafValues>
            2.2690065205097198e-01 -2.8743693232536316e-01</leafValues></_>
        <_>
          <internalNodes>
            0 -1 44 -3.1631803140044212e-03</internalNodes>
          <leafValues>
            -6.1448556184768677e-01 9.8326101899147034e-02</leafValues></_>
        <_>
          <internalNodes>
            0 -1 118 2.0421743392944336e-02</internalNodes>
          <leafValues>
            7.2505809366703033e-02 -6.6161388158798218e-01</leafValues></_></weakClassifiers></_>
    <!-- stage 11 -->
    <_>
      <maxWeakCount>27</maxWeakCount>
      <stageThreshold>-9.8936462402343750e-01</stageThreshold>
      <weakClassifiers>
        <_>
          <internalNodes>
            0 -1 50 -4.7117192298173904e-04</internalNodes>
          <leafValues>
            1.5217390656471252e-01 -3.5731413960456848e-01</leafValues></_>
        <_>
          <internalNodes>
            0 -1 46 -4.8905432224273682e-02</internalNodes>
          <leafValues>
            3.3920574188232422e-01 -1.8594072759151459e-01</leafValues></_>
        <_>
          <internalNodes>
            0 -1 66 -8.3551835268735886e-03</internalNodes>
          <leafValues>
            3.9666166901588440e-01 -1.3279546797275543e-01</leafValues></_>
        <_>
          <internalNodes>
            0 -1 305 -4.7192940837703645e-04</internalNodes>
          <leafValues>
            -7.9257041215896606e-01 6.6060759127140045e-02</leafValues></_>
        <_>
          <internalNodes>
            0 -1 179 1.7930798931047320e-03</internalNodes>
          <leafValues>
            -2.7102124691009521e-01 2.1696813404560089e-01</leafValues></_>
        <_>
          <internalNodes>
            0 -1 189 1.0431223548948765e-02</internalNodes>
          <leafValues>
            5.7057667523622513e-02 -8.0393505096435547e-01</leafValues></_>
        <_>
          <internalNodes>
            0 -1 226 -3.0273993033915758e-03</internalNodes>
          <leafValues>
            2.7888777852058411e-01 -2.1226547658443451e-01</leafValues></_>
        <_>
          <internalNodes>
            0 -1 65 -1.3064056402072310e-03</internalNodes>
          <leafValues>
            3.8400521874427795e-01 -1.7312645912170410e-01</leafValues></_>
        <_>
          <internalNodes>
            0 -1 35 1.6045337542891502e-03</internalNodes>
          <leafValues>
            -1.3473327457904816e-01 4.8407369852066040e-01</leafValues></_>
        <_>
          <internalNodes>
            0 -1 201 7.8474020119756460e-04</internalNodes>
          <leafValues>
            -2.2465611994266510e-01 2.6081064343452454e-01</leafValues></_>
        <_>
          <internalNodes>
            0 -1 233 -3.6665182560682297e-03</internalNodes>
          <leafValues>
            3.3960226178169250e-01 -1.7117291688919067e-01</leafValues></_>
        <_>
          <internalNodes>
            0 -1 129 -4.5405132696032524e-03</internalNodes>
          <leafValues>
            2.9932495951652527e-01 -2.0989930629730225e-01</leafValues></_>
        <_>
          <internalNodes>
            0 -1 80 9.1257253661751747e-03</internalNodes>
          <leafValues>
            -1.0635440051555634e-01 4.7561073303222656e-01</leafValues></_>
        <_>
          <internalNodes>
            0 -1 13 1.4641819871030748e-04</internalNodes>
          <leafValues>
            1.4130474627017975e-01 -4.1984385251998901e-01</leafValues></_>
        <_>
          <internalNodes>
            0 -1 141 -3.5319465678185225e-03</internalNodes>
          <leafValues>
            5.4800713062286377e-01 -1.1135222017765045e-01</leafValues></_>
        <_>
          <internalNodes>
            0 -1 264 2.7507119812071323e-03</internalNodes>
          <leafValues>
            1.0338151454925537e-01 -6.1249339580535889e-01</leafValues></_>
        <_>
          <internalNodes>
            0 -1 107 3.0779218673706055e-01</internalNodes>
          <leafValues>
            -9.7825765609741211e-02 7.5435513257980347e-01</leafValues></_>
        <_>
          <internalNodes>
            0 -1 163 -1.2217580806463957e-03</internalNodes>
          <leafValues>
            7.0491456985473633e-01 -7.9390160739421844e-02</leafValues></_>
        <_>
          <internalNodes>
            0 -1 185 2.4895640090107918e-02</internalNodes>
          <leafValues>
            9.5868058502674103e-02 -6.9854319095611572e-01</leafValues></_>
        <_>
          <internalNodes>
            0 -1 313 9.0231443755328655e-04</internalNodes>
          <leafValues>
            -2.5458839535713196e-01 2.4878346920013428e-01</leafValues></_>
        <_>
          <internalNodes>
            0 -1 156 -3.2653042580932379e-03</internalNodes>
          <leafValues>
            3.3130306005477905e-01 -1.7497529089450836e-01</leafValues></_>
        <_>
          <internalNodes>
            0 -1 217 -2.9134915675967932e-03</internalNodes>
          <leafValues>
            4.3232920765876770e-01 -1.5829467773437500e-01</leafValues></_>
        <_>
          <internalNodes>
            0 -1 225 -4.2683817446231842e-03</internalNodes>
          <leafValues>
            -6.6775625944137573e-01 9.4438716769218445e-02</leafValues></_>
        <_>
          <internalNodes>
            0 -1 40 1.2711132876574993e-03</internalNodes>
          <leafValues>
            -1.8917465209960938e-01 3.2464709877967834e-01</leafValues></_>
        <_>
          <internalNodes>
            0 -1 117 -6.7072957754135132e-03</internalNodes>
          <leafValues>
            5.0840979814529419e-01 -1.0857445001602173e-01</leafValues></_>
        <_>
          <internalNodes>
            0 -1 11 -3.1329435296356678e-04</internalNodes>
          <leafValues>
            -5.0766396522521973e-01 1.2684589624404907e-01</leafValues></_>
        <_>
          <internalNodes>
            0 -1 122 -3.1470647081732750e-04</internalNodes>
          <leafValues>
            2.8246712684631348e-01 -2.2436115145683289e-01</leafValues></_></weakClassifiers></_>
    <!-- stage 12 -->
    <_>
      <maxWeakCount>24</maxWeakCount>
      <stageThreshold>-8.2185107469558716e-01</stageThreshold>
      <weakClassifiers>
        <_>
          <internalNodes>
            0 -1 95 -3.3547127246856689e-01</internalNodes>
          <leafValues>
            8.6956523358821869e-02 -4.1091954708099365e-01</leafValues></_>
        <_>
          <internalNodes>
            0 -1 177 -7.1319419657811522e-04</internalNodes>
          <leafValues>
            -5.0842398405075073e-01 9.9934399127960205e-02</leafValues></_>
        <_>
          <internalNodes>
            0 -1 182 9.2857971321791410e-04</internalNodes>
          <leafValues>
            -8.1344500184059143e-02 5.9110730886459351e-01</leafValues></_>
        <_>
          <internalNodes>
            0 -1 174 8.4119912935420871e-04</internalNodes>
          <leafValues>
            8.6277008056640625e-02 -6.7846679687500000e-01</leafValues></_>
        <_>
          <internalNodes>
            0 -1 87 -1.8306539859622717e-03</internalNodes>
          <leafValues>
            3.1997570395469666e-01 -1.7787577211856842e-01</leafValues></_>
        <_>
          <internalNodes>
            0 -1 168 -8.3431659732013941e-04</internalNodes>
          <leafValues>
            3.0213028192520142e-01 -2.0187169313430786e-01</leafValues></_>
        <_>
          <internalNodes>
            0 -1 289 -4.8045758157968521e-03</internalNodes>
          <leafValues>
            5.3756463527679443e-01 -1.0667216777801514e-01</leafValues></_>
        <_>
          <internalNodes>
            0 -1 19 -1.4818660565651953e-04</internalNodes>
          <leafValues>
            -4.9182292819023132e-01 1.3734710216522217e-01</leafValues></_>
        <_>
          <internalNodes>
            0 -1 98 -1.9182264804840088e-02</internalNodes>
          <leafValues>
            5.1829618215560913e-01 -1.2079658359289169e-01</leafValues></_>
        <_>
          <internalNodes>
            0 -1 114 1.2414829107001424e-03</internalNodes>
          <leafValues>
            -1.1940390616655350e-01 4.7157374024391174e-01</leafValues></_>
        <_>
          <internalNodes>
            0 -1 288 4.3260902166366577e-03</internalNodes>
          <leafValues>
            -8.6471870541572571e-02 6.5476715564727783e-01</leafValues></_>
        <_>
          <internalNodes>
            0 -1 308 1.2301637325435877e-03</internalNodes>
          <leafValues>
            7.0537365972995758e-02 -8.3209741115570068e-01</leafValues></_>
        <_>
          <internalNodes>
            0 -1 86 2.7086623013019562e-03</internalNodes>
          <leafValues>
            1.1210755258798599e-01 -4.9716988205909729e-01</leafValues></_>
        <_>
          <internalNodes>
            0 -1 210 -2.0547616295516491e-03</internalNodes>
          <leafValues>
            5.4619628190994263e-01 -1.0463957488536835e-01</leafValues></_>
        <_>
          <internalNodes>
            0 -1 160 6.0382881201803684e-04</internalNodes>
          <leafValues>
            -1.5171216428279877e-01 3.5699957609176636e-01</leafValues></_>
        <_>
          <internalNodes>
            0 -1 152 -1.5987906605005264e-02</internalNodes>
          <leafValues>
            2.7001136541366577e-01 -2.2310945391654968e-01</leafValues></_>
        <_>
          <internalNodes>
            0 -1 167 -5.2293715998530388e-03</internalNodes>
          <leafValues>
            -5.6796520948410034e-01 1.0060229152441025e-01</leafValues></_>
        <_>
          <internalNodes>
            0 -1 273 4.1526259155943990e-04</internalNodes>
          <leafValues>
            -1.5736985206604004e-01 3.8179832696914673e-01</leafValues></_>
        <_>
          <internalNodes>
            0 -1 78 2.4464249610900879e-02</internalNodes>
          <leafValues>
            7.0042595267295837e-02 -8.5566210746765137e-01</leafValues></_>
        <_>
          <internalNodes>
            0 -1 127 -2.9673788230866194e-03</internalNodes>
          <leafValues>
            4.5744532346725464e-01 -1.3389299809932709e-01</leafValues></_>
        <_>
          <internalNodes>
            0 -1 310 -3.3723062369972467e-04</internalNodes>
          <leafValues>
            -6.6509884595870972e-01 9.5013357698917389e-02</leafValues></_>
        <_>
          <internalNodes>
            0 -1 320 8.1867404514923692e-04</internalNodes>
          <leafValues>
            6.2455676496028900e-02 -7.1352601051330566e-01</leafValues></_>
        <_>
          <internalNodes>
            0 -1 85 -2.6271759998053312e-04</internalNodes>
          <leafValues>
            2.0185783505439758e-01 -2.8015750646591187e-01</leafValues></_>
        <_>
          <internalNodes>
            0 -1 99 4.5091536594554782e-04</internalNodes>
          <leafValues>
            -1.5384635329246521e-01 3.8245683908462524e-01</leafValues></_></weakClassifiers></_>
    <!-- stage 13 -->
    <_>
      <maxWeakCount>27</maxWeakCount>
      <stageThreshold>-9.7351694107055664e-01</stageThreshold>
      <weakClassifiers>
        <_>
          <internalNodes>
            0 -1 198 -2.0515147596597672e-02</internalNodes>
          <leafValues>
            3.6612021923065186e-01 -3.0323848128318787e-01</leafValues></_>
        <_>
          <internalNodes>
            0 -1 213 2.7114362455904484e-03</internalNodes>
          <leafValues>
            -1.5108463168144226e-01 3.6765551567077637e-01</leafValues></_>
        <_>
          <internalNodes>
            0 -1 18 -4.6484783524647355e-06</internalNodes>
          <leafValues>
            2.5840201973915100e-01 -2.1139045059680939e-01</leafValues></_>
        <_>
          <internalNodes>
            0 -1 172 -5.5152620188891888e-03</internalNodes>
          <leafValues>
            -5.8953887224197388e-01 9.1596029698848724e-02</leafValues></_>
        <_>
          <internalNodes>
            0 -1 14 -4.6479026786983013e-04</internalNodes>
          <leafValues>
            -4.3274879455566406e-01 1.6502839326858521e-01</leafValues></_>
        <_>
          <internalNodes>
            0 -1 306 2.9330458492040634e-03</internalNodes>
          <leafValues>
            -1.2854655086994171e-01 5.1749122142791748e-01</leafValues></_>
        <_>
          <internalNodes>
            0 -1 230 -1.7336258315481246e-04</internalNodes>
          <leafValues>
            -4.7058406472206116e-01 1.2794826924800873e-01</leafValues></_>
        <_>
          <internalNodes>
            0 -1 181 5.2545154467225075e-03</internalNodes>
          <leafValues>
            -1.8454924225807190e-01 3.0265465378761292e-01</leafValues></_>
        <_>
          <internalNodes>
            0 -1 257 -2.6954771950840950e-02</internalNodes>
          <leafValues>
            6.2222695350646973e-01 -8.4233619272708893e-02</leafValues></_>
        <_>
          <internalNodes>
            0 -1 262 1.1748499237000942e-02</internalNodes>
          <leafValues>
            -1.8349370360374451e-01 2.9242706298828125e-01</leafValues></_>
        <_>
          <internalNodes>
            0 -1 286 6.1549236997961998e-03</internalNodes>
          <leafValues>
            -1.6574938595294952e-01 3.4903359413146973e-01</leafValues></_>
        <_>
          <internalNodes>
            0 -1 82 -1.5031218063086271e-03</internalNodes>
          <leafValues>
            3.9460951089859009e-01 -1.2771250307559967e-01</leafValues></_>
        <_>
          <internalNodes>
            0 -1 82 6.9740030448883772e-04</internalNodes>
          <leafValues>
            -1.7444849014282227e-01 3.4764429926872253e-01</leafValues></_>
        <_>
          <internalNodes>
            0 -1 256 -7.9624535283073783e-04</internalNodes>
          <leafValues>
            2.9375168681144714e-01 -1.8555817008018494e-01</leafValues></_>
        <_>
          <internalNodes>
            0 -1 292 3.8351456169039011e-05</internalNodes>
          <leafValues>
            2.0622994005680084e-01 -2.6083150506019592e-01</leafValues></_>
        <_>
          <internalNodes>
            0 -1 234 -2.5321280118077993e-03</internalNodes>
          <leafValues>
            -7.0182824134826660e-01 7.7766671776771545e-02</leafValues></_>
        <_>
          <internalNodes>
            0 -1 260 -4.2444076825631782e-05</internalNodes>
          <leafValues>
            1.8910470604896545e-01 -2.8717443346977234e-01</leafValues></_>
        <_>
          <internalNodes>
            0 -1 296 -4.8716305173002183e-05</internalNodes>
          <leafValues>
            -3.1480970978736877e-01 1.7247478663921356e-01</leafValues></_>
        <_>
          <internalNodes>
            0 -1 140 2.5148037821054459e-03</internalNodes>
          <leafValues>
            -1.4747563004493713e-01 3.6887106299400330e-01</leafValues></_>
        <_>
          <internalNodes>
            0 -1 67 3.7378579145297408e-04</internalNodes>
          <leafValues>
            9.5551304519176483e-02 -5.4244554042816162e-01</leafValues></_>
        <_>
          <internalNodes>
            0 -1 173 -5.5770156905055046e-04</internalNodes>
          <leafValues>
            2.2913333773612976e-01 -2.4099449813365936e-01</leafValues></_>
        <_>
          <internalNodes>
            0 -1 290 1.8133409321308136e-02</internalNodes>
          <leafValues>
            -8.8808618485927582e-02 6.8597084283828735e-01</leafValues></_>
        <_>
          <internalNodes>
            0 -1 284 9.8369978368282318e-03</internalNodes>
          <leafValues>
            9.4264470040798187e-02 -7.7909624576568604e-01</leafValues></_>
        <_>
          <internalNodes>
            0 -1 269 3.6500252783298492e-02</internalNodes>
          <leafValues>
            -1.3864514231681824e-01 5.5855858325958252e-01</leafValues></_>
        <_>
          <internalNodes>
            0 -1 267 1.9866682123392820e-04</internalNodes>
          <leafValues>
            -1.6237625479698181e-01 3.5309338569641113e-01</leafValues></_>
        <_>
          <internalNodes>
            0 -1 77 -9.4543174782302231e-05</internalNodes>
          <leafValues>
            -3.5265123844146729e-01 1.5697251260280609e-01</leafValues></_>
        <_>
          <internalNodes>
            0 -1 10 -2.5395717471837997e-02</internalNodes>
          <leafValues>
            4.4929987192153931e-01 -1.5279309451580048e-01</leafValues></_></weakClassifiers></_>
    <!-- stage 14 -->
    <_>
      <maxWeakCount>23</maxWeakCount>
      <stageThreshold>-9.6430861949920654e-01</stageThreshold>
      <weakClassifiers>
        <_>
          <internalNodes>
            0 -1 252 -1.8742348765954375e-04</internalNodes>
          <leafValues>
            1.4641288435086608e-03 -4.6820810437202454e-01</leafValues></_>
        <_>
          <internalNodes>
            0 -1 20 -5.0628349184989929e-02</internalNodes>
          <leafValues>
            -8.0523067712783813e-01 5.5173475295305252e-02</leafValues></_>
        <_>
          <internalNodes>
            0 -1 25 9.5154345035552979e-03</internalNodes>
          <leafValues>
            1.1251887679100037e-01 -6.9801229238510132e-01</leafValues></_>
        <_>
          <internalNodes>
            0 -1 298 -1.9615974277257919e-02</internalNodes>
          <leafValues>
            -7.3407304286956787e-01 5.8201089501380920e-02</leafValues></_>
        <_>
          <internalNodes>
            0 -1 3 -8.4151312708854675e-02</internalNodes>
          <leafValues>
            2.6149061322212219e-01 -2.2086709737777710e-01</leafValues></_>
        <_>
          <internalNodes>
            0 -1 187 -7.8805314842611551e-05</internalNodes>
          <leafValues>
            3.0772709846496582e-01 -1.6576838493347168e-01</leafValues></_>
        <_>
          <internalNodes>
            0 -1 228 4.5327385305427015e-04</internalNodes>
          <leafValues>
            1.0284161567687988e-01 -6.0955584049224854e-01</leafValues></_>
        <_>
          <internalNodes>
            0 -1 1 3.6848455667495728e-01</internalNodes>
          <leafValues>
            -9.4316653907299042e-02 6.7668032646179199e-01</leafValues></_>
        <_>
          <internalNodes>
            0 -1 220 -2.2504589287564158e-04</internalNodes>
          <leafValues>
            3.8629004359245300e-01 -1.5504497289657593e-01</leafValues></_>
        <_>
          <internalNodes>
            0 -1 190 4.2279111221432686e-04</internalNodes>
          <leafValues>
            1.6081450879573822e-01 -3.9067324995994568e-01</leafValues></_>
        <_>
          <internalNodes>
            0 -1 245 -4.1053248569369316e-03</internalNodes>
          <leafValues>
            4.1528436541557312e-01 -1.3706062734127045e-01</leafValues></_>
        <_>
          <internalNodes>
            0 -1 196 -8.0435639247298241e-03</internalNodes>
          <leafValues>
            4.9671888351440430e-01 -1.3836973905563354e-01</leafValues></_>
        <_>
          <internalNodes>
            0 -1 324 -9.9518481874838471e-05</internalNodes>
          <leafValues>
            -4.1625082492828369e-01 1.4707978069782257e-01</leafValues></_>
        <_>
          <internalNodes>
            0 -1 279 5.3702611476182938e-03</internalNodes>
          <leafValues>
            -1.0549003630876541e-01 6.0374492406845093e-01</leafValues></_>
        <_>
          <internalNodes>
            0 -1 272 -5.3533457685261965e-04</internalNodes>
          <leafValues>
            3.2589587569236755e-01 -2.0140145719051361e-01</leafValues></_>
        <_>
          <internalNodes>
            0 -1 116 1.2839960865676403e-02</internalNodes>
          <leafValues>
            -8.6313046514987946e-02 7.5445097684860229e-01</leafValues></_>
        <_>
          <internalNodes>
            0 -1 112 -4.6505792997777462e-03</internalNodes>
          <leafValues>
            2.5274619460105896e-01 -2.5090244412422180e-01</leafValues></_>
        <_>
          <internalNodes>
            0 -1 321 5.5015279940562323e-05</internalNodes>
          <leafValues>
            1.4011470973491669e-01 -4.9352568387985229e-01</leafValues></_>
        <_>
          <internalNodes>
            0 -1 161 1.1954323388636112e-02</internalNodes>
          <leafValues>
            1.0648120939731598e-01 -5.6821000576019287e-01</leafValues></_>
        <_>
          <internalNodes>
            0 -1 101 8.8808767031878233e-04</internalNodes>
          <leafValues>
            -2.0254980027675629e-01 3.4315448999404907e-01</leafValues></_>
        <_>
          <internalNodes>
            0 -1 223 1.2894847895950079e-03</internalNodes>
          <leafValues>
            7.5951598584651947e-02 -7.3238599300384521e-01</leafValues></_>
        <_>
          <internalNodes>
            0 -1 235 -1.0988721624016762e-03</internalNodes>
          <leafValues>
            3.8599395751953125e-01 -1.7182226479053497e-01</leafValues></_>
        <_>
          <internalNodes>
            0 -1 89 -8.2168383523821831e-03</internalNodes>
          <leafValues>
            5.3690916299819946e-01 -9.2487789690494537e-02</leafValues></_></weakClassifiers></_>
    <!-- stage 15 -->
    <_>
      <maxWeakCount>27</maxWeakCount>
      <stageThreshold>-9.0226668119430542e-01</stageThreshold>
      <weakClassifiers>
        <_>
          <internalNodes>
            0 -1 39 1.3809708878397942e-02</internalNodes>
          <leafValues>
            -3.4916865825653076e-01 1.4444445073604584e-01</leafValues></_>
        <_>
          <internalNodes>
            0 -1 21 5.1139708375558257e-05</internalNodes>
          <leafValues>
            1.2583751976490021e-01 -4.1276708245277405e-01</leafValues></_>
        <_>
          <internalNodes>
            0 -1 203 -2.2937525063753128e-03</internalNodes>
          <leafValues>
            7.4778431653976440e-01 -7.2484456002712250e-02</leafValues></_>
        <_>
          <internalNodes>
            0 -1 134 1.7686540959402919e-03</internalNodes>
          <leafValues>
            -1.2626399099826813e-01 3.9151859283447266e-01</leafValues></_>
        <_>
          <internalNodes>
            0 -1 246 -3.5303963813930750e-03</internalNodes>
          <leafValues>
            5.1852226257324219e-01 -8.8406249880790710e-02</leafValues></_>
        <_>
          <internalNodes>
            0 -1 195 -1.0574439540505409e-02</internalNodes>
          <leafValues>
            4.2459172010421753e-01 -1.2347144633531570e-01</leafValues></_>
        <_>
          <internalNodes>
            0 -1 158 -3.7862726003368152e-06</internalNodes>
          <leafValues>
            1.9281101226806641e-01 -3.3132487535476685e-01</leafValues></_>
        <_>
          <internalNodes>
            0 -1 236 1.3670781627297401e-03</internalNodes>
          <leafValues>
            -1.6462337970733643e-01 3.9641776680946350e-01</leafValues></_>
        <_>
          <internalNodes>
            0 -1 229 4.8629203229211271e-04</internalNodes>
          <leafValues>
            1.0281817615032196e-01 -6.6320067644119263e-01</leafValues></_>
        <_>
          <internalNodes>
            0 -1 26 2.9320107772946358e-02</internalNodes>
          <leafValues>
            4.9410592764616013e-02 -6.5409189462661743e-01</leafValues></_>
        <_>
          <internalNodes>
            0 -1 207 -3.2251235097646713e-04</internalNodes>
          <leafValues>
            -2.8953388333320618e-01 1.8793353438377380e-01</leafValues></_>
        <_>
          <internalNodes>
            0 -1 299 4.2156461626291275e-02</internalNodes>
          <leafValues>
            -1.1041525751352310e-01 5.5227023363113403e-01</leafValues></_>
        <_>
          <internalNodes>
            0 -1 208 -3.8331502582877874e-04</internalNodes>
          <leafValues>
            2.9374492168426514e-01 -1.9482707977294922e-01</leafValues></_>
        <_>
          <internalNodes>
            0 -1 68 4.2141426820307970e-04</internalNodes>
          <leafValues>
            -2.8880259394645691e-01 1.8827868998050690e-01</leafValues></_>
        <_>
          <internalNodes>
            0 -1 146 5.2417805418372154e-03</internalNodes>
          <leafValues>
            -2.7040481567382812e-01 2.2056934237480164e-01</leafValues></_>
        <_>
          <internalNodes>
            0 -1 248 -2.1128463558852673e-03</internalNodes>
          <leafValues>
            3.2542818784713745e-01 -2.2363549470901489e-01</leafValues></_>
        <_>
          <internalNodes>
            0 -1 300 -1.6569707542657852e-02</internalNodes>
          <leafValues>
            6.0826396942138672e-01 -9.1770850121974945e-02</leafValues></_>
        <_>
          <internalNodes>
            0 -1 280 -3.8370036054402590e-04</internalNodes>
          <leafValues>
            -5.4187107086181641e-01 1.1927405744791031e-01</leafValues></_>
        <_>
          <internalNodes>
            0 -1 150 1.6312321648001671e-02</internalNodes>
          <leafValues>
            8.1796221435070038e-02 -6.6148006916046143e-01</leafValues></_>
        <_>
          <internalNodes>
            0 -1 293 2.2621502284891903e-04</internalNodes>
          <leafValues>
            -1.9890105724334717e-01 3.3446854352951050e-01</leafValues></_>
        <_>
          <internalNodes>
            0 -1 184 -4.6116774901747704e-03</internalNodes>
          <leafValues>
            5.1833671331405640e-01 -1.1487160623073578e-01</leafValues></_>
        <_>
          <internalNodes>
            0 -1 221 5.2765743021154776e-05</internalNodes>
          <leafValues>
            -1.7136548459529877e-01 3.5664293169975281e-01</leafValues></_>
        <_>
          <internalNodes>
            0 -1 312 -8.3014136180281639e-04</internalNodes>
          <leafValues>
            -4.1987946629524231e-01 1.5173193812370300e-01</leafValues></_>
        <_>
          <internalNodes>
            0 -1 291 -3.4566647373139858e-03</internalNodes>
          <leafValues>
            1.3896401226520538e-01 -4.2464742064476013e-01</leafValues></_>
        <_>
          <internalNodes>
            0 -1 326 -7.3209227994084358e-03</internalNodes>
          <leafValues>
            6.5436333417892456e-01 -1.1701665073633194e-01</leafValues></_>
        <_>
          <internalNodes>
            0 -1 276 -2.8474039863795042e-03</internalNodes>
          <leafValues>
            3.4805196523666382e-01 -1.7225122451782227e-01</leafValues></_>
        <_>
          <internalNodes>
            0 -1 88 2.0304005593061447e-03</internalNodes>
          <leafValues>
            -1.3964858651161194e-01 4.7100400924682617e-01</leafValues></_></weakClassifiers></_>
    <!-- stage 16 -->
    <_>
      <maxWeakCount>23</maxWeakCount>
      <stageThreshold>-9.6420651674270630e-01</stageThreshold>
      <weakClassifiers>
        <_>
          <internalNodes>
            0 -1 30 1.6249972581863403e-01</internalNodes>
          <leafValues>
            -3.2550692558288574e-01 2.3773585259914398e-01</leafValues></_>
        <_>
          <internalNodes>
            0 -1 52 -6.9041907787322998e-02</internalNodes>
          <leafValues>
            3.8036027550697327e-01 -1.4543880522251129e-01</leafValues></_>
        <_>
          <internalNodes>
            0 -1 244 3.9217870835273061e-06</internalNodes>
          <leafValues>
            -3.1577697396278381e-01 1.6231170296669006e-01</leafValues></_>
        <_>
          <internalNodes>
            0 -1 151 1.0175360366702080e-03</internalNodes>
          <leafValues>
            -8.0716572701931000e-02 5.0358015298843384e-01</leafValues></_>
        <_>
          <internalNodes>
            0 -1 180 -3.3867438323795795e-03</internalNodes>
          <leafValues>
            5.9832334518432617e-01 -7.6488144695758820e-02</leafValues></_>
        <_>
          <internalNodes>
            0 -1 287 -1.6967652481980622e-04</internalNodes>
          <leafValues>
            -2.5663825869560242e-01 2.0175516605377197e-01</leafValues></_>
        <_>
          <internalNodes>
            0 -1 227 -1.9200011156499386e-03</internalNodes>
          <leafValues>
            3.3974501490592957e-01 -1.7846529185771942e-01</leafValues></_>
        <_>
          <internalNodes>
            0 -1 27 -2.0384317031130195e-04</internalNodes>
          <leafValues>
            -3.5328757762908936e-01 1.6716426610946655e-01</leafValues></_>
        <_>
          <internalNodes>
            0 -1 186 -1.6565369442105293e-03</internalNodes>
          <leafValues>
            4.3396869301795959e-01 -1.3822726905345917e-01</leafValues></_>
        <_>
          <internalNodes>
            0 -1 259 -1.7606294713914394e-03</internalNodes>
          <leafValues>
            -6.8604910373687744e-01 8.8151961565017700e-02</leafValues></_>
        <_>
          <internalNodes>
            0 -1 253 -1.3482082635164261e-02</internalNodes>
          <leafValues>
            -8.8182002305984497e-01 7.0126891136169434e-02</leafValues></_>
        <_>
          <internalNodes>
            0 -1 323 1.1468585580587387e-03</internalNodes>
          <leafValues>
            5.5916454643011093e-02 -7.6833617687225342e-01</leafValues></_>
        <_>
          <internalNodes>
            0 -1 170 -1.1138422414660454e-03</internalNodes>
          <leafValues>
            3.6939010024070740e-01 -1.7666542530059814e-01</leafValues></_>
        <_>
          <internalNodes>
            0 -1 55 5.9894890000578016e-05</internalNodes>
          <leafValues>
            -2.3391719162464142e-01 2.6179936528205872e-01</leafValues></_>
        <_>
          <internalNodes>
            0 -1 49 1.9222240895032883e-02</internalNodes>
          <leafValues>
            1.1352097988128662e-01 -5.7359170913696289e-01</leafValues></_>
        <_>
          <internalNodes>
            0 -1 59 -3.4338154364377260e-03</internalNodes>
          <leafValues>
            2.6809298992156982e-01 -2.2780434787273407e-01</leafValues></_>
        <_>
          <internalNodes>
            0 -1 159 -6.0771673452109098e-04</internalNodes>
          <leafValues>
            -3.4431156516075134e-01 1.5948937833309174e-01</leafValues></_>
        <_>
          <internalNodes>
            0 -1 254 -2.4017324903979897e-04</internalNodes>
          <leafValues>
            2.5843355059623718e-01 -2.2357915341854095e-01</leafValues></_>
        <_>
          <internalNodes>
            0 -1 278 -4.8396340571343899e-04</internalNodes>
          <leafValues>
            4.8919579386711121e-01 -1.2446708977222443e-01</leafValues></_>
        <_>
          <internalNodes>
            0 -1 275 -5.0797192670870572e-05</internalNodes>
          <leafValues>
            2.6925933361053467e-01 -2.3082289099693298e-01</leafValues></_>
        <_>
          <internalNodes>
            0 -1 314 2.5034492136910558e-04</internalNodes>
          <leafValues>
            9.9607013165950775e-02 -6.2802815437316895e-01</leafValues></_>
        <_>
          <internalNodes>
            0 -1 216 -3.9246194064617157e-03</internalNodes>
          <leafValues>
            5.8551973104476929e-01 -1.2828908860683441e-01</leafValues></_>
        <_>
          <internalNodes>
            0 -1 124 1.4554783701896667e-03</internalNodes>
          <leafValues>
            1.0606636852025986e-01 -7.1797984838485718e-01</leafValues></_></weakClassifiers></_></stages>
  <features>
    <_>
      <rects>
        <_>
          0 0 27 42 -1.</_>
        <_>
          9 14 9 14 9.</_></rects>
      <tilted>0</tilted></_>
    <_>
      <rects>
        <_>
          0 0 30 24 -1.</_>
        <_>
          10 8 10 8 9.</_></rects>
      <tilted>0</tilted></_>
    <_>
      <rects>
        <_>
          0 0 30 48 -1.</_>
        <_>
          10 16 10 16 9.</_></rects>
      <tilted>0</tilted></_>
    <_>
      <rects>
        <_>
          0 5 12 30 -1.</_>
        <_>
          6 5 6 30 2.</_></rects>
      <tilted>0</tilted></_>
    <_>
      <rects>
        <_>
          0 11 27 4 -1.</_>
        <_>
          0 13 27 2 2.</_></rects>
      <tilted>0</tilted></_>
    <_>
      <rects>
        <_>
          0 14 30 33 -1.</_>
        <_>
          10 25 10 11 9.</_></rects>
      <tilted>0</tilted></_>
    <_>
      <rects>
        <_>
          0 15 15 2 -1.</_>
        <_>
          5 15 5 2 3.</_></rects>
      <tilted>0</tilted></_>
    <_>
      <rects>
        <_>
          0 18 28 28 -1.</_>
        <_>
          7 18 14 28 2.</_></rects>
      <tilted>0</tilted></_>
    <_>
      <rects>
        <_>
          0 18 18 14 -1.</_>
        <_>
          0 18 9 7 2.</_>
        <_>
          9 25 9 7 2.</_></rects>
      <tilted>0</tilted></_>
    <_>
      <rects>
        <_>
          0 20 14 27 -1.</_>
        <_>
          7 20 7 27 2.</_></rects>
      <tilted>0</tilted></_>
    <_>
      <rects>
        <_>
          0 24 16 11 -1.</_>
        <_>
          4 24 8 11 2.</_></rects>
      <tilted>0</tilted></_>
    <_>
      <rects>
        <_>
          0 32 3 5 -1.</_>
        <_>
          1 32 1 5 3.</_></rects>
      <tilted>0</tilted></_>
    <_>
      <rects>
        <_>
          0 34 2 2 -1.</_>
        <_>
          1 34 1 2 2.</_></rects>
      <tilted>0</tilted></_>
    <_>
      <rects>
        <_>
          0 38 4 2 -1.</_>
        <_>
          1 38 2 2 2.</_></rects>
      <tilted>0</tilted></_>
    <_>
      <rects>
        <_>
          0 38 6 3 -1.</_>
        <_>
          2 38 2 3 3.</_></rects>
      <tilted>0</tilted></_>
    <_>
      <rects>
        <_>
          0 39 2 6 -1.</_>
        <_>
          1 39 1 6 2.</_></rects>
      <tilted>0</tilted></_>
    <_>
      <rects>
        <_>
          0 39 12 6 -1.</_>
        <_>
          4 39 4 6 3.</_></rects>
      <tilted>0</tilted></_>
    <_>
      <rects>
        <_>
          0 40 2 2 -1.</_>
        <_>
          1 40 1 2 2.</_></rects>
      <tilted>0</tilted></_>
    <_>
      <rects>
        <_>
          0 42 1 2 -1.</_>
        <_>
          0 43 1 1 2.</_></rects>
      <tilted>0</tilted></_>
    <_>
      <rects>
        <_>
          0 43 4 3 -1.</_>
        <_>
          1 43 2 3 2.</_></rects>
      <tilted>0</tilted></_>
    <_>
      <rects>
        <_>
          0 43 30 5 -1.</_>
        <_>
          15 43 15 5 2.</_></rects>
      <tilted>0</tilted></_>
    <_>
      <rects>
        <_>
          0 44 2 3 -1.</_>
        <_>
          1 44 1 3 2.</_></rects>
      <tilted>0</tilted></_>
    <_>
      <rects>
        <_>
          0 45 10 2 -1.</_>
        <_>
          5 45 5 2 2.</_></rects>
      <tilted>0</tilted></_>
    <_>
      <rects>
        <_>
          0 47 2 1 -1.</_>
        <_>
          1 47 1 1 2.</_></rects>
      <tilted>0</tilted></_>
    <_>
      <rects>
        <_>
          0 47 14 1 -1.</_>
        <_>
          7 47 7 1 2.</_></rects>
      <tilted>0</tilted></_>
    <_>
      <rects>
        <_>
          0 47 28 1 -1.</_>
        <_>
          14 47 14 1 2.</_></rects>
      <tilted>0</tilted></_>
    <_>
      <rects>
        <_>
          1 0 28 3 -1.</_>
        <_>
          15 0 14 3 2.</_></rects>
      <tilted>0</tilted></_>
    <_>
      <rects>
        <_>
          1 3 4 1 -1.</_>
        <_>
          3 3 2 1 2.</_></rects>
      <tilted>0</tilted></_>
    <_>
      <rects>
        <_>
          1 3 28 28 -1.</_>
        <_>
          1 10 28 14 2.</_></rects>
      <tilted>0</tilted></_>
    <_>
      <rects>
        <_>
          1 5 28 43 -1.</_>
        <_>
          8 5 14 43 2.</_></rects>
      <tilted>0</tilted></_>
    <_>
      <rects>
        <_>
          1 10 25 30 -1.</_>
        <_>
          1 25 25 15 2.</_></rects>
      <tilted>0</tilted></_>
    <_>
      <rects>
        <_>
          1 11 8 32 -1.</_>
        <_>
          5 11 4 32 2.</_></rects>
      <tilted>0</tilted></_>
    <_>
      <rects>
        <_>
          1 11 24 31 -1.</_>
        <_>
          9 11 8 31 3.</_></rects>
      <tilted>0</tilted></_>
    <_>
      <rects>
        <_>
          1 19 28 24 -1.</_>
        <_>
          8 19 14 24 2.</_></rects>
      <tilted>0</tilted></_>
    <_>
      <rects>
        <_>
          1 20 28 24 -1.</_>
        <_>
          8 20 14 24 2.</_></rects>
      <tilted>0</tilted></_>
    <_>
      <rects>
        <_>
          1 22 26 3 -1.</_>
        <_>
          1 23 26 1 3.</_></rects>
      <tilted>0</tilted></_>
    <_>
      <rects>
        <_>
          1 32 4 2 -1.</_>
        <_>
          2 32 2 2 2.</_></rects>
      <tilted>0</tilted></_>
    <_>
      <rects>
        <_>
          1 36 2 4 -1.</_>
        <_>
          1 38 2 2 2.</_></rects>
      <tilted>0</tilted></_>
    <_>
      <rects>
        <_>
          1 37 12 11 -1.</_>
        <_>
          5 37 4 11 3.</_></rects>
      <tilted>0</tilted></_>
    <_>
      <rects>
        <_>
          1 39 12 6 -1.</_>
        <_>
          5 41 4 2 9.</_></rects>
      <tilted>0</tilted></_>
    <_>
      <rects>
        <_>
          1 42 23 4 -1.</_>
        <_>
          1 43 23 2 2.</_></rects>
      <tilted>0</tilted></_>
    <_>
      <rects>
        <_>
          1 44 22 3 -1.</_>
        <_>
          1 45 22 1 3.</_></rects>
      <tilted>0</tilted></_>
    <_>
      <rects>
        <_>
          1 47 2 1 -1.</_>
        <_>
          2 47 1 1 2.</_></rects>
      <tilted>0</tilted></_>
    <_>
      <rects>
        <_>
          1 47 4 1 -1.</_>
        <_>
          3 47 2 1 2.</_></rects>
      <tilted>0</tilted></_>
    <_>
      <rects>
        <_>
          2 2 7 2 -1.</_>
        <_>
          2 2 7 1 2.</_></rects>
      <tilted>1</tilted></_>
    <_>
      <rects>
        <_>
          2 3 14 12 -1.</_>
        <_>
          2 3 7 6 2.</_>
        <_>
          9 9 7 6 2.</_></rects>
      <tilted>0</tilted></_>
    <_>
      <rects>
        <_>
          2 4 28 2 -1.</_>
        <_>
          9 11 14 2 2.</_></rects>
      <tilted>1</tilted></_>
    <_>
      <rects>
        <_>
          2 8 24 8 -1.</_>
        <_>
          2 12 24 4 2.</_></rects>
      <tilted>0</tilted></_>
    <_>
      <rects>
        <_>
          2 9 28 9 -1.</_>
        <_>
          9 9 14 9 2.</_></rects>
      <tilted>0</tilted></_>
    <_>
      <rects>
        <_>
          2 10 26 8 -1.</_>
        <_>
          2 10 13 4 2.</_>
        <_>
          15 14 13 4 2.</_></rects>
      <tilted>0</tilted></_>
    <_>
      <rects>
        <_>
          2 12 3 14 -1.</_>
        <_>
          3 12 1 14 3.</_></rects>
      <tilted>0</tilted></_>
    <_>
      <rects>
        <_>
          2 22 12 3 -1.</_>
        <_>
          6 22 4 3 3.</_></rects>
      <tilted>0</tilted></_>
    <_>
      <rects>
        <_>
          2 25 28 5 -1.</_>
        <_>
          9 25 14 5 2.</_></rects>
      <tilted>0</tilted></_>
    <_>
      <rects>
        <_>
          2 27 28 5 -1.</_>
        <_>
          9 27 14 5 2.</_></rects>
      <tilted>0</tilted></_>
    <_>
      <rects>
        <_>
          2 30 2 2 -1.</_>
        <_>
          3 30 1 2 2.</_></rects>
      <tilted>0</tilted></_>
    <_>
      <rects>
        <_>
          2 34 1 9 -1.</_>
        <_>
          2 37 1 3 3.</_></rects>
      <tilted>0</tilted></_>
    <_>
      <rects>
        <_>
          2 38 2 3 -1.</_>
        <_>
          3 38 1 3 2.</_></rects>
      <tilted>0</tilted></_>
    <_>
      <rects>
        <_>
          2 47 6 1 -1.</_>
        <_>
          5 47 3 1 2.</_></rects>
      <tilted>0</tilted></_>
    <_>
      <rects>
        <_>
          2 47 18 1 -1.</_>
        <_>
          11 47 9 1 2.</_></rects>
      <tilted>0</tilted></_>
    <_>
      <rects>
        <_>
          3 11 8 6 -1.</_>
        <_>
          3 14 8 3 2.</_></rects>
      <tilted>0</tilted></_>
    <_>
      <rects>
        <_>
          3 16 6 22 -1.</_>
        <_>
          3 16 3 11 2.</_>
        <_>
          6 27 3 11 2.</_></rects>
      <tilted>0</tilted></_>
    <_>
      <rects>
        <_>
          3 18 10 18 -1.</_>
        <_>
          3 18 5 9 2.</_>
        <_>
          8 27 5 9 2.</_></rects>
      <tilted>0</tilted></_>
    <_>
      <rects>
        <_>
          3 21 4 10 -1.</_>
        <_>
          3 21 2 5 2.</_>
        <_>
          5 26 2 5 2.</_></rects>
      <tilted>0</tilted></_>
    <_>
      <rects>
        <_>
          3 22 6 2 -1.</_>
        <_>
          3 22 3 1 2.</_>
        <_>
          6 23 3 1 2.</_></rects>
      <tilted>0</tilted></_>
    <_>
      <rects>
        <_>
          3 22 24 12 -1.</_>
        <_>
          11 26 8 4 9.</_></rects>
      <tilted>0</tilted></_>
    <_>
      <rects>
        <_>
          3 22 26 3 -1.</_>
        <_>
          3 23 26 1 3.</_></rects>
      <tilted>0</tilted></_>
    <_>
      <rects>
        <_>
          3 24 8 18 -1.</_>
        <_>
          3 24 4 9 2.</_>
        <_>
          7 33 4 9 2.</_></rects>
      <tilted>0</tilted></_>
    <_>
      <rects>
        <_>
          3 28 2 1 -1.</_>
        <_>
          3 28 1 1 2.</_></rects>
      <tilted>1</tilted></_>
    <_>
      <rects>
        <_>
          3 28 14 4 -1.</_>
        <_>
          3 30 14 2 2.</_></rects>
      <tilted>0</tilted></_>
    <_>
      <rects>
        <_>
          3 37 11 6 -1.</_>
        <_>
          3 40 11 3 2.</_></rects>
      <tilted>0</tilted></_>
    <_>
      <rects>
        <_>
          3 46 6 1 -1.</_>
        <_>
          6 46 3 1 2.</_></rects>
      <tilted>0</tilted></_>
    <_>
      <rects>
        <_>
          4 0 17 48 -1.</_>
        <_>
          4 16 17 16 3.</_></rects>
      <tilted>0</tilted></_>
    <_>
      <rects>
        <_>
          4 4 15 44 -1.</_>
        <_>
          4 15 15 22 2.</_></rects>
      <tilted>0</tilted></_>
    <_>
      <rects>
        <_>
          4 8 8 33 -1.</_>
        <_>
          8 8 4 33 2.</_></rects>
      <tilted>0</tilted></_>
    <_>
      <rects>
        <_>
          4 15 4 30 -1.</_>
        <_>
          5 15 2 30 2.</_></rects>
      <tilted>0</tilted></_>
    <_>
      <rects>
        <_>
          4 26 10 9 -1.</_>
        <_>
          9 26 5 9 2.</_></rects>
      <tilted>0</tilted></_>
    <_>
      <rects>
        <_>
          4 26 11 22 -1.</_>
        <_>
          4 37 11 11 2.</_></rects>
      <tilted>0</tilted></_>
    <_>
      <rects>
        <_>
          4 33 2 2 -1.</_>
        <_>
          5 33 1 2 2.</_></rects>
      <tilted>0</tilted></_>
    <_>
      <rects>
        <_>
          4 37 12 9 -1.</_>
        <_>
          4 40 12 3 3.</_></rects>
      <tilted>0</tilted></_>
    <_>
      <rects>
        <_>
          4 41 2 5 -1.</_>
        <_>
          5 41 1 5 2.</_></rects>
      <tilted>0</tilted></_>
    <_>
      <rects>
        <_>
          4 42 15 3 -1.</_>
        <_>
          9 43 5 1 9.</_></rects>
      <tilted>0</tilted></_>
    <_>
      <rects>
        <_>
          4 44 22 3 -1.</_>
        <_>
          4 45 22 1 3.</_></rects>
      <tilted>0</tilted></_>
    <_>
      <rects>
        <_>
          4 45 12 3 -1.</_>
        <_>
          4 46 12 1 3.</_></rects>
      <tilted>0</tilted></_>
    <_>
      <rects>
        <_>
          5 11 12 4 -1.</_>
        <_>
          5 13 12 2 2.</_></rects>
      <tilted>0</tilted></_>
    <_>
      <rects>
        <_>
          5 12 2 20 -1.</_>
        <_>
          5 12 1 10 2.</_>
        <_>
          6 22 1 10 2.</_></rects>
      <tilted>0</tilted></_>
    <_>
      <rects>
        <_>
          5 12 8 2 -1.</_>
        <_>
          5 13 8 1 2.</_></rects>
      <tilted>0</tilted></_>
    <_>
      <rects>
        <_>
          5 12 16 6 -1.</_>
        <_>
          5 15 16 3 2.</_></rects>
      <tilted>0</tilted></_>
    <_>
      <rects>
        <_>
          5 13 14 3 -1.</_>
        <_>
          4 14 14 1 3.</_></rects>
      <tilted>1</tilted></_>
    <_>
      <rects>
        <_>
          5 20 9 3 -1.</_>
        <_>
          4 21 9 1 3.</_></rects>
      <tilted>1</tilted></_>
    <_>
      <rects>
        <_>
          5 24 20 4 -1.</_>
        <_>
          4 25 20 2 2.</_></rects>
      <tilted>1</tilted></_>
    <_>
      <rects>
        <_>
          5 27 4 3 -1.</_>
        <_>
          6 27 2 3 2.</_></rects>
      <tilted>0</tilted></_>
    <_>
      <rects>
        <_>
          5 29 2 3 -1.</_>
        <_>
          5 29 1 3 2.</_></rects>
      <tilted>1</tilted></_>
    <_>
      <rects>
        <_>
          5 31 12 1 -1.</_>
        <_>
          9 31 4 1 3.</_></rects>
      <tilted>0</tilted></_>
    <_>
      <rects>
        <_>
          5 46 14 2 -1.</_>
        <_>
          5 47 14 1 2.</_></rects>
      <tilted>0</tilted></_>
    <_>
      <rects>
        <_>
          6 2 11 3 -1.</_>
        <_>
          6 3 11 1 3.</_></rects>
      <tilted>0</tilted></_>
    <_>
      <rects>
        <_>
          6 6 24 36 -1.</_>
        <_>
          14 18 8 12 9.</_></rects>
      <tilted>0</tilted></_>
    <_>
      <rects>
        <_>
          6 7 21 3 -1.</_>
        <_>
          6 8 21 1 3.</_></rects>
      <tilted>0</tilted></_>
    <_>
      <rects>
        <_>
          6 8 8 4 -1.</_>
        <_>
          6 8 4 2 2.</_>
        <_>
          10 10 4 2 2.</_></rects>
      <tilted>0</tilted></_>
    <_>
      <rects>
        <_>
          6 10 4 34 -1.</_>
        <_>
          6 10 2 17 2.</_>
        <_>
          8 27 2 17 2.</_></rects>
      <tilted>0</tilted></_>
    <_>
      <rects>
        <_>
          6 24 4 4 -1.</_>
        <_>
          6 25 4 2 2.</_></rects>
      <tilted>0</tilted></_>
    <_>
      <rects>
        <_>
          6 25 10 16 -1.</_>
        <_>
          6 33 10 8 2.</_></rects>
      <tilted>0</tilted></_>
    <_>
      <rects>
        <_>
          6 32 8 4 -1.</_>
        <_>
          6 32 4 2 2.</_>
        <_>
          10 34 4 2 2.</_></rects>
      <tilted>0</tilted></_>
    <_>
      <rects>
        <_>
          6 34 8 12 -1.</_>
        <_>
          8 34 4 12 2.</_></rects>
      <tilted>0</tilted></_>
    <_>
      <rects>
        <_>
          6 37 9 5 -1.</_>
        <_>
          9 37 3 5 3.</_></rects>
      <tilted>0</tilted></_>
    <_>
      <rects>
        <_>
          6 44 11 3 -1.</_>
        <_>
          6 45 11 1 3.</_></rects>
      <tilted>0</tilted></_>
    <_>
      <rects>
        <_>
          6 45 18 3 -1.</_>
        <_>
          6 46 18 1 3.</_></rects>
      <tilted>0</tilted></_>
    <_>
      <rects>
        <_>
          7 0 12 27 -1.</_>
        <_>
          11 9 4 9 9.</_></rects>
      <tilted>0</tilted></_>
    <_>
      <rects>
        <_>
          7 0 21 33 -1.</_>
        <_>
          14 11 7 11 9.</_></rects>
      <tilted>0</tilted></_>
    <_>
      <rects>
        <_>
          7 0 12 4 -1.</_>
        <_>
          7 1 12 2 2.</_></rects>
      <tilted>0</tilted></_>
    <_>
      <rects>
        <_>
          7 2 15 28 -1.</_>
        <_>
          7 9 15 14 2.</_></rects>
      <tilted>0</tilted></_>
    <_>
      <rects>
        <_>
          7 3 6 4 -1.</_>
        <_>
          7 3 3 4 2.</_></rects>
      <tilted>1</tilted></_>
    <_>
      <rects>
        <_>
          7 7 4 2 -1.</_>
        <_>
          7 7 2 1 2.</_>
        <_>
          9 8 2 1 2.</_></rects>
      <tilted>0</tilted></_>
    <_>
      <rects>
        <_>
          7 8 4 36 -1.</_>
        <_>
          7 8 2 18 2.</_>
        <_>
          9 26 2 18 2.</_></rects>
      <tilted>0</tilted></_>
    <_>
      <rects>
        <_>
          7 14 2 30 -1.</_>
        <_>
          7 29 2 15 2.</_></rects>
      <tilted>0</tilted></_>
    <_>
      <rects>
        <_>
          7 16 3 3 -1.</_>
        <_>
          8 17 1 3 3.</_></rects>
      <tilted>1</tilted></_>
    <_>
      <rects>
        <_>
          7 18 22 16 -1.</_>
        <_>
          7 26 22 8 2.</_></rects>
      <tilted>0</tilted></_>
    <_>
      <rects>
        <_>
          7 19 4 22 -1.</_>
        <_>
          7 19 2 11 2.</_>
        <_>
          9 30 2 11 2.</_></rects>
      <tilted>0</tilted></_>
    <_>
      <rects>
        <_>
          7 28 4 18 -1.</_>
        <_>
          7 28 2 9 2.</_>
        <_>
          9 37 2 9 2.</_></rects>
      <tilted>0</tilted></_>
    <_>
      <rects>
        <_>
          7 28 20 6 -1.</_>
        <_>
          7 31 20 3 2.</_></rects>
      <tilted>0</tilted></_>
    <_>
      <rects>
        <_>
          7 36 9 5 -1.</_>
        <_>
          10 36 3 5 3.</_></rects>
      <tilted>0</tilted></_>
    <_>
      <rects>
        <_>
          7 37 9 3 -1.</_>
        <_>
          10 37 3 3 3.</_></rects>
      <tilted>0</tilted></_>
    <_>
      <rects>
        <_>
          7 38 9 9 -1.</_>
        <_>
          10 38 3 9 3.</_></rects>
      <tilted>0</tilted></_>
    <_>
      <rects>
        <_>
          7 43 8 3 -1.</_>
        <_>
          7 44 8 1 3.</_></rects>
      <tilted>0</tilted></_>
    <_>
      <rects>
        <_>
          7 44 13 4 -1.</_>
        <_>
          7 45 13 2 2.</_></rects>
      <tilted>0</tilted></_>
    <_>
      <rects>
        <_>
          7 47 8 1 -1.</_>
        <_>
          9 47 4 1 2.</_></rects>
      <tilted>0</tilted></_>
    <_>
      <rects>
        <_>
          8 6 13 3 -1.</_>
        <_>
          8 7 13 1 3.</_></rects>
      <tilted>0</tilted></_>
    <_>
      <rects>
        <_>
          8 7 2 2 -1.</_>
        <_>
          8 7 1 1 2.</_>
        <_>
          9 8 1 1 2.</_></rects>
      <tilted>0</tilted></_>
    <_>
      <rects>
        <_>
          8 7 3 8 -1.</_>
        <_>
          9 8 1 8 3.</_></rects>
      <tilted>1</tilted></_>
    <_>
      <rects>
        <_>
          8 32 9 10 -1.</_>
        <_>
          11 32 3 10 3.</_></rects>
      <tilted>0</tilted></_>
    <_>
      <rects>
        <_>
          8 34 9 3 -1.</_>
        <_>
          11 35 3 1 9.</_></rects>
      <tilted>0</tilted></_>
    <_>
      <rects>
        <_>
          8 36 9 7 -1.</_>
        <_>
          11 36 3 7 3.</_></rects>
      <tilted>0</tilted></_>
    <_>
      <rects>
        <_>
          8 45 2 3 -1.</_>
        <_>
          8 46 2 1 3.</_></rects>
      <tilted>0</tilted></_>
    <_>
      <rects>
        <_>
          8 45 16 2 -1.</_>
        <_>
          8 46 16 1 2.</_></rects>
      <tilted>0</tilted></_>
    <_>
      <rects>
        <_>
          8 46 9 2 -1.</_>
        <_>
          8 47 9 1 2.</_></rects>
      <tilted>0</tilted></_>
    <_>
      <rects>
        <_>
          9 0 8 3 -1.</_>
        <_>
          9 1 8 1 3.</_></rects>
      <tilted>0</tilted></_>
    <_>
      <rects>
        <_>
          9 0 10 4 -1.</_>
        <_>
          9 2 10 2 2.</_></rects>
      <tilted>0</tilted></_>
    <_>
      <rects>
        <_>
          9 0 16 4 -1.</_>
        <_>
          9 1 16 2 2.</_></rects>
      <tilted>0</tilted></_>
    <_>
      <rects>
        <_>
          9 0 17 4 -1.</_>
        <_>
          9 2 17 2 2.</_></rects>
      <tilted>0</tilted></_>
    <_>
      <rects>
        <_>
          9 1 8 2 -1.</_>
        <_>
          9 1 4 1 2.</_>
        <_>
          13 2 4 1 2.</_></rects>
      <tilted>0</tilted></_>
    <_>
      <rects>
        <_>
          9 1 9 3 -1.</_>
        <_>
          9 2 9 1 3.</_></rects>
      <tilted>0</tilted></_>
    <_>
      <rects>
        <_>
          9 2 18 3 -1.</_>
        <_>
          8 3 18 1 3.</_></rects>
      <tilted>1</tilted></_>
    <_>
      <rects>
        <_>
          9 6 3 5 -1.</_>
        <_>
          10 7 1 5 3.</_></rects>
      <tilted>1</tilted></_>
    <_>
      <rects>
        <_>
          9 6 4 2 -1.</_>
        <_>
          9 6 2 1 2.</_>
        <_>
          11 7 2 1 2.</_></rects>
      <tilted>0</tilted></_>
    <_>
      <rects>
        <_>
          9 7 8 3 -1.</_>
        <_>
          9 8 8 1 3.</_></rects>
      <tilted>0</tilted></_>
    <_>
      <rects>
        <_>
          9 8 4 8 -1.</_>
        <_>
          9 8 2 4 2.</_>
        <_>
          11 12 2 4 2.</_></rects>
      <tilted>0</tilted></_>
    <_>
      <rects>
        <_>
          9 22 19 20 -1.</_>
        <_>
          9 32 19 10 2.</_></rects>
      <tilted>0</tilted></_>
    <_>
      <rects>
        <_>
          9 24 6 5 -1.</_>
        <_>
          9 24 3 5 2.</_></rects>
      <tilted>1</tilted></_>
    <_>
      <rects>
        <_>
          9 34 12 7 -1.</_>
        <_>
          13 34 4 7 3.</_></rects>
      <tilted>0</tilted></_>
    <_>
      <rects>
        <_>
          9 35 12 12 -1.</_>
        <_>
          13 35 4 12 3.</_></rects>
      <tilted>0</tilted></_>
    <_>
      <rects>
        <_>
          9 37 8 1 -1.</_>
        <_>
          11 37 4 1 2.</_></rects>
      <tilted>0</tilted></_>
    <_>
      <rects>
        <_>
          9 39 21 8 -1.</_>
        <_>
          9 41 21 4 2.</_></rects>
      <tilted>0</tilted></_>
    <_>
      <rects>
        <_>
          9 43 7 3 -1.</_>
        <_>
          9 44 7 1 3.</_></rects>
      <tilted>0</tilted></_>
    <_>
      <rects>
        <_>
          10 0 14 12 -1.</_>
        <_>
          10 6 14 6 2.</_></rects>
      <tilted>0</tilted></_>
    <_>
      <rects>
        <_>
          10 0 17 8 -1.</_>
        <_>
          10 2 17 4 2.</_></rects>
      <tilted>0</tilted></_>
    <_>
      <rects>
        <_>
          10 2 9 3 -1.</_>
        <_>
          10 3 9 1 3.</_></rects>
      <tilted>0</tilted></_>
    <_>
      <rects>
        <_>
          10 6 4 10 -1.</_>
        <_>
          11 7 2 10 2.</_></rects>
      <tilted>1</tilted></_>
    <_>
      <rects>
        <_>
          10 7 6 12 -1.</_>
        <_>
          10 10 6 6 2.</_></rects>
      <tilted>0</tilted></_>
    <_>
      <rects>
        <_>
          10 8 18 3 -1.</_>
        <_>
          10 9 18 1 3.</_></rects>
      <tilted>0</tilted></_>
    <_>
      <rects>
        <_>
          10 9 1 10 -1.</_>
        <_>
          10 14 1 5 2.</_></rects>
      <tilted>0</tilted></_>
    <_>
      <rects>
        <_>
          10 12 4 15 -1.</_>
        <_>
          11 12 2 15 2.</_></rects>
      <tilted>0</tilted></_>
    <_>
      <rects>
        <_>
          10 23 17 3 -1.</_>
        <_>
          10 24 17 1 3.</_></rects>
      <tilted>0</tilted></_>
    <_>
      <rects>
        <_>
          10 25 4 5 -1.</_>
        <_>
          10 25 2 5 2.</_></rects>
      <tilted>1</tilted></_>
    <_>
      <rects>
        <_>
          10 35 6 5 -1.</_>
        <_>
          12 35 2 5 3.</_></rects>
      <tilted>0</tilted></_>
    <_>
      <rects>
        <_>
          10 38 2 6 -1.</_>
        <_>
          10 38 1 3 2.</_>
        <_>
          11 41 1 3 2.</_></rects>
      <tilted>0</tilted></_>
    <_>
      <rects>
        <_>
          10 43 10 2 -1.</_>
        <_>
          10 43 5 1 2.</_>
        <_>
          15 44 5 1 2.</_></rects>
      <tilted>0</tilted></_>
    <_>
      <rects>
        <_>
          10 46 18 2 -1.</_>
        <_>
          10 46 9 1 2.</_>
        <_>
          19 47 9 1 2.</_></rects>
      <tilted>0</tilted></_>
    <_>
      <rects>
        <_>
          11 0 7 3 -1.</_>
        <_>
          11 1 7 1 3.</_></rects>
      <tilted>0</tilted></_>
    <_>
      <rects>
        <_>
          11 0 18 1 -1.</_>
        <_>
          20 0 9 1 2.</_></rects>
      <tilted>0</tilted></_>
    <_>
      <rects>
        <_>
          11 1 8 3 -1.</_>
        <_>
          11 2 8 1 3.</_></rects>
      <tilted>0</tilted></_>
    <_>
      <rects>
        <_>
          11 3 5 45 -1.</_>
        <_>
          11 18 5 15 3.</_></rects>
      <tilted>0</tilted></_>
    <_>
      <rects>
        <_>
          11 6 11 3 -1.</_>
        <_>
          11 7 11 1 3.</_></rects>
      <tilted>0</tilted></_>
    <_>
      <rects>
        <_>
          11 6 11 4 -1.</_>
        <_>
          11 7 11 2 2.</_></rects>
      <tilted>0</tilted></_>
    <_>
      <rects>
        <_>
          11 10 6 7 -1.</_>
        <_>
          13 10 2 7 3.</_></rects>
      <tilted>0</tilted></_>
    <_>
      <rects>
        <_>
          11 10 18 2 -1.</_>
        <_>
          11 11 18 1 2.</_></rects>
      <tilted>0</tilted></_>
    <_>
      <rects>
        <_>
          11 20 2 5 -1.</_>
        <_>
          12 20 1 5 2.</_></rects>
      <tilted>0</tilted></_>
    <_>
      <rects>
        <_>
          11 20 6 7 -1.</_>
        <_>
          14 20 3 7 2.</_></rects>
      <tilted>0</tilted></_>
    <_>
      <rects>
        <_>
          11 21 4 18 -1.</_>
        <_>
          11 21 2 9 2.</_>
        <_>
          13 30 2 9 2.</_></rects>
      <tilted>0</tilted></_>
    <_>
      <rects>
        <_>
          11 22 2 5 -1.</_>
        <_>
          12 22 1 5 2.</_></rects>
      <tilted>0</tilted></_>
    <_>
      <rects>
        <_>
          11 23 6 1 -1.</_>
        <_>
          13 23 2 1 3.</_></rects>
      <tilted>0</tilted></_>
    <_>
      <rects>
        <_>
          11 28 11 6 -1.</_>
        <_>
          11 31 11 3 2.</_></rects>
      <tilted>0</tilted></_>
    <_>
      <rects>
        <_>
          12 0 6 2 -1.</_>
        <_>
          12 1 6 1 2.</_></rects>
      <tilted>0</tilted></_>
    <_>
      <rects>
        <_>
          12 0 18 4 -1.</_>
        <_>
          12 0 9 2 2.</_>
        <_>
          21 2 9 2 2.</_></rects>
      <tilted>0</tilted></_>
    <_>
      <rects>
        <_>
          12 1 3 3 -1.</_>
        <_>
          12 2 3 1 3.</_></rects>
      <tilted>0</tilted></_>
    <_>
      <rects>
        <_>
          12 1 6 3 -1.</_>
        <_>
          12 2 6 1 3.</_></rects>
      <tilted>0</tilted></_>
    <_>
      <rects>
        <_>
          12 1 13 3 -1.</_>
        <_>
          11 2 13 1 3.</_></rects>
      <tilted>1</tilted></_>
    <_>
      <rects>
        <_>
          12 3 3 12 -1.</_>
        <_>
          12 3 3 6 2.</_></rects>
      <tilted>1</tilted></_>
    <_>
      <rects>
        <_>
          12 4 8 3 -1.</_>
        <_>
          12 5 8 1 3.</_></rects>
      <tilted>0</tilted></_>
    <_>
      <rects>
        <_>
          12 6 3 1 -1.</_>
        <_>
          13 6 1 1 3.</_></rects>
      <tilted>0</tilted></_>
    <_>
      <rects>
        <_>
          12 7 12 22 -1.</_>
        <_>
          12 7 6 11 2.</_>
        <_>
          18 18 6 11 2.</_></rects>
      <tilted>0</tilted></_>
    <_>
      <rects>
        <_>
          12 11 9 2 -1.</_>
        <_>
          15 14 3 2 3.</_></rects>
      <tilted>1</tilted></_>
    <_>
      <rects>
        <_>
          12 16 4 12 -1.</_>
        <_>
          13 16 2 12 2.</_></rects>
      <tilted>0</tilted></_>
    <_>
      <rects>
        <_>
          12 16 4 2 -1.</_>
        <_>
          12 17 4 1 2.</_></rects>
      <tilted>0</tilted></_>
    <_>
      <rects>
        <_>
          12 19 6 4 -1.</_>
        <_>
          14 19 2 4 3.</_></rects>
      <tilted>0</tilted></_>
    <_>
      <rects>
        <_>
          12 21 2 5 -1.</_>
        <_>
          13 21 1 5 2.</_></rects>
      <tilted>0</tilted></_>
    <_>
      <rects>
        <_>
          12 26 2 2 -1.</_>
        <_>
          12 26 1 2 2.</_></rects>
      <tilted>1</tilted></_>
    <_>
      <rects>
        <_>
          12 26 6 16 -1.</_>
        <_>
          12 26 3 8 2.</_>
        <_>
          15 34 3 8 2.</_></rects>
      <tilted>0</tilted></_>
    <_>
      <rects>
        <_>
          12 29 6 9 -1.</_>
        <_>
          14 29 2 9 3.</_></rects>
      <tilted>0</tilted></_>
    <_>
      <rects>
        <_>
          12 38 4 6 -1.</_>
        <_>
          13 38 2 6 2.</_></rects>
      <tilted>0</tilted></_>
    <_>
      <rects>
        <_>
          12 39 12 4 -1.</_>
        <_>
          16 39 4 4 3.</_></rects>
      <tilted>0</tilted></_>
    <_>
      <rects>
        <_>
          12 42 18 4 -1.</_>
        <_>
          21 42 9 4 2.</_></rects>
      <tilted>0</tilted></_>
    <_>
      <rects>
        <_>
          12 43 4 4 -1.</_>
        <_>
          12 43 2 2 2.</_>
        <_>
          14 45 2 2 2.</_></rects>
      <tilted>0</tilted></_>
    <_>
      <rects>
        <_>
          12 46 18 2 -1.</_>
        <_>
          12 47 18 1 2.</_></rects>
      <tilted>0</tilted></_>
    <_>
      <rects>
        <_>
          13 0 1 3 -1.</_>
        <_>
          13 1 1 1 3.</_></rects>
      <tilted>0</tilted></_>
    <_>
      <rects>
        <_>
          13 0 3 3 -1.</_>
        <_>
          13 1 3 1 3.</_></rects>
      <tilted>0</tilted></_>
    <_>
      <rects>
        <_>
          13 6 1 3 -1.</_>
        <_>
          13 7 1 1 3.</_></rects>
      <tilted>0</tilted></_>
    <_>
      <rects>
        <_>
          13 7 2 2 -1.</_>
        <_>
          13 7 1 1 2.</_>
        <_>
          14 8 1 1 2.</_></rects>
      <tilted>0</tilted></_>
    <_>
      <rects>
        <_>
          13 9 14 28 -1.</_>
        <_>
          13 16 14 14 2.</_></rects>
      <tilted>0</tilted></_>
    <_>
      <rects>
        <_>
          13 19 4 8 -1.</_>
        <_>
          14 19 2 8 2.</_></rects>
      <tilted>0</tilted></_>
    <_>
      <rects>
        <_>
          13 22 15 3 -1.</_>
        <_>
          13 23 15 1 3.</_></rects>
      <tilted>0</tilted></_>
    <_>
      <rects>
        <_>
          13 23 3 25 -1.</_>
        <_>
          14 23 1 25 3.</_></rects>
      <tilted>0</tilted></_>
    <_>
      <rects>
        <_>
          13 23 13 3 -1.</_>
        <_>
          13 24 13 1 3.</_></rects>
      <tilted>0</tilted></_>
    <_>
      <rects>
        <_>
          13 34 12 9 -1.</_>
        <_>
          17 34 4 9 3.</_></rects>
      <tilted>0</tilted></_>
    <_>
      <rects>
        <_>
          13 38 9 3 -1.</_>
        <_>
          16 38 3 3 3.</_></rects>
      <tilted>0</tilted></_>
    <_>
      <rects>
        <_>
          13 41 9 2 -1.</_>
        <_>
          16 41 3 2 3.</_></rects>
      <tilted>0</tilted></_>
    <_>
      <rects>
        <_>
          14 0 15 3 -1.</_>
        <_>
          13 1 15 1 3.</_></rects>
      <tilted>1</tilted></_>
    <_>
      <rects>
        <_>
          14 2 16 14 -1.</_>
        <_>
          14 2 8 7 2.</_>
        <_>
          22 9 8 7 2.</_></rects>
      <tilted>0</tilted></_>
    <_>
      <rects>
        <_>
          14 4 3 5 -1.</_>
        <_>
          15 5 1 5 3.</_></rects>
      <tilted>1</tilted></_>
    <_>
      <rects>
        <_>
          14 4 3 9 -1.</_>
        <_>
          15 5 1 9 3.</_></rects>
      <tilted>1</tilted></_>
    <_>
      <rects>
        <_>
          14 4 4 2 -1.</_>
        <_>
          14 4 2 2 2.</_></rects>
      <tilted>1</tilted></_>
    <_>
      <rects>
        <_>
          14 5 5 3 -1.</_>
        <_>
          14 6 5 1 3.</_></rects>
      <tilted>0</tilted></_>
    <_>
      <rects>
        <_>
          14 7 1 4 -1.</_>
        <_>
          14 8 1 2 2.</_></rects>
