<?xml version="1.0"?>
<opencv_storage>
<cascade>
  <stageType>BOOST</stageType>
  <featureType>HAAR</featureType>
  <height>24</height>
  <width>48</width>
  <stageParams>
    <boostType>GAB</boostType>
    <minHitRate>9.9500000476837158e-01</minHitRate>
    <maxFalseAlarm>4.0000000596046448e-01</maxFalseAlarm>
    <weightTrimRate>9.4999999999999996e-01</weightTrimRate>
    <maxDepth>1</maxDepth>
    <maxWeakCount>100</maxWeakCount></stageParams>
  <featureParams>
    <maxCatCount>0</maxCatCount>
    <featSize>1</featSize>
    <mode>ALL</mode></featureParams>
  <stageNum>17</stageNum>
  <stages>
    <!-- stage 0 -->
    <_>
      <maxWeakCount>6</maxWeakCount>
      <stageThreshold>-1.0793852806091309e+00</stageThreshold>
      <weakClassifiers>
        <_>
          <internalNodes>
            0 -1 53 -6.6553637385368347e-02</internalNodes>
          <leafValues>
            8.5684210062026978e-01 -7.5448274612426758e-01</leafValues></_>
        <_>
          <internalNodes>
            0 -1 69 -3.5286195576190948e-02</internalNodes>
          <leafValues>
            8.4117221832275391e-01 -3.8995042443275452e-01</leafValues></_>
        <_>
          <internalNodes>
            0 -1 43 -1.2014569342136383e-01</internalNodes>
          <leafValues>
            7.6517802476882935e-01 -3.5332825779914856e-01</leafValues></_>
        <_>
          <internalNodes>
            0 -1 12 -1.4154727570712566e-02</internalNodes>
          <leafValues>
            4.8412504792213440e-01 -5.1070874929428101e-01</leafValues></_>
        <_>
          <internalNodes>
            0 -1 172 2.2030114196240902e-03</internalNodes>
          <leafValues>
            2.8992909193038940e-01 -9.3912416696548462e-01</leafValues></_>
        <_>
          <internalNodes>
            0 -1 19 6.0242280364036560e-02</internalNodes>
          <leafValues>
            -3.5567793250083923e-01 8.5391676425933838e-01</leafValues></_></weakClassifiers></_>
    <!-- stage 1 -->
    <_>
      <maxWeakCount>6</maxWeakCount>
      <stageThreshold>-8.5986602306365967e-01</stageThreshold>
      <weakClassifiers>
        <_>
          <internalNodes>
            0 -1 27 -1.0857672244310379e-01</internalNodes>
          <leafValues>
            8.9021480083465576e-01 -6.5685021877288818e-01</leafValues></_>
        <_>
          <internalNodes>
            0 -1 63 4.3721102178096771e-02</internalNodes>
          <leafValues>
            -2.8350377082824707e-01 8.9341872930526733e-01</leafValues></_>
        <_>
          <internalNodes>
            0 -1 110 -7.9671457409858704e-02</internalNodes>
          <leafValues>
            8.9777445793151855e-01 -1.9199180603027344e-01</leafValues></_>
        <_>
          <internalNodes>
            0 -1 66 -8.3116874098777771e-02</internalNodes>
          <leafValues>
            8.5138159990310669e-01 -2.5327652692794800e-01</leafValues></_>
        <_>
          <internalNodes>
            0 -1 140 -3.1708279857411981e-04</internalNodes>
          <leafValues>
            -8.3208090066909790e-01 2.8737017512321472e-01</leafValues></_>
        <_>
          <internalNodes>
            0 -1 139 2.0087667508050799e-04</internalNodes>
          <leafValues>
            2.5317904353141785e-01 -7.0443713665008545e-01</leafValues></_></weakClassifiers></_>
    <!-- stage 2 -->
    <_>
      <maxWeakCount>11</maxWeakCount>
      <stageThreshold>-1.3550695180892944e+00</stageThreshold>
      <weakClassifiers>
        <_>
          <internalNodes>
            0 -1 64 4.3844394385814667e-02</internalNodes>
          <leafValues>
            -5.7826650142669678e-01 7.1896958351135254e-01</leafValues></_>
        <_>
          <internalNodes>
            0 -1 142 -2.7480129152536392e-02</internalNodes>
          <leafValues>
            5.9705919027328491e-01 -4.5122951269149780e-01</leafValues></_>
        <_>
          <internalNodes>
            0 -1 224 7.1295145899057388e-03</internalNodes>
          <leafValues>
            -5.0861543416976929e-01 4.3083253502845764e-01</leafValues></_>
        <_>
          <internalNodes>
            0 -1 7 -1.4388570562005043e-02</internalNodes>
          <leafValues>
            5.7283622026443481e-01 -3.0692049860954285e-01</leafValues></_>
        <_>
          <internalNodes>
            0 -1 150 5.1477965898811817e-03</internalNodes>
          <leafValues>
            -2.3426203429698944e-01 7.4807327985763550e-01</leafValues></_>
        <_>
          <internalNodes>
            0 -1 98 -1.2716267257928848e-02</internalNodes>
          <leafValues>
            7.9855364561080933e-01 -1.5436615049839020e-01</leafValues></_>
        <_>
          <internalNodes>
            0 -1 120 -1.9736759364604950e-02</internalNodes>
          <leafValues>
            6.7533713579177856e-01 -1.7573079466819763e-01</leafValues></_>
        <_>
          <internalNodes>
            0 -1 23 -4.5218123123049736e-03</internalNodes>
          <leafValues>
            3.3948346972465515e-01 -4.6659448742866516e-01</leafValues></_>
        <_>
          <internalNodes>
            0 -1 197 -1.1291489936411381e-03</internalNodes>
          <leafValues>
            5.4571110010147095e-01 -2.9305610060691833e-01</leafValues></_>
        <_>
          <internalNodes>
            0 -1 122 -2.7680501807481050e-03</internalNodes>
          <leafValues>
            6.0400676727294922e-01 -2.2765477001667023e-01</leafValues></_>
        <_>
          <internalNodes>
            0 -1 169 3.6759453359991312e-04</internalNodes>
          <leafValues>
            2.9610079526901245e-01 -5.5659067630767822e-01</leafValues></_></weakClassifiers></_>
    <!-- stage 3 -->
    <_>
      <maxWeakCount>11</maxWeakCount>
      <stageThreshold>-1.0680204629898071e+00</stageThreshold>
      <weakClassifiers>
        <_>
          <internalNodes>
            0 -1 41 -1.3921208679676056e-01</internalNodes>
          <leafValues>
            5.8823531866073608e-01 -5.2770447731018066e-01</leafValues></_>
        <_>
          <internalNodes>
            0 -1 37 -1.7929567024111748e-02</internalNodes>
          <leafValues>
            8.5864961147308350e-01 -2.7116891741752625e-01</leafValues></_>
        <_>
          <internalNodes>
            0 -1 111 7.4126338586211205e-03</internalNodes>
          <leafValues>
            -1.9050313532352448e-01 7.7894788980484009e-01</leafValues></_>
        <_>
          <internalNodes>
            0 -1 36 1.6991879791021347e-02</internalNodes>
          <leafValues>
            2.8151196241378784e-01 -7.5981712341308594e-01</leafValues></_>
        <_>
          <internalNodes>
            0 -1 45 4.3441440910100937e-02</internalNodes>
          <leafValues>
            1.9448460638523102e-01 -8.1118470430374146e-01</leafValues></_>
        <_>
          <internalNodes>
            0 -1 118 -6.3538625836372375e-03</internalNodes>
          <leafValues>
            7.0924597978591919e-01 -2.9470241069793701e-01</leafValues></_>
        <_>
          <internalNodes>
            0 -1 198 -2.2547156549990177e-03</internalNodes>
          <leafValues>
            5.7449603080749512e-01 -1.8582731485366821e-01</leafValues></_>
        <_>
          <internalNodes>
            0 -1 8 -1.9954264163970947e-02</internalNodes>
          <leafValues>
            4.4261589646339417e-01 -3.2580462098121643e-01</leafValues></_>
        <_>
          <internalNodes>
            0 -1 62 2.3365183733403683e-03</internalNodes>
          <leafValues>
            -2.6491039991378784e-01 5.5252832174301147e-01</leafValues></_>
        <_>
          <internalNodes>
            0 -1 238 -6.2927254475653172e-04</internalNodes>
          <leafValues>
            -7.6965868473052979e-01 1.8027408421039581e-01</leafValues></_>
        <_>
          <internalNodes>
            0 -1 60 -3.0157700181007385e-02</internalNodes>
          <leafValues>
            3.3633023500442505e-01 -3.8925129175186157e-01</leafValues></_></weakClassifiers></_>
    <!-- stage 4 -->
    <_>
      <maxWeakCount>12</maxWeakCount>
      <stageThreshold>-1.2548685073852539e+00</stageThreshold>
      <weakClassifiers>
        <_>
          <internalNodes>
            0 -1 92 -3.0684114899486303e-03</internalNodes>
          <leafValues>
            6.5354329347610474e-01 -4.7496947646141052e-01</leafValues></_>
        <_>
          <internalNodes>
            0 -1 11 -1.1764703318476677e-02</internalNodes>
          <leafValues>
            4.8462876677513123e-01 -4.8136389255523682e-01</leafValues></_>
        <_>
          <internalNodes>
            0 -1 126 -1.1632828973233700e-02</internalNodes>
          <leafValues>
            4.0767735242843628e-01 -4.8255038261413574e-01</leafValues></_>
        <_>
          <internalNodes>
            0 -1 215 -2.9021142981946468e-03</internalNodes>
          <leafValues>
            6.4130765199661255e-01 -2.4260224401950836e-01</leafValues></_>
        <_>
          <internalNodes>
            0 -1 71 -8.2366848364472389e-03</internalNodes>
          <leafValues>
            9.0036022663116455e-01 -1.4239187538623810e-01</leafValues></_>
        <_>
          <internalNodes>
            0 -1 235 1.4490112662315369e-03</internalNodes>
          <leafValues>
            2.4395841360092163e-01 -5.4588323831558228e-01</leafValues></_>
        <_>
          <internalNodes>
            0 -1 38 1.4848086982965469e-02</internalNodes>
          <leafValues>
            -3.1358125805854797e-01 3.9437818527221680e-01</leafValues></_>
        <_>
          <internalNodes>
            0 -1 160 2.6429555146023631e-04</internalNodes>
          <leafValues>
            1.8831413984298706e-01 -6.2465554475784302e-01</leafValues></_>
        <_>
          <internalNodes>
            0 -1 217 -8.7966322898864746e-03</internalNodes>
          <leafValues>
            4.5884236693382263e-01 -2.7879819273948669e-01</leafValues></_>
        <_>
          <internalNodes>
            0 -1 79 -6.2168359756469727e-02</internalNodes>
          <leafValues>
            -8.3694785833358765e-01 1.7512723803520203e-01</leafValues></_>
        <_>
          <internalNodes>
            0 -1 190 4.5355176553130150e-03</internalNodes>
          <leafValues>
            -3.1790107488632202e-01 3.9813473820686340e-01</leafValues></_>
        <_>
          <internalNodes>
            0 -1 141 6.3850013539195061e-03</internalNodes>
          <leafValues>
            -1.8129357695579529e-01 6.2313371896743774e-01</leafValues></_></weakClassifiers></_>
    <!-- stage 5 -->
    <_>
      <maxWeakCount>13</maxWeakCount>
      <stageThreshold>-9.2967629432678223e-01</stageThreshold>
      <weakClassifiers>
        <_>
          <internalNodes>
            0 -1 112 3.3336974680423737e-02</internalNodes>
          <leafValues>
            -5.5789476633071899e-01 4.3177568912506104e-01</leafValues></_>
        <_>
          <internalNodes>
            0 -1 221 2.8578784316778183e-02</internalNodes>
          <leafValues>
            -3.2672080397605896e-01 5.3627604246139526e-01</leafValues></_>
        <_>
          <internalNodes>
            0 -1 192 -2.8836857527494431e-03</internalNodes>
          <leafValues>
            2.4920786917209625e-01 -6.3774693012237549e-01</leafValues></_>
        <_>
          <internalNodes>
            0 -1 83 3.3588702790439129e-03</internalNodes>
          <leafValues>
            -1.7499230802059174e-01 7.9719585180282593e-01</leafValues></_>
        <_>
          <internalNodes>
            0 -1 47 -2.7559344744076952e-05</internalNodes>
          <leafValues>
            2.9429143667221069e-01 -4.9028396606445312e-01</leafValues></_>
        <_>
          <internalNodes>
            0 -1 105 -9.0735248522832990e-04</internalNodes>
          <leafValues>
            -9.0100711584091187e-01 9.4243131577968597e-02</leafValues></_>
        <_>
          <internalNodes>
            0 -1 199 2.2593680769205093e-03</internalNodes>
          <leafValues>
            -1.7082770168781281e-01 7.4402844905853271e-01</leafValues></_>
        <_>
          <internalNodes>
            0 -1 184 1.4232331886887550e-02</internalNodes>
          <leafValues>
            -1.8488430976867676e-01 6.2988352775573730e-01</leafValues></_>
        <_>
          <internalNodes>
            0 -1 14 -6.5404718043282628e-05</internalNodes>
          <leafValues>
            2.6168048381805420e-01 -4.3565157055854797e-01</leafValues></_>
        <_>
          <internalNodes>
            0 -1 123 1.3515360653400421e-02</internalNodes>
          <leafValues>
            -1.7955827713012695e-01 6.6878861188888550e-01</leafValues></_>
        <_>
          <internalNodes>
            0 -1 132 7.8620511339977384e-04</internalNodes>
          <leafValues>
            2.2811177372932434e-01 -6.2738084793090820e-01</leafValues></_>
        <_>
          <internalNodes>
            0 -1 191 6.4990799874067307e-03</internalNodes>
          <leafValues>
            -2.6507470011711121e-01 5.1988220214843750e-01</leafValues></_>
        <_>
          <internalNodes>
            0 -1 44 -1.1000165715813637e-02</internalNodes>
          <leafValues>
            6.8969655036926270e-01 -1.5424752235412598e-01</leafValues></_></weakClassifiers></_>
    <!-- stage 6 -->
    <_>
      <maxWeakCount>14</maxWeakCount>
      <stageThreshold>-1.1038477420806885e+00</stageThreshold>
      <weakClassifiers>
        <_>
          <internalNodes>
            0 -1 10 -1.0358619503676891e-02</internalNodes>
          <leafValues>
            3.2987910509109497e-01 -5.3301125764846802e-01</leafValues></_>
        <_>
          <internalNodes>
            0 -1 85 3.1820740550756454e-03</internalNodes>
          <leafValues>
            -2.3858396708965302e-01 6.5534085035324097e-01</leafValues></_>
        <_>
          <internalNodes>
            0 -1 133 -1.2322912225499749e-03</internalNodes>
          <leafValues>
            -8.4601914882659912e-01 1.8577188253402710e-01</leafValues></_>
        <_>
          <internalNodes>
            0 -1 246 -4.5415661297738552e-03</internalNodes>
          <leafValues>
            -8.0285412073135376e-01 1.6508775949478149e-01</leafValues></_>
        <_>
          <internalNodes>
            0 -1 218 6.9158442784100771e-04</internalNodes>
          <leafValues>
            1.7943125963211060e-01 -6.3087230920791626e-01</leafValues></_>
        <_>
          <internalNodes>
            0 -1 129 -4.9345372244715691e-03</internalNodes>
          <leafValues>
            -7.7882224321365356e-01 1.3066999614238739e-01</leafValues></_>
        <_>
          <internalNodes>
            0 -1 146 1.3321833685040474e-03</internalNodes>
          <leafValues>
            1.7886793613433838e-01 -6.2856167554855347e-01</leafValues></_>
        <_>
          <internalNodes>
            0 -1 70 1.8557340372353792e-03</internalNodes>
          <leafValues>
            -1.9100390374660492e-01 6.9103860855102539e-01</leafValues></_>
        <_>
          <internalNodes>
            0 -1 17 -1.4322925359010696e-02</internalNodes>
          <leafValues>
            3.1748268008232117e-01 -3.9560559391975403e-01</leafValues></_>
        <_>
          <internalNodes>
            0 -1 25 -1.7377728363499045e-04</internalNodes>
          <leafValues>
            -5.9083670377731323e-01 1.9907635450363159e-01</leafValues></_>
        <_>
          <internalNodes>
            0 -1 20 -9.7526051104068756e-03</internalNodes>
          <leafValues>
            5.9844720363616943e-01 -2.2548915445804596e-01</leafValues></_>
        <_>
          <internalNodes>
            0 -1 193 -1.9999963114969432e-04</internalNodes>
          <leafValues>
            3.5988575220108032e-01 -3.1634673476219177e-01</leafValues></_>
        <_>
          <internalNodes>
            0 -1 152 -4.7453059814870358e-03</internalNodes>
          <leafValues>
            6.5786093473434448e-01 -2.0089079439640045e-01</leafValues></_>
        <_>
          <internalNodes>
            0 -1 58 6.3854129984974861e-04</internalNodes>
          <leafValues>
            1.8659086525440216e-01 -6.5429818630218506e-01</leafValues></_></weakClassifiers></_>
    <!-- stage 7 -->
    <_>
      <maxWeakCount>15</maxWeakCount>
      <stageThreshold>-1.0909672975540161e+00</stageThreshold>
      <weakClassifiers>
        <_>
          <internalNodes>
            0 -1 114 -8.4711443632841110e-03</internalNodes>
          <leafValues>
            6.6550523042678833e-01 -3.6254107952117920e-01</leafValues></_>
        <_>
          <internalNodes>
            0 -1 232 9.5396144315600395e-03</internalNodes>
          <leafValues>
            -2.5268253684043884e-01 6.0942196846008301e-01</leafValues></_>
        <_>
          <internalNodes>
            0 -1 226 -6.8676965311169624e-03</internalNodes>
          <leafValues>
            6.5803647041320801e-01 -2.2293597459793091e-01</leafValues></_>
        <_>
          <internalNodes>
            0 -1 179 3.4985993988811970e-04</internalNodes>
          <leafValues>
            1.5788871049880981e-01 -7.2047352790832520e-01</leafValues></_>
        <_>
          <internalNodes>
            0 -1 179 -4.4515580520965159e-04</internalNodes>
          <leafValues>
            -5.7695841789245605e-01 2.3730602860450745e-01</leafValues></_>
        <_>
          <internalNodes>
            0 -1 104 6.8341935984790325e-03</internalNodes>
          <leafValues>
            -3.0361065268516541e-01 3.7793067097663879e-01</leafValues></_>
        <_>
          <internalNodes>
            0 -1 171 -1.8921977607533336e-03</internalNodes>
          <leafValues>
            5.6350368261337280e-01 -2.0283177495002747e-01</leafValues></_>
        <_>
          <internalNodes>
            0 -1 57 6.2340323347598314e-04</internalNodes>
          <leafValues>
            -4.1374531388282776e-01 2.8341820836067200e-01</leafValues></_>
        <_>
          <internalNodes>
            0 -1 32 -7.7577931806445122e-03</internalNodes>
          <leafValues>
            6.3338911533355713e-01 -1.9780586659908295e-01</leafValues></_>
        <_>
          <internalNodes>
            0 -1 233 1.4303373973234557e-05</internalNodes>
          <leafValues>
            -4.0168556571006775e-01 2.7113658189773560e-01</leafValues></_>
        <_>
          <internalNodes>
            0 -1 158 2.5473794084973633e-04</internalNodes>
          <leafValues>
            1.4640219509601593e-01 -6.9219046831130981e-01</leafValues></_>
        <_>
          <internalNodes>
            0 -1 117 6.5179131925106049e-03</internalNodes>
          <leafValues>
            -2.1059215068817139e-01 5.7725071907043457e-01</leafValues></_>
        <_>
          <internalNodes>
            0 -1 162 -4.7595454379916191e-03</internalNodes>
          <leafValues>
            4.5814973115921021e-01 -2.2872716188430786e-01</leafValues></_>
        <_>
          <internalNodes>
            0 -1 100 5.5550027173012495e-04</internalNodes>
          <leafValues>
            1.1452138423919678e-01 -8.3409386873245239e-01</leafValues></_>
        <_>
          <internalNodes>
            0 -1 46 -3.5963901318609715e-03</internalNodes>
          <leafValues>
            3.5756510496139526e-01 -2.7198421955108643e-01</leafValues></_></weakClassifiers></_>
    <!-- stage 8 -->
    <_>
      <maxWeakCount>13</maxWeakCount>
      <stageThreshold>-1.1478502750396729e+00</stageThreshold>
      <weakClassifiers>
        <_>
          <internalNodes>
            0 -1 201 9.0833976864814758e-03</internalNodes>
          <leafValues>
            -3.1962999701499939e-01 7.5330394506454468e-01</leafValues></_>
        <_>
          <internalNodes>
            0 -1 90 -6.1702542006969452e-03</internalNodes>
          <leafValues>
            7.6008069515228271e-01 -1.5937000513076782e-01</leafValues></_>
        <_>
          <internalNodes>
            0 -1 16 -1.1237351223826408e-02</internalNodes>
          <leafValues>
            2.6252880692481995e-01 -4.3916082382202148e-01</leafValues></_>
        <_>
          <internalNodes>
            0 -1 127 1.3060280121862888e-02</internalNodes>
          <leafValues>
            -1.5837699174880981e-01 6.9475018978118896e-01</leafValues></_>
        <_>
          <internalNodes>
            0 -1 167 2.5197758805006742e-04</internalNodes>
          <leafValues>
            1.8061396479606628e-01 -5.7597136497497559e-01</leafValues></_>
        <_>
          <internalNodes>
            0 -1 61 5.2819546544924378e-04</internalNodes>
          <leafValues>
            -2.1585893630981445e-01 4.4627165794372559e-01</leafValues></_>
        <_>
          <internalNodes>
            0 -1 108 -6.2984861433506012e-03</internalNodes>
          <leafValues>
            3.2153940200805664e-01 -3.1466740369796753e-01</leafValues></_>
        <_>
          <internalNodes>
            0 -1 213 -2.9497537761926651e-03</internalNodes>
          <leafValues>
            4.4995617866516113e-01 -2.0442119240760803e-01</leafValues></_>
        <_>
          <internalNodes>
            0 -1 209 -1.5792096965014935e-03</internalNodes>
          <leafValues>
            6.4740765094757080e-01 -1.6528511047363281e-01</leafValues></_>
        <_>
          <internalNodes>
            0 -1 101 5.8771914336830378e-04</internalNodes>
          <leafValues>
            2.0224750041961670e-01 -5.7114291191101074e-01</leafValues></_>
        <_>
          <internalNodes>
            0 -1 154 1.5474422834813595e-03</internalNodes>
          <leafValues>
            -1.6579051315784454e-01 6.8873929977416992e-01</leafValues></_>
        <_>
          <internalNodes>
            0 -1 177 5.1313638687133789e-02</internalNodes>
          <leafValues>
            -1.2189322710037231e-01 6.9141763448715210e-01</leafValues></_>
        <_>
          <internalNodes>
            0 -1 102 1.9920352846384048e-02</internalNodes>
          <leafValues>
            -1.1887086182832718e-01 6.6450256109237671e-01</leafValues></_></weakClassifiers></_>
    <!-- stage 9 -->
    <_>
      <maxWeakCount>16</maxWeakCount>
      <stageThreshold>-1.1020448207855225e+00</stageThreshold>
      <weakClassifiers>
        <_>
          <internalNodes>
            0 -1 51 2.9814597219228745e-02</internalNodes>
          <leafValues>
            -3.0753138661384583e-01 6.3114756345748901e-01</leafValues></_>
        <_>
          <internalNodes>
            0 -1 80 7.1882939664646983e-04</internalNodes>
          <leafValues>
            -2.0596569776535034e-01 6.3603162765502930e-01</leafValues></_>
        <_>
          <internalNodes>
            0 -1 231 2.1335372701287270e-02</internalNodes>
          <leafValues>
            -2.5063291192054749e-01 4.9042186141014099e-01</leafValues></_>
        <_>
          <internalNodes>
            0 -1 24 2.6172125944867730e-04</internalNodes>
          <leafValues>
            1.4651648700237274e-01 -6.9413381814956665e-01</leafValues></_>
        <_>
          <internalNodes>
            0 -1 216 2.9030605219304562e-04</internalNodes>
          <leafValues>
            -1.8370044231414795e-01 5.4349440336227417e-01</leafValues></_>
        <_>
          <internalNodes>
            0 -1 33 -4.9429235514253378e-04</internalNodes>
          <leafValues>
            -7.4925959110260010e-01 1.1538006365299225e-01</leafValues></_>
        <_>
          <internalNodes>
            0 -1 138 6.8571319570764899e-04</internalNodes>
          <leafValues>
            1.7251573503017426e-01 -5.1799607276916504e-01</leafValues></_>
        <_>
          <internalNodes>
            0 -1 95 2.6279070880264044e-03</internalNodes>
          <leafValues>
            -1.4850169420242310e-01 5.9987348318099976e-01</leafValues></_>
        <_>
          <internalNodes>
            0 -1 155 -3.8514479994773865e-02</internalNodes>
          <leafValues>
            1.6573543846607208e-01 -4.9261868000030518e-01</leafValues></_>
        <_>
          <internalNodes>
            0 -1 202 2.7641226188279688e-04</internalNodes>
          <leafValues>
            -1.7882689833641052e-01 4.5326220989227295e-01</leafValues></_>
        <_>
          <internalNodes>
            0 -1 176 8.8977320119738579e-03</internalNodes>
          <leafValues>
            -1.3313585519790649e-01 7.3744374513626099e-01</leafValues></_>
        <_>
          <internalNodes>
            0 -1 182 4.5637058792635798e-04</internalNodes>
          <leafValues>
            1.6730161011219025e-01 -7.6846617460250854e-01</leafValues></_>
        <_>
          <internalNodes>
            0 -1 2 -1.5025803819298744e-02</internalNodes>
          <leafValues>
            5.0636154413223267e-01 -2.2945880889892578e-01</leafValues></_>
        <_>
          <internalNodes>
            0 -1 59 5.6633286178112030e-02</internalNodes>
          <leafValues>
            -1.9125115871429443e-01 4.9742051959037781e-01</leafValues></_>
        <_>
          <internalNodes>
            0 -1 130 -6.1579368775710464e-04</internalNodes>
          <leafValues>
            -6.0792899131774902e-01 1.4971284568309784e-01</leafValues></_>
        <_>
          <internalNodes>
            0 -1 35 -5.7351805269718170e-02</internalNodes>
          <leafValues>
            5.5292719602584839e-01 -1.8968440592288971e-01</leafValues></_></weakClassifiers></_>
    <!-- stage 10 -->
    <_>
      <maxWeakCount>19</maxWeakCount>
      <stageThreshold>-1.2106450796127319e+00</stageThreshold>
      <weakClassifiers>
        <_>
          <internalNodes>
            0 -1 153 1.1910349130630493e-03</internalNodes>
          <leafValues>
            -5.1039999723434448e-01 3.1130436062812805e-01</leafValues></_>
        <_>
          <internalNodes>
            0 -1 84 1.8629331607371569e-03</internalNodes>
          <leafValues>
            -2.3302657902240753e-01 5.4637938737869263e-01</leafValues></_>
        <_>
          <internalNodes>
            0 -1 97 -6.4372932538390160e-03</internalNodes>
          <leafValues>
            5.5396300554275513e-01 -1.6923551261425018e-01</leafValues></_>
        <_>
          <internalNodes>
            0 -1 229 2.9543653363361955e-04</internalNodes>
          <leafValues>
            -5.3241562843322754e-01 1.7754231393337250e-01</leafValues></_>
        <_>
          <internalNodes>
            0 -1 181 8.2682981155812740e-04</internalNodes>
          <leafValues>
            1.3484664261341095e-01 -6.5219998359680176e-01</leafValues></_>
        <_>
          <internalNodes>
            0 -1 94 1.6780873993411660e-03</internalNodes>
          <leafValues>
            -1.2872178852558136e-01 6.6154533624649048e-01</leafValues></_>
        <_>
          <internalNodes>
            0 -1 180 -1.0626141447573900e-03</internalNodes>
          <leafValues>
            -7.8036385774612427e-01 1.0340017080307007e-01</leafValues></_>
        <_>
          <internalNodes>
            0 -1 75 5.4944981820881367e-04</internalNodes>
          <leafValues>
            -2.1593375504016876e-01 5.0507289171218872e-01</leafValues></_>
        <_>
          <internalNodes>
            0 -1 220 1.9378378987312317e-02</internalNodes>
          <leafValues>
            1.7539316415786743e-01 -7.5235891342163086e-01</leafValues></_>
        <_>
          <internalNodes>
            0 -1 34 1.8019903451204300e-02</internalNodes>
          <leafValues>
            -2.5440639257431030e-01 4.3849101662635803e-01</leafValues></_>
        <_>
          <internalNodes>
            0 -1 151 -1.6078767366707325e-03</internalNodes>
          <leafValues>
            3.8844195008277893e-01 -2.3206633329391479e-01</leafValues></_>
        <_>
          <internalNodes>
            0 -1 161 4.6674688346683979e-03</internalNodes>
          <leafValues>
            -1.2981808185577393e-01 6.9326078891754150e-01</leafValues></_>
        <_>
          <internalNodes>
            0 -1 157 1.0482466313987970e-03</internalNodes>
          <leafValues>
            1.5641036629676819e-01 -6.0349911451339722e-01</leafValues></_>
        <_>
          <internalNodes>
            0 -1 88 4.0803095325827599e-03</internalNodes>
          <leafValues>
            -1.6225115954875946e-01 5.8098894357681274e-01</leafValues></_>
        <_>
          <internalNodes>
            0 -1 39 -1.1164680868387222e-01</internalNodes>
          <leafValues>
            5.3451204299926758e-01 -1.5870225429534912e-01</leafValues></_>
        <_>
          <internalNodes>
            0 -1 74 -6.3799079507589340e-03</internalNodes>
          <leafValues>
            4.7196233272552490e-01 -1.8511548638343811e-01</leafValues></_>
        <_>
          <internalNodes>
            0 -1 103 2.7294857427477837e-03</internalNodes>
          <leafValues>
            -2.1257294714450836e-01 4.7813165187835693e-01</leafValues></_>
        <_>
          <internalNodes>
            0 -1 147 5.3770060185343027e-04</internalNodes>
          <leafValues>
            2.0692354440689087e-01 -4.8025578260421753e-01</leafValues></_>
        <_>
          <internalNodes>
            0 -1 211 3.8516928907483816e-04</internalNodes>
          <leafValues>
            -2.2591686248779297e-01 4.2105409502983093e-01</leafValues></_></weakClassifiers></_>
    <!-- stage 11 -->
    <_>
      <maxWeakCount>15</maxWeakCount>
      <stageThreshold>-1.1401418447494507e+00</stageThreshold>
      <weakClassifiers>
        <_>
          <internalNodes>
            0 -1 54 3.7742790300399065e-03</internalNodes>
          <leafValues>
            -3.9719030261039734e-01 4.1007193922996521e-01</leafValues></_>
        <_>
          <internalNodes>
            0 -1 206 -3.5676204133778811e-03</internalNodes>
          <leafValues>
            5.1117730140686035e-01 -2.2464337944984436e-01</leafValues></_>
        <_>
          <internalNodes>
            0 -1 143 -1.3902727514505386e-03</internalNodes>
          <leafValues>
            -5.5837857723236084e-01 1.8582244217395782e-01</leafValues></_>
        <_>
          <internalNodes>
            0 -1 166 -8.8984007015824318e-04</internalNodes>
          <leafValues>
            2.8463074564933777e-01 -3.9000740647315979e-01</leafValues></_>
        <_>
          <internalNodes>
            0 -1 52 -1.6455538570880890e-02</internalNodes>
          <leafValues>
            4.5963221788406372e-01 -2.4919237196445465e-01</leafValues></_>
        <_>
          <internalNodes>
            0 -1 241 3.5365347866900265e-04</internalNodes>
          <leafValues>
            2.0832830667495728e-01 -6.3442856073379517e-01</leafValues></_>
        <_>
          <internalNodes>
            0 -1 28 -1.3932267203927040e-02</internalNodes>
          <leafValues>
            3.7005531787872314e-01 -2.4951753020286560e-01</leafValues></_>
        <_>
          <internalNodes>
            0 -1 203 -1.5278176404535770e-02</internalNodes>
          <leafValues>
            6.1698555946350098e-01 -1.7381457984447479e-01</leafValues></_>
        <_>
          <internalNodes>
            0 -1 240 -7.5029842264484614e-05</internalNodes>
          <leafValues>
            -6.5925365686416626e-01 1.4479163289070129e-01</leafValues></_>
        <_>
          <internalNodes>
            0 -1 170 7.7778380364179611e-04</internalNodes>
          <leafValues>
            -2.2088943421840668e-01 4.2499700188636780e-01</leafValues></_>
        <_>
          <internalNodes>
            0 -1 223 1.7314252909272909e-03</internalNodes>
          <leafValues>
            -1.3999757170677185e-01 5.7686769962310791e-01</leafValues></_>
        <_>
          <internalNodes>
            0 -1 243 7.1068848228605930e-06</internalNodes>
          <leafValues>
            -3.5943862795829773e-01 2.9646974802017212e-01</leafValues></_>
        <_>
          <internalNodes>
            0 -1 242 1.5883296728134155e-02</internalNodes>
          <leafValues>
            1.0325972735881805e-01 -9.2029845714569092e-01</leafValues></_>
        <_>
          <internalNodes>
            0 -1 72 1.1109202168881893e-03</internalNodes>
          <leafValues>
            1.1285492032766342e-01 -6.8313199281692505e-01</leafValues></_>
        <_>
          <internalNodes>
            0 -1 26 -2.9441982507705688e-02</internalNodes>
          <leafValues>
            5.0563859939575195e-01 -1.9933232665061951e-01</leafValues></_></weakClassifiers></_>
    <!-- stage 12 -->
    <_>
      <maxWeakCount>19</maxWeakCount>
      <stageThreshold>-9.2057973146438599e-01</stageThreshold>
      <weakClassifiers>
        <_>
          <internalNodes>
            0 -1 185 -9.4558752607554197e-04</internalNodes>
          <leafValues>
            1.5620827674865723e-01 -5.6984478235244751e-01</leafValues></_>
        <_>
          <internalNodes>
            0 -1 236 -5.2138008177280426e-03</internalNodes>
          <leafValues>
            4.7400671243667603e-01 -2.2599606215953827e-01</leafValues></_>
        <_>
          <internalNodes>
            0 -1 159 -3.2087857834994793e-04</internalNodes>
          <leafValues>
            -5.5865550041198730e-01 1.7002522945404053e-01</leafValues></_>
        <_>
          <internalNodes>
            0 -1 55 -4.3339128751540557e-05</internalNodes>
          <leafValues>
            2.2016118466854095e-01 -4.3440872430801392e-01</leafValues></_>
        <_>
          <internalNodes>
            0 -1 78 2.9195484239608049e-04</internalNodes>
          <leafValues>
            -1.3576985895633698e-01 6.0862189531326294e-01</leafValues></_>
        <_>
          <internalNodes>
            0 -1 22 -6.6119572147727013e-03</internalNodes>
          <leafValues>
            3.9809107780456543e-01 -2.3115414381027222e-01</leafValues></_>
        <_>
          <internalNodes>
            0 -1 82 7.7994256280362606e-03</internalNodes>
          <leafValues>
            -1.0521777719259262e-01 7.9446715116500854e-01</leafValues></_>
        <_>
          <internalNodes>
            0 -1 178 1.2112476862967014e-02</internalNodes>
          <leafValues>
            -4.0268260240554810e-01 2.1443702280521393e-01</leafValues></_>
        <_>
          <internalNodes>
            0 -1 48 -1.6854277346283197e-03</internalNodes>
          <leafValues>
            -6.9249808788299561e-01 9.3270644545555115e-02</leafValues></_>
        <_>
          <internalNodes>
            0 -1 188 -9.7619158623274416e-05</internalNodes>
          <leafValues>
            3.0512854456901550e-01 -2.8728818893432617e-01</leafValues></_>
        <_>
          <internalNodes>
            0 -1 116 -1.4710407413076609e-05</internalNodes>
          <leafValues>
            2.8894752264022827e-01 -3.0273142457008362e-01</leafValues></_>
        <_>
          <internalNodes>
            0 -1 125 -5.2833050722256303e-04</internalNodes>
          <leafValues>
            -6.4721184968948364e-01 1.3914375007152557e-01</leafValues></_>
        <_>
          <internalNodes>
            0 -1 40 -4.1036475449800491e-03</internalNodes>
          <leafValues>
            4.2007890343666077e-01 -2.2887872159481049e-01</leafValues></_>
        <_>
          <internalNodes>
            0 -1 135 -3.1642784597352147e-04</internalNodes>
          <leafValues>
            4.1293531656265259e-01 -1.9877065718173981e-01</leafValues></_>
        <_>
          <internalNodes>
            0 -1 196 2.0018010400235653e-04</internalNodes>
          <leafValues>
            -2.0451818406581879e-01 4.6776714920997620e-01</leafValues></_>
        <_>
          <internalNodes>
            0 -1 244 -6.8270007614046335e-04</internalNodes>
          <leafValues>
            -6.5020775794982910e-01 1.7192707955837250e-01</leafValues></_>
        <_>
          <internalNodes>
            0 -1 76 -6.1099505983293056e-03</internalNodes>
          <leafValues>
            3.7903654575347900e-01 -2.4130284786224365e-01</leafValues></_>
        <_>
          <internalNodes>
            0 -1 29 -6.1050029471516609e-03</internalNodes>
          <leafValues>
            -5.3494393825531006e-01 1.6673889756202698e-01</leafValues></_>
        <_>
          <internalNodes>
            0 -1 164 5.3734035464003682e-04</internalNodes>
          <leafValues>
            -4.8370680212974548e-01 1.7977412045001984e-01</leafValues></_></weakClassifiers></_>
    <!-- stage 13 -->
    <_>
      <maxWeakCount>17</maxWeakCount>
      <stageThreshold>-9.5608919858932495e-01</stageThreshold>
      <weakClassifiers>
        <_>
          <internalNodes>
            0 -1 89 -5.4448088631033897e-03</internalNodes>
          <leafValues>
            4.5232275128364563e-01 -4.1087231040000916e-01</leafValues></_>
        <_>
          <internalNodes>
            0 -1 168 2.2981060668826103e-02</internalNodes>
          <leafValues>
            -2.9494559764862061e-01 3.5071444511413574e-01</leafValues></_>
        <_>
          <internalNodes>
            0 -1 222 8.7942322716116905e-04</internalNodes>
          <leafValues>
            -2.1684747934341431e-01 3.8840237259864807e-01</leafValues></_>
        <_>
          <internalNodes>
            0 -1 214 -1.9453249406069517e-03</internalNodes>
          <leafValues>
            4.8416441679000854e-01 -1.9458277523517609e-01</leafValues></_>
        <_>
          <internalNodes>
            0 -1 234 -4.7936753253452480e-04</internalNodes>
          <leafValues>
            -6.6378694772720337e-01 1.7640629410743713e-01</leafValues></_>
        <_>
          <internalNodes>
            0 -1 9 -1.6552036628127098e-02</internalNodes>
          <leafValues>
            3.4841719269752502e-01 -2.4982781708240509e-01</leafValues></_>
        <_>
          <internalNodes>
            0 -1 5 9.5744207501411438e-03</internalNodes>
          <leafValues>
            -1.4748148620128632e-01 6.3842999935150146e-01</leafValues></_>
        <_>
          <internalNodes>
            0 -1 204 5.7204643962904811e-04</internalNodes>
          <leafValues>
            -1.9250662624835968e-01 4.0634247660636902e-01</leafValues></_>
        <_>
          <internalNodes>
            0 -1 136 -4.5274924486875534e-03</internalNodes>
          <leafValues>
            -7.1206599473953247e-01 1.1702252924442291e-01</leafValues></_>
        <_>
          <internalNodes>
            0 -1 134 -1.1776213068515062e-03</internalNodes>
          <leafValues>
            3.8526323437690735e-01 -2.2867634892463684e-01</leafValues></_>
        <_>
          <internalNodes>
            0 -1 189 2.4627556558698416e-04</internalNodes>
          <leafValues>
            1.4588029682636261e-01 -6.8184858560562134e-01</leafValues></_>
        <_>
          <internalNodes>
            0 -1 30 1.2649956624954939e-03</internalNodes>
          <leafValues>
            1.1051923036575317e-01 -7.3271620273590088e-01</leafValues></_>
        <_>
          <internalNodes>
            0 -1 149 6.2537742778658867e-03</internalNodes>
          <leafValues>
            -1.6530998051166534e-01 5.8368211984634399e-01</leafValues></_>
        <_>
          <internalNodes>
            0 -1 131 -9.2302111443132162e-04</internalNodes>
          <leafValues>
            4.4582468271255493e-01 -2.0952150225639343e-01</leafValues></_>
        <_>
          <internalNodes>
            0 -1 186 2.7902297675609589e-02</internalNodes>
          <leafValues>
            1.0898619145154953e-01 -8.5394412279129028e-01</leafValues></_>
        <_>
          <internalNodes>
            0 -1 81 -1.8384989816695452e-03</internalNodes>
          <leafValues>
            3.4881192445755005e-01 -2.7675479650497437e-01</leafValues></_>
        <_>
          <internalNodes>
            0 -1 145 -1.8201455241069198e-03</internalNodes>
          <leafValues>
            6.1866056919097900e-01 -1.4856049418449402e-01</leafValues></_></weakClassifiers></_>
    <!-- stage 14 -->
    <_>
      <maxWeakCount>21</maxWeakCount>
      <stageThreshold>-1.0944650173187256e+00</stageThreshold>
      <weakClassifiers>
        <_>
          <internalNodes>
            0 -1 93 -3.5527804866433144e-03</internalNodes>
          <leafValues>
            3.8862559199333191e-01 -3.9074549078941345e-01</leafValues></_>
        <_>
          <internalNodes>
            0 -1 128 1.0860988404601812e-03</internalNodes>
          <leafValues>
            -5.1353973150253296e-01 2.2016498446464539e-01</leafValues></_>
        <_>
          <internalNodes>
            0 -1 210 -7.7120860805734992e-04</internalNodes>
          <leafValues>
            4.3594503402709961e-01 -2.3454578220844269e-01</leafValues></_>
        <_>
          <internalNodes>
            0 -1 230 6.5870839171111584e-04</internalNodes>
          <leafValues>
            1.3656909763813019e-01 -6.3851374387741089e-01</leafValues></_>
        <_>
          <internalNodes>
            0 -1 13 -3.5969945602118969e-03</internalNodes>
          <leafValues>
            2.9787158966064453e-01 -2.9681503772735596e-01</leafValues></_>
        <_>
          <internalNodes>
            0 -1 165 -4.4737174175679684e-03</internalNodes>
          <leafValues>
            6.1745810508728027e-01 -1.5627269446849823e-01</leafValues></_>
        <_>
          <internalNodes>
            0 -1 156 -2.9036584310233593e-03</internalNodes>
          <leafValues>
            -4.8405012488365173e-01 2.4163660407066345e-01</leafValues></_>
        <_>
          <internalNodes>
            0 -1 115 1.0110837174579501e-03</internalNodes>
          <leafValues>
            -2.1356348693370819e-01 4.7246575355529785e-01</leafValues></_>
        <_>
          <internalNodes>
            0 -1 148 1.7059466335922480e-03</internalNodes>
          <leafValues>
            2.2567012906074524e-01 -4.0315717458724976e-01</leafValues></_>
        <_>
          <internalNodes>
            0 -1 237 7.0253149715426844e-06</internalNodes>
          <leafValues>
            -4.3638271093368530e-01 1.7627935111522675e-01</leafValues></_>
        <_>
          <internalNodes>
            0 -1 195 -2.3688834335189313e-04</internalNodes>
          <leafValues>
            3.9569100737571716e-01 -2.3605701327323914e-01</leafValues></_>
        <_>
          <internalNodes>
            0 -1 0 8.1101506948471069e-03</internalNodes>
          <leafValues>
            -2.8338399529457092e-01 3.1198048591613770e-01</leafValues></_>
        <_>
          <internalNodes>
            0 -1 49 3.6636803997680545e-04</internalNodes>
          <leafValues>
            1.7701405286788940e-01 -4.2836529016494751e-01</leafValues></_>
        <_>
          <internalNodes>
            0 -1 91 -7.8319746535271406e-05</internalNodes>
          <leafValues>
            3.9861211180686951e-01 -2.0612034201622009e-01</leafValues></_>
        <_>
          <internalNodes>
            0 -1 67 3.8663502782583237e-02</internalNodes>
          <leafValues>
            7.7244743704795837e-02 -9.7224974632263184e-01</leafValues></_>
        <_>
          <internalNodes>
            0 -1 68 -3.2864406239241362e-03</internalNodes>
          <leafValues>
            5.2289688587188721e-01 -1.9043466448783875e-01</leafValues></_>
        <_>
          <internalNodes>
            0 -1 205 2.5058657047338784e-04</internalNodes>
          <leafValues>
            -1.3635057210922241e-01 5.3173440694808960e-01</leafValues></_>
        <_>
          <internalNodes>
            0 -1 137 4.7622533747926354e-04</internalNodes>
          <leafValues>
            1.1592689156532288e-01 -7.8297996520996094e-01</leafValues></_>
        <_>
          <internalNodes>
            0 -1 107 -8.6907262448221445e-04</internalNodes>
          <leafValues>
            6.0456705093383789e-01 -1.5410080552101135e-01</leafValues></_>
        <_>
          <internalNodes>
            0 -1 65 2.4435902014374733e-03</internalNodes>
          <leafValues>
            -2.0156294107437134e-01 4.2418104410171509e-01</leafValues></_>
        <_>
          <internalNodes>
            0 -1 163 -6.9298953349061776e-06</internalNodes>
          <leafValues>
            3.3196577429771423e-01 -2.4545496702194214e-01</leafValues></_></weakClassifiers></_>
    <!-- stage 15 -->
    <_>
      <maxWeakCount>20</maxWeakCount>
      <stageThreshold>-1.2035216093063354e+00</stageThreshold>
      <weakClassifiers>
        <_>
          <internalNodes>
            0 -1 227 2.1219719201326370e-02</internalNodes>
          <leafValues>
            -4.4277107715606689e-01 2.8731343150138855e-01</leafValues></_>
        <_>
          <internalNodes>
            0 -1 109 -8.1901149824261665e-03</internalNodes>
          <leafValues>
            7.1384263038635254e-01 -1.8643419444561005e-01</leafValues></_>
        <_>
          <internalNodes>
            0 -1 124 -2.8283856809139252e-03</internalNodes>
          <leafValues>
            6.8480849266052246e-01 -1.4126510918140411e-01</leafValues></_>
        <_>
          <internalNodes>
            0 -1 113 6.8663683487102389e-04</internalNodes>
          <leafValues>
            1.5503849089145660e-01 -6.2357431650161743e-01</leafValues></_>
        <_>
          <internalNodes>
            0 -1 42 -7.1540498538524844e-06</internalNodes>
          <leafValues>
            2.6530417799949646e-01 -3.9167144894599915e-01</leafValues></_>
        <_>
          <internalNodes>
            0 -1 144 1.4426857233047485e-03</internalNodes>
          <leafValues>
            8.7578274309635162e-02 -6.6154569387435913e-01</leafValues></_>
        <_>
          <internalNodes>
            0 -1 6 -4.0907915681600571e-03</internalNodes>
          <leafValues>
            -6.4295393228530884e-01 1.1700920015573502e-01</leafValues></_>
        <_>
          <internalNodes>
            0 -1 219 -1.2822872027754784e-02</internalNodes>
          <leafValues>
            7.1409434080123901e-01 -1.0969200730323792e-01</leafValues></_>
        <_>
          <internalNodes>
            0 -1 200 2.1696803160011768e-03</internalNodes>
          <leafValues>
            -1.3859623670578003e-01 6.1699086427688599e-01</leafValues></_>
        <_>
          <internalNodes>
            0 -1 173 2.4502025917172432e-03</internalNodes>
          <leafValues>
            1.2350165098905563e-01 -7.0546811819076538e-01</leafValues></_>
        <_>
          <internalNodes>
            0 -1 225 -7.3820422403514385e-04</internalNodes>
          <leafValues>
            -6.5810990333557129e-01 1.1879021674394608e-01</leafValues></_>
        <_>
          <internalNodes>
            0 -1 208 1.1009996524080634e-03</internalNodes>
          <leafValues>
            -1.7615135014057159e-01 4.7889110445976257e-01</leafValues></_>
        <_>
          <internalNodes>
            0 -1 187 3.3192028058692813e-04</internalNodes>
          <leafValues>
            -1.8586134910583496e-01 4.7383528947830200e-01</leafValues></_>
        <_>
          <internalNodes>
            0 -1 21 8.6608994752168655e-03</internalNodes>
          <leafValues>
            1.5838985145092010e-01 -6.1825573444366455e-01</leafValues></_>
        <_>
          <internalNodes>
            0 -1 18 -6.3460931181907654e-02</internalNodes>
          <leafValues>
            3.1348052620887756e-01 -2.8510719537734985e-01</leafValues></_>
        <_>
          <internalNodes>
            0 -1 87 -2.3231860250234604e-02</internalNodes>
          <leafValues>
            5.8686506748199463e-01 -1.5264536440372467e-01</leafValues></_>
        <_>
          <internalNodes>
            0 -1 183 -2.7320795925334096e-04</internalNodes>
          <leafValues>
            -5.3648060560226440e-01 1.5649142861366272e-01</leafValues></_>
        <_>
          <internalNodes>
            0 -1 56 -3.6455588415265083e-03</internalNodes>
          <leafValues>
            4.2519724369049072e-01 -2.0070138573646545e-01</leafValues></_>
        <_>
          <internalNodes>
            0 -1 15 -6.0304642829578370e-05</internalNodes>
          <leafValues>
            3.1638577580451965e-01 -2.5343328714370728e-01</leafValues></_>
        <_>
          <internalNodes>
            0 -1 106 2.1682078018784523e-02</internalNodes>
          <leafValues>
            -1.4946553111076355e-01 5.4838532209396362e-01</leafValues></_></weakClassifiers></_>
    <!-- stage 16 -->
    <_>
      <maxWeakCount>20</maxWeakCount>
      <stageThreshold>-1.0034748315811157e+00</stageThreshold>
      <weakClassifiers>
        <_>
          <internalNodes>
            0 -1 86 -5.7535199448466301e-03</internalNodes>
          <leafValues>
            4.0366971492767334e-01 -4.1361257433891296e-01</leafValues></_>
        <_>
          <internalNodes>
            0 -1 99 2.2095769643783569e-02</internalNodes>
          <leafValues>
            -2.2902570664882660e-01 5.5502414703369141e-01</leafValues></_>
        <_>
          <internalNodes>
            0 -1 228 8.9457689318805933e-04</internalNodes>
          <leafValues>
            -4.6829825639724731e-01 1.9731706380844116e-01</leafValues></_>
        <_>
          <internalNodes>
            0 -1 77 2.1901838481426239e-02</internalNodes>
          <leafValues>
            -2.0272402465343475e-01 5.1958787441253662e-01</leafValues></_>
        <_>
          <internalNodes>
            0 -1 175 1.2924624024890363e-04</internalNodes>
          <leafValues>
            2.1642871201038361e-01 -4.8930698633193970e-01</leafValues></_>
        <_>
          <internalNodes>
            0 -1 239 -2.7689307462424040e-03</internalNodes>
          <leafValues>
            5.8124470710754395e-01 -1.7100590467453003e-01</leafValues></_>
        <_>
          <internalNodes>
            0 -1 96 -7.5422972440719604e-03</internalNodes>
          <leafValues>
            5.3303706645965576e-01 -1.3076919317245483e-01</leafValues></_>
        <_>
          <internalNodes>
            0 -1 1 4.3874040246009827e-02</internalNodes>
          <leafValues>
            -2.3778653144836426e-01 3.7531667947769165e-01</leafValues></_>
        <_>
          <internalNodes>
            0 -1 50 -2.8859740123152733e-03</internalNodes>
          <leafValues>
            5.9247726202011108e-01 -1.1410940438508987e-01</leafValues></_>
        <_>
          <internalNodes>
            0 -1 194 -1.1323587968945503e-03</internalNodes>
          <leafValues>
            3.9117571711540222e-01 -2.2969561815261841e-01</leafValues></_>
        <_>
          <internalNodes>
            0 -1 207 -1.1818653438240290e-03</internalNodes>
          <leafValues>
            6.0649579763412476e-01 -1.5079322457313538e-01</leafValues></_>
        <_>
          <internalNodes>
            0 -1 31 5.3874379955232143e-04</internalNodes>
          <leafValues>
            2.1260422468185425e-01 -5.3725337982177734e-01</leafValues></_>
        <_>
          <internalNodes>
            0 -1 119 6.0567222535610199e-03</internalNodes>
          <leafValues>
            -1.9685335457324982e-01 4.8481872677803040e-01</leafValues></_>
        <_>
          <internalNodes>
            0 -1 245 4.3281685793772340e-04</internalNodes>
          <leafValues>
            1.7295522987842560e-01 -5.1207351684570312e-01</leafValues></_>
        <_>
          <internalNodes>
            0 -1 4 9.4185518100857735e-03</internalNodes>
          <leafValues>
            -2.1604485809803009e-01 3.7578624486923218e-01</leafValues></_>
        <_>
          <internalNodes>
            0 -1 3 -1.1600473895668983e-02</internalNodes>
          <leafValues>
            5.3840357065200806e-01 -1.6320647299289703e-01</leafValues></_>
        <_>
          <internalNodes>
            0 -1 121 -9.5786375459283590e-04</internalNodes>
          <leafValues>
            3.6804696917533875e-01 -2.1218551695346832e-01</leafValues></_>
        <_>
          <internalNodes>
            0 -1 174 4.3351729982532561e-04</internalNodes>
          <leafValues>
            1.4819569885730743e-01 -6.2914735078811646e-01</leafValues></_>
        <_>
          <internalNodes>
            0 -1 73 4.0875777602195740e-02</internalNodes>
          <leafValues>
            -2.0461431145668030e-01 4.1673374176025391e-01</leafValues></_>
        <_>
          <internalNodes>
            0 -1 212 9.1092684306204319e-04</internalNodes>
          <leafValues>
            -1.9462339580059052e-01 4.4401821494102478e-01</leafValues></_></weakClassifiers></_></stages>
  <features>
    <_>
      <rects>
        <_>
          0 0 42 8 -1.</_>
        <_>
          0 4 42 4 2.</_></rects>
      <tilted>0</tilted></_>
    <_>
      <rects>
        <_>
          0 2 17 12 -1.</_>
        <_>
          0 8 17 6 2.</_></rects>
      <tilted>0</tilted></_>
    <_>
      <rects>
        <_>
          0 3 6 16 -1.</_>
        <_>
          0 3 3 8 2.</_>
        <_>
          3 11 3 8 2.</_></rects>
      <tilted>0</tilted></_>
    <_>
      <rects>
        <_>
          0 7 6 10 -1.</_>
        <_>
          0 7 3 5 2.</_>
        <_>
          3 12 3 5 2.</_></rects>
      <tilted>0</tilted></_>
    <_>
      <rects>
        <_>
          0 9 20 5 -1.</_>
        <_>
          5 9 10 5 2.</_></rects>
      <tilted>0</tilted></_>
    <_>
      <rects>
        <_>
          0 11 8 9 -1.</_>
        <_>
          4 11 4 9 2.</_></rects>
      <tilted>0</tilted></_>
    <_>
      <rects>
        <_>
          0 12 1 12 -1.</_>
        <_>
          0 15 1 6 2.</_></rects>
      <tilted>0</tilted></_>
    <_>
      <rects>
        <_>
          0 14 8 7 -1.</_>
        <_>
          4 14 4 7 2.</_></rects>
      <tilted>0</tilted></_>
    <_>
      <rects>
        <_>
          0 14 20 7 -1.</_>
        <_>
          5 14 10 7 2.</_></rects>
      <tilted>0</tilted></_>
    <_>
      <rects>
        <_>
          0 15 8 7 -1.</_>
        <_>
          4 15 4 7 2.</_></rects>
      <tilted>0</tilted></_>
    <_>
      <rects>
        <_>
          0 15 24 2 -1.</_>
        <_>
          8 15 8 2 3.</_></rects>
      <tilted>0</tilted></_>
    <_>
      <rects>
        <_>
          0 16 10 7 -1.</_>
        <_>
          5 16 5 7 2.</_></rects>
      <tilted>0</tilted></_>
    <_>
      <rects>
        <_>
          0 16 16 8 -1.</_>
        <_>
          8 16 8 8 2.</_></rects>
      <tilted>0</tilted></_>
    <_>
      <rects>
        <_>
          0 17 6 5 -1.</_>
        <_>
          3 17 3 5 2.</_></rects>
      <tilted>0</tilted></_>
    <_>
      <rects>
        <_>
          0 18 4 6 -1.</_>
        <_>
          2 18 2 6 2.</_></rects>
      <tilted>0</tilted></_>
    <_>
      <rects>
        <_>
          0 18 3 3 -1.</_>
        <_>
          0 19 3 1 3.</_></rects>
      <tilted>0</tilted></_>
    <_>
      <rects>
        <_>
          0 18 16 4 -1.</_>
        <_>
          8 18 8 4 2.</_></rects>
      <tilted>0</tilted></_>
    <_>
      <rects>
        <_>
          0 19 44 5 -1.</_>
        <_>
          11 19 22 5 2.</_></rects>
      <tilted>0</tilted></_>
    <_>
      <rects>
        <_>
          1 4 21 14 -1.</_>
        <_>
          1 11 21 7 2.</_></rects>
      <tilted>0</tilted></_>
    <_>
      <rects>
        <_>
          1 4 30 12 -1.</_>
        <_>
          1 7 30 6 2.</_></rects>
      <tilted>0</tilted></_>
    <_>
      <rects>
        <_>
          1 13 9 4 -1.</_>
        <_>
          4 13 3 4 3.</_></rects>
      <tilted>0</tilted></_>
    <_>
      <rects>
        <_>
          1 13 7 6 -1.</_>
        <_>
          1 16 7 3 2.</_></rects>
      <tilted>0</tilted></_>
    <_>
      <rects>
        <_>
          1 14 9 5 -1.</_>
        <_>
          4 14 3 5 3.</_></rects>
      <tilted>0</tilted></_>
    <_>
      <rects>
        <_>
          1 18 24 4 -1.</_>
        <_>
          9 18 8 4 3.</_></rects>
      <tilted>0</tilted></_>
    <_>
      <rects>
        <_>
          1 21 2 3 -1.</_>
        <_>
          2 21 1 3 2.</_></rects>
      <tilted>0</tilted></_>
    <_>
      <rects>
        <_>
          1 21 4 3 -1.</_>
        <_>
          2 21 2 3 2.</_></rects>
      <tilted>0</tilted></_>
    <_>
      <rects>
        <_>
          2 1 22 10 -1.</_>
        <_>
          2 1 11 5 2.</_>
        <_>
          13 6 11 5 2.</_></rects>
      <tilted>0</tilted></_>
    <_>
      <rects>
        <_>
          2 12 43 12 -1.</_>
        <_>
          2 15 43 6 2.</_></rects>
      <tilted>0</tilted></_>
    <_>
      <rects>
        <_>
          2 15 8 6 -1.</_>
        <_>
          6 15 4 6 2.</_></rects>
      <tilted>0</tilted></_>
    <_>
      <rects>
        <_>
          2 16 3 8 -1.</_>
        <_>
          2 18 3 4 2.</_></rects>
      <tilted>0</tilted></_>
    <_>
      <rects>
        <_>
          2 20 2 2 -1.</_>
        <_>
          2 20 1 2 2.</_></rects>
      <tilted>1</tilted></_>
    <_>
      <rects>
        <_>
          2 20 2 2 -1.</_>
        <_>
          2 20 2 1 2.</_></rects>
      <tilted>1</tilted></_>
    <_>
      <rects>
        <_>
          2 20 37 2 -1.</_>
        <_>
          2 21 37 1 2.</_></rects>
      <tilted>0</tilted></_>
    <_>
      <rects>
        <_>
          2 22 2 2 -1.</_>
        <_>
          3 22 1 2 2.</_></rects>
      <tilted>0</tilted></_>
    <_>
      <rects>
        <_>
          3 7 44 2 -1.</_>
        <_>
          14 7 22 2 2.</_></rects>
      <tilted>0</tilted></_>
    <_>
      <rects>
        <_>
          3 10 45 3 -1.</_>
        <_>
          18 11 15 1 9.</_></rects>
      <tilted>0</tilted></_>
    <_>
      <rects>
        <_>
          3 20 30 4 -1.</_>
        <_>
          13 20 10 4 3.</_></rects>
      <tilted>0</tilted></_>
    <_>
      <rects>
        <_>
          3 20 35 3 -1.</_>
        <_>
          3 21 35 1 3.</_></rects>
      <tilted>0</tilted></_>
    <_>
      <rects>
        <_>
          4 0 21 1 -1.</_>
        <_>
          11 7 7 1 3.</_></rects>
      <tilted>1</tilted></_>
    <_>
      <rects>
        <_>
          4 6 44 14 -1.</_>
        <_>
          15 6 22 14 2.</_></rects>
      <tilted>0</tilted></_>
    <_>
      <rects>
        <_>
          4 7 34 3 -1.</_>
        <_>
          4 8 34 1 3.</_></rects>
      <tilted>0</tilted></_>
    <_>
      <rects>
        <_>
          4 12 40 12 -1.</_>
        <_>
          4 15 40 6 2.</_></rects>
      <tilted>0</tilted></_>
    <_>
      <rects>
        <_>
          4 20 2 2 -1.</_>
        <_>
          5 20 1 2 2.</_></rects>
      <tilted>0</tilted></_>
    <_>
      <rects>
        <_>
          5 9 34 14 -1.</_>
        <_>
          5 16 34 7 2.</_></rects>
      <tilted>0</tilted></_>
    <_>
      <rects>
        <_>
          5 11 38 2 -1.</_>
        <_>
          5 12 38 1 2.</_></rects>
      <tilted>0</tilted></_>
    <_>
      <rects>
        <_>
          5 14 34 10 -1.</_>
        <_>
          5 14 17 5 2.</_>
        <_>
          22 19 17 5 2.</_></rects>
      <tilted>0</tilted></_>
    <_>
      <rects>
        <_>
          5 16 10 6 -1.</_>
        <_>
          5 16 5 3 2.</_>
        <_>
          10 19 5 3 2.</_></rects>
      <tilted>0</tilted></_>
    <_>
      <rects>
        <_>
          5 18 2 6 -1.</_>
        <_>
          6 18 1 6 2.</_></rects>
      <tilted>0</tilted></_>
    <_>
      <rects>
        <_>
          5 22 6 2 -1.</_>
        <_>
          7 22 2 2 3.</_></rects>
      <tilted>0</tilted></_>
    <_>
      <rects>
        <_>
          5 22 12 2 -1.</_>
        <_>
          8 22 6 2 2.</_></rects>
      <tilted>0</tilted></_>
    <_>
      <rects>
        <_>
          6 4 1 10 -1.</_>
        <_>
          6 9 1 5 2.</_></rects>
      <tilted>0</tilted></_>
    <_>
      <rects>
        <_>
          6 7 9 4 -1.</_>
        <_>
          9 10 3 4 3.</_></rects>
      <tilted>1</tilted></_>
    <_>
      <rects>
        <_>
          6 10 18 4 -1.</_>
        <_>
          6 12 18 2 2.</_></rects>
      <tilted>0</tilted></_>
    <_>
      <rects>
        <_>
          6 12 37 12 -1.</_>
        <_>
          6 15 37 6 2.</_></rects>
      <tilted>0</tilted></_>
    <_>
      <rects>
        <_>
          6 15 8 4 -1.</_>
        <_>
          6 15 4 2 2.</_>
        <_>
          10 17 4 2 2.</_></rects>
      <tilted>0</tilted></_>
    <_>
      <rects>
        <_>
          6 19 2 5 -1.</_>
        <_>
          7 19 1 5 2.</_></rects>
      <tilted>0</tilted></_>
    <_>
      <rects>
        <_>
          6 19 20 2 -1.</_>
        <_>
          6 20 20 1 2.</_></rects>
      <tilted>0</tilted></_>
    <_>
      <rects>
        <_>
          6 20 3 4 -1.</_>
        <_>
          6 22 3 2 2.</_></rects>
      <tilted>0</tilted></_>
    <_>
      <rects>
        <_>
          6 22 8 1 -1.</_>
        <_>
          8 22 4 1 2.</_></rects>
      <tilted>0</tilted></_>
    <_>
      <rects>
        <_>
          7 5 33 10 -1.</_>
        <_>
          7 10 33 5 2.</_></rects>
      <tilted>0</tilted></_>
    <_>
      <rects>
        <_>
          7 11 15 12 -1.</_>
        <_>
          7 17 15 6 2.</_></rects>
      <tilted>0</tilted></_>
    <_>
      <rects>
        <_>
          7 17 4 3 -1.</_>
        <_>
          8 17 2 3 2.</_></rects>
      <tilted>0</tilted></_>
    <_>
      <rects>
        <_>
          7 17 16 3 -1.</_>
        <_>
          7 18 16 1 3.</_></rects>
      <tilted>0</tilted></_>
    <_>
      <rects>
        <_>
          7 20 33 4 -1.</_>
        <_>
          7 22 33 2 2.</_></rects>
      <tilted>0</tilted></_>
    <_>
      <rects>
        <_>
          7 20 34 4 -1.</_>
        <_>
          7 22 34 2 2.</_></rects>
      <tilted>0</tilted></_>
    <_>
      <rects>
        <_>
          8 8 2 6 -1.</_>
        <_>
          8 10 2 2 3.</_></rects>
      <tilted>0</tilted></_>
    <_>
      <rects>
        <_>
          8 9 37 8 -1.</_>
        <_>
          8 13 37 4 2.</_></rects>
      <tilted>0</tilted></_>
    <_>
      <rects>
        <_>
          8 13 30 8 -1.</_>
        <_>
          8 13 15 4 2.</_>
        <_>
          23 17 15 4 2.</_></rects>
      <tilted>0</tilted></_>
    <_>
      <rects>
        <_>
          8 16 6 3 -1.</_>
        <_>
          10 16 2 3 3.</_></rects>
      <tilted>0</tilted></_>
    <_>
      <rects>
        <_>
          8 16 27 8 -1.</_>
        <_>
          8 18 27 4 2.</_></rects>
      <tilted>0</tilted></_>
    <_>
      <rects>
        <_>
          8 17 4 3 -1.</_>
        <_>
          9 17 2 3 2.</_></rects>
      <tilted>0</tilted></_>
    <_>
      <rects>
        <_>
          8 17 6 4 -1.</_>
        <_>
          10 17 2 4 3.</_></rects>
      <tilted>0</tilted></_>
    <_>
      <rects>
        <_>
          8 22 8 2 -1.</_>
        <_>
          10 22 4 2 2.</_></rects>
      <tilted>0</tilted></_>
    <_>
      <rects>
        <_>
          9 0 36 10 -1.</_>
        <_>
          18 0 18 10 2.</_></rects>
      <tilted>0</tilted></_>
    <_>
      <rects>
        <_>
          9 4 34 3 -1.</_>
        <_>
          9 5 34 1 3.</_></rects>
      <tilted>0</tilted></_>
    <_>
      <rects>
        <_>
          9 7 4 2 -1.</_>
        <_>
          9 7 2 1 2.</_>
        <_>
          11 8 2 1 2.</_></rects>
      <tilted>0</tilted></_>
    <_>
      <rects>
        <_>
          9 10 9 11 -1.</_>
        <_>
          12 10 3 11 3.</_></rects>
      <tilted>0</tilted></_>
    <_>
      <rects>
        <_>
          9 11 34 4 -1.</_>
        <_>
          9 12 34 2 2.</_></rects>
      <tilted>0</tilted></_>
    <_>
      <rects>
        <_>
          9 14 2 2 -1.</_>
        <_>
          9 14 1 1 2.</_>
        <_>
          10 15 1 1 2.</_></rects>
      <tilted>0</tilted></_>
    <_>
      <rects>
        <_>
          9 14 32 9 -1.</_>
        <_>
          25 14 16 9 2.</_></rects>
      <tilted>0</tilted></_>
    <_>
      <rects>
        <_>
          9 18 4 1 -1.</_>
        <_>
          10 18 2 1 2.</_></rects>
      <tilted>0</tilted></_>
    <_>
      <rects>
        <_>
          9 18 20 1 -1.</_>
        <_>
          14 18 10 1 2.</_></rects>
      <tilted>0</tilted></_>
    <_>
      <rects>
        <_>
          10 11 4 4 -1.</_>
        <_>
          11 12 2 4 2.</_></rects>
      <tilted>1</tilted></_>
    <_>
      <rects>
        <_>
          10 16 4 4 -1.</_>
        <_>
          11 16 2 4 2.</_></rects>
      <tilted>0</tilted></_>
    <_>
      <rects>
        <_>
          10 16 3 5 -1.</_>
        <_>
          11 16 1 5 3.</_></rects>
      <tilted>0</tilted></_>
    <_>
      <rects>
        <_>
          10 16 4 7 -1.</_>
        <_>
          11 16 2 7 2.</_></rects>
      <tilted>0</tilted></_>
    <_>
      <rects>
        <_>
          10 17 9 4 -1.</_>
        <_>
          13 17 3 4 3.</_></rects>
      <tilted>0</tilted></_>
    <_>
      <rects>
        <_>
          11 1 6 11 -1.</_>
        <_>
          11 1 3 11 2.</_></rects>
      <tilted>1</tilted></_>
    <_>
      <rects>
        <_>
          11 9 8 3 -1.</_>
        <_>
          10 10 8 1 3.</_></rects>
      <tilted>1</tilted></_>
    <_>
      <rects>
        <_>
          11 12 2 8 -1.</_>
        <_>
          11 14 2 4 2.</_></rects>
      <tilted>0</tilted></_>
    <_>
      <rects>
        <_>
          11 13 3 4 -1.</_>
        <_>
          12 14 1 4 3.</_></rects>
      <tilted>1</tilted></_>
    <_>
      <rects>
        <_>
          11 14 2 2 -1.</_>
        <_>
          11 14 1 1 2.</_>
        <_>
          12 15 1 1 2.</_></rects>
      <tilted>0</tilted></_>
    <_>
      <rects>
        <_>
          11 15 6 4 -1.</_>
        <_>
          11 15 3 2 2.</_>
        <_>
          14 17 3 2 2.</_></rects>
      <tilted>0</tilted></_>
    <_>
      <rects>
        <_>
          11 16 8 3 -1.</_>
        <_>
          13 16 4 3 2.</_></rects>
      <tilted>0</tilted></_>
    <_>
      <rects>
        <_>
          11 17 4 2 -1.</_>
        <_>
          12 17 2 2 2.</_></rects>
      <tilted>0</tilted></_>
    <_>
      <rects>
        <_>
          11 17 4 4 -1.</_>
        <_>
          12 17 2 4 2.</_></rects>
      <tilted>0</tilted></_>
    <_>
      <rects>
        <_>
          11 17 28 2 -1.</_>
        <_>
          18 17 14 2 2.</_></rects>
      <tilted>0</tilted></_>
    <_>
      <rects>
        <_>
          11 20 8 3 -1.</_>
        <_>
          11 21 8 1 3.</_></rects>
      <tilted>0</tilted></_>
    <_>
      <rects>
        <_>
          11 20 26 4 -1.</_>
        <_>
          11 21 26 2 2.</_></rects>
      <tilted>0</tilted></_>
    <_>
      <rects>
        <_>
          11 21 25 2 -1.</_>
        <_>
          11 22 25 1 2.</_></rects>
      <tilted>0</tilted></_>
    <_>
      <rects>
        <_>
          11 22 4 1 -1.</_>
        <_>
          13 22 2 1 2.</_></rects>
      <tilted>0</tilted></_>
    <_>
      <rects>
        <_>
          11 23 9 1 -1.</_>
        <_>
          14 23 3 1 3.</_></rects>
      <tilted>0</tilted></_>
    <_>
      <rects>
        <_>
          12 3 4 11 -1.</_>
        <_>
          12 3 2 11 2.</_></rects>
      <tilted>1</tilted></_>
    <_>
      <rects>
        <_>
          12 4 22 3 -1.</_>
        <_>
          12 5 22 1 3.</_></rects>
      <tilted>0</tilted></_>
    <_>
      <rects>
        <_>
          12 11 31 3 -1.</_>
        <_>
          12 12 31 1 3.</_></rects>
      <tilted>0</tilted></_>
    <_>
      <rects>
        <_>
          12 23 6 1 -1.</_>
        <_>
          14 23 2 1 3.</_></rects>
      <tilted>0</tilted></_>
    <_>
      <rects>
        <_>
          13 3 4 12 -1.</_>
        <_>
          13 3 2 12 2.</_></rects>
      <tilted>1</tilted></_>
    <_>
      <rects>
        <_>
          13 11 4 2 -1.</_>
        <_>
          13 11 2 1 2.</_>
        <_>
          15 12 2 1 2.</_></rects>
      <tilted>0</tilted></_>
    <_>
      <rects>
        <_>
          13 11 14 4 -1.</_>
        <_>
          13 13 14 2 2.</_></rects>
      <tilted>0</tilted></_>
    <_>
      <rects>
        <_>
          13 13 4 3 -1.</_>
        <_>
          12 14 4 1 3.</_></rects>
      <tilted>1</tilted></_>
    <_>
      <rects>
        <_>
          13 14 28 8 -1.</_>
        <_>
          13 18 28 4 2.</_></rects>
      <tilted>0</tilted></_>
    <_>
      <rects>
        <_>
          13 20 18 3 -1.</_>
        <_>
          13 21 18 1 3.</_></rects>
      <tilted>0</tilted></_>
    <_>
      <rects>
        <_>
          13 20 27 4 -1.</_>
        <_>
          13 22 27 2 2.</_></rects>
      <tilted>0</tilted></_>
    <_>
      <rects>
        <_>
          13 23 12 1 -1.</_>
        <_>
          16 23 6 1 2.</_></rects>
      <tilted>0</tilted></_>
    <_>
      <rects>
        <_>
          14 13 5 4 -1.</_>
        <_>
          13 14 5 2 2.</_></rects>
      <tilted>1</tilted></_>
    <_>
      <rects>
        <_>
          14 13 7 3 -1.</_>
        <_>
          13 14 7 1 3.</_></rects>
      <tilted>1</tilted></_>
    <_>
      <rects>
        <_>
          14 18 2 2 -1.</_>
        <_>
          14 19 2 1 2.</_></rects>
      <tilted>0</tilted></_>
    <_>
      <rects>
        <_>
          14 20 17 3 -1.</_>
        <_>
          14 21 17 1 3.</_></rects>
      <tilted>0</tilted></_>
    <_>
      <rects>
        <_>
          15 4 17 3 -1.</_>
        <_>
          15 5 17 1 3.</_></rects>
      <tilted>0</tilted></_>
    <_>
      <rects>
        <_>
          15 6 2 11 -1.</_>
        <_>
          15 6 1 11 2.</_></rects>
      <tilted>1</tilted></_>
    <_>
      <rects>
        <_>
          15 11 7 6 -1.</_>
        <_>
          13 13 7 2 3.</_></rects>
      <tilted>1</tilted></_>
    <_>
      <rects>
        <_>
          15 14 6 3 -1.</_>
        <_>
          15 15 6 1 3.</_></rects>
      <tilted>0</tilted></_>
    <_>
      <rects>
        <_>
          16 4 3 6 -1.</_>
        <_>
          16 6 3 2 3.</_></rects>
      <tilted>0</tilted></_>
    <_>
      <rects>
        <_>
          16 11 23 4 -1.</_>
        <_>
          16 12 23 2 2.</_></rects>
      <tilted>0</tilted></_>
    <_>
      <rects>
        <_>
          16 14 1 3 -1.</_>
        <_>
          15 15 1 1 3.</_></rects>
      <tilted>1</tilted></_>
    <_>
      <rects>
        <_>
          16 17 4 2 -1.</_>
        <_>
          18 17 2 2 2.</_></rects>
      <tilted>0</tilted></_>
    <_>
      <rects>
        <_>
          16 18 32 5 -1.</_>
        <_>
          24 18 16 5 2.</_></rects>
      <tilted>0</tilted></_>
    <_>
      <rects>
        <_>
          16 21 17 3 -1.</_>
        <_>
          16 22 17 1 3.</_></rects>
      <tilted>0</tilted></_>
    <_>
      <rects>
        <_>
          17 11 6 2 -1.</_>
        <_>
          17 11 3 2 2.</_></rects>
      <tilted>1</tilted></_>
    <_>
      <rects>
        <_>
          17 14 10 6 -1.</_>
        <_>
          17 14 5 3 2.</_>
        <_>
          22 17 5 3 2.</_></rects>
      <tilted>0</tilted></_>
    <_>
      <rects>
        <_>
          17 17 6 1 -1.</_>
        <_>
          20 17 3 1 2.</_></rects>
      <tilted>0</tilted></_>
    <_>
      <rects>
        <_>
          17 20 16 2 -1.</_>
        <_>
          17 21 16 1 2.</_></rects>
      <tilted>0</tilted></_>
    <_>
      <rects>
        <_>
          17 22 8 2 -1.</_>
        <_>
          19 22 4 2 2.</_></rects>
      <tilted>0</tilted></_>
    <_>
      <rects>
        <_>
          17 23 9 1 -1.</_>
        <_>
          20 23 3 1 3.</_></rects>
      <tilted>0</tilted></_>
    <_>
      <rects>
        <_>
          18 4 6 3 -1.</_>
        <_>
          18 5 6 1 3.</_></rects>
      <tilted>0</tilted></_>
    <_>
      <rects>
        <_>
          18 9 2 2 -1.</_>
        <_>
          18 10 2 1 2.</_></rects>
      <tilted>0</tilted></_>
    <_>
      <rects>
        <_>
          18 13 6 10 -1.</_>
        <_>
          18 13 3 5 2.</_>
        <_>
          21 18 3 5 2.</_></rects>
      <tilted>0</tilted></_>
    <_>
      <rects>
        <_>
          18 15 2 3 -1.</_>
        <_>
          19 15 1 3 2.</_></rects>
      <tilted>0</tilted></_>
    <_>
      <rects>
        <_>
          18 17 8 2 -1.</_>
        <_>
          20 17 4 2 2.</_></rects>
      <tilted>0</tilted></_>
    <_>
      <rects>
        <_>
          18 22 4 1 -1.</_>
        <_>
          19 22 2 1 2.</_></rects>
      <tilted>0</tilted></_>
    <_>
      <rects>
        <_>
          18 22 4 2 -1.</_>
        <_>
          19 22 2 2 2.</_></rects>
      <tilted>0</tilted></_>
    <_>
      <rects>
        <_>
          19 6 24 3 -1.</_>
        <_>
          19 7 24 1 3.</_></rects>
      <tilted>0</tilted></_>
    <_>
      <rects>
        <_>
          19 12 24 6 -1.</_>
        <_>
          19 15 24 3 2.</_></rects>
      <tilted>0</tilted></_>
    <_>
      <rects>
        <_>
          19 14 8 4 -1.</_>
        <_>
          19 14 4 2 2.</_>
        <_>
          23 16 4 2 2.</_></rects>
      <tilted>0</tilted></_>
    <_>
      <rects>
        <_>
          19 22 8 2 -1.</_>
        <_>
          23 22 4 2 2.</_></rects>
      <tilted>0</tilted></_>
    <_>
      <rects>
        <_>
          20 6 4 2 -1.</_>
        <_>
          20 7 4 1 2.</_></rects>
      <tilted>0</tilted></_>
    <_>
      <rects>
        <_>
          20 14 4 8 -1.</_>
        <_>
          20 14 2 4 2.</_>
        <_>
          22 18 2 4 2.</_></rects>
      <tilted>0</tilted></_>
    <_>
      <rects>
        <_>
          20 15 4 3 -1.</_>
        <_>
          22 15 2 3 2.</_></rects>
      <tilted>0</tilted></_>
    <_>
      <rects>
        <_>
          20 16 8 7 -1.</_>
        <_>
          24 16 4 7 2.</_></rects>
      <tilted>0</tilted></_>
    <_>
      <rects>
        <_>
          20 20 10 3 -1.</_>
        <_>
          20 21 10 1 3.</_></rects>
      <tilted>0</tilted></_>
    <_>
      <rects>
        <_>
          21 6 9 4 -1.</_>
        <_>
          21 7 9 2 2.</_></rects>
      <tilted>0</tilted></_>
    <_>
      <rects>
        <_>
          21 10 16 4 -1.</_>
        <_>
          21 10 8 2 2.</_>
        <_>
          29 12 8 2 2.</_></rects>
      <tilted>0</tilted></_>
    <_>
      <rects>
        <_>
          21 10 11 3 -1.</_>
        <_>
          21 11 11 1 3.</_></rects>
      <tilted>0</tilted></_>
    <_>
      <rects>
        <_>
          21 17 18 2 -1.</_>
        <_>
          21 17 9 1 2.</_>
        <_>
          30 18 9 1 2.</_></rects>
      <tilted>0</tilted></_>
    <_>
      <rects>
        <_>
          21 19 2 3 -1.</_>
        <_>
          21 20 2 1 3.</_></rects>
      <tilted>0</tilted></_>
    <_>
      <rects>
        <_>
          22 7 15 16 -1.</_>
        <_>
          22 15 15 8 2.</_></rects>
      <tilted>0</tilted></_>
    <_>
      <rects>
        <_>
          22 13 8 8 -1.</_>
        <_>
          22 13 4 4 2.</_>
        <_>
          26 17 4 4 2.</_></rects>
      <tilted>0</tilted></_>
    <_>
      <rects>
        <_>
          22 14 4 6 -1.</_>
        <_>
          22 14 2 3 2.</_>
        <_>
          24 17 2 3 2.</_></rects>
      <tilted>0</tilted></_>
    <_>
      <rects>
        <_>
          22 16 4 2 -1.</_>
        <_>
          23 16 2 2 2.</_></rects>
      <tilted>0</tilted></_>
    <_>
      <rects>
        <_>
          22 16 2 5 -1.</_>
        <_>
          23 16 1 5 2.</_></rects>
      <tilted>0</tilted></_>
    <_>
      <rects>
        <_>
          22 18 4 1 -1.</_>
        <_>
          24 18 2 1 2.</_></rects>
      <tilted>0</tilted></_>
    <_>
      <rects>
        <_>
          22 20 6 3 -1.</_>
        <_>
          22 21 6 1 3.</_></rects>
      <tilted>0</tilted></_>
    <_>
      <rects>
        <_>
          22 20 17 3 -1.</_>
        <_>
          22 21 17 1 3.</_></rects>
      <tilted>0</tilted></_>
    <_>
      <rects>
        <_>
          24 8 2 1 -1.</_>
        <_>
          25 8 1 1 2.</_></rects>
      <tilted>0</tilted></_>
    <_>
      <rects>
        <_>
          24 13 24 8 -1.</_>
        <_>
          24 13 12 4 2.</_>
        <_>
          36 17 12 4 2.</_></rects>
      <tilted>0</tilted></_>
    <_>
      <rects>
        <_>
          24 14 14 2 -1.</_>
        <_>
          24 14 7 1 2.</_>
        <_>
          31 15 7 1 2.</_></rects>
      <tilted>0</tilted></_>
    <_>
      <rects>
        <_>
          24 15 4 5 -1.</_>
        <_>
          25 16 2 5 2.</_></rects>
      <tilted>1</tilted></_>
    <_>
      <rects>
        <_>
          24 16 2 3 -1.</_>
        <_>
          25 16 1 3 2.</_></rects>
      <tilted>0</tilted></_>
    <_>
      <rects>
        <_>
          24 20 14 4 -1.</_>
        <_>
          24 22 14 2 2.</_></rects>
      <tilted>0</tilted></_>
    <_>
      <rects>
        <_>
          24 23 9 1 -1.</_>
        <_>
          27 23 3 1 3.</_></rects>
      <tilted>0</tilted></_>
    <_>
      <rects>
        <_>
          25 1 4 6 -1.</_>
        <_>
          25 1 2 3 2.</_>
        <_>
          27 4 2 3 2.</_></rects>
      <tilted>0</tilted></_>
    <_>
      <rects>
        <_>
          25 11 7 3 -1.</_>
        <_>
          25 12 7 1 3.</_></rects>
      <tilted>0</tilted></_>
    <_>
      <rects>
        <_>
          25 15 4 8 -1.</_>
        <_>
          25 15 2 4 2.</_>
        <_>
          27 19 2 4 2.</_></rects>
      <tilted>0</tilted></_>
    <_>
      <rects>
        <_>
          25 16 6 4 -1.</_>
        <_>
          25 16 3 2 2.</_>
        <_>
          28 18 3 2 2.</_></rects>
      <tilted>0</tilted></_>
    <_>
      <rects>
        <_>
          25 18 2 6 -1.</_>
        <_>
          26 18 1 6 2.</_></rects>
      <tilted>0</tilted></_>
    <_>
      <rects>
        <_>
          25 22 4 1 -1.</_>
        <_>
          27 22 2 1 2.</_></rects>
      <tilted>0</tilted></_>
    <_>
      <rects>
        <_>
          26 2 10 1 -1.</_>
        <_>
          26 2 5 1 2.</_></rects>
      <tilted>1</tilted></_>
    <_>
      <rects>
        <_>
          26 5 12 6 -1.</_>
        <_>
          29 8 6 6 2.</_></rects>
      <tilted>1</tilted></_>
    <_>
      <rects>
        <_>
          26 18 22 6 -1.</_>
        <_>
          37 18 11 6 2.</_></rects>
      <tilted>0</tilted></_>
    <_>
      <rects>
        <_>
          26 21 4 3 -1.</_>
        <_>
          27 21 2 3 2.</_></rects>
      <tilted>0</tilted></_>
    <_>
      <rects>
        <_>
          26 23 8 1 -1.</_>
        <_>
          28 23 4 1 2.</_></rects>
      <tilted>0</tilted></_>
    <_>
      <rects>
        <_>
          26 23 9 1 -1.</_>
        <_>
          29 23 3 1 3.</_></rects>
      <tilted>0</tilted></_>
    <_>
      <rects>
        <_>
          27 20 3 3 -1.</_>
        <_>
          28 20 1 3 3.</_></rects>
      <tilted>0</tilted></_>
    <_>
      <rects>
        <_>
          27 21 4 3 -1.</_>
        <_>
          28 21 2 3 2.</_></rects>
      <tilted>0</tilted></_>
    <_>
      <rects>
        <_>
          28 9 3 15 -1.</_>
        <_>
          28 14 3 5 3.</_></rects>
      <tilted>0</tilted></_>
    <_>
      <rects>
        <_>
          28 15 4 5 -1.</_>
        <_>
          29 16 2 5 2.</_></rects>
      <tilted>1</tilted></_>
    <_>
      <rects>
        <_>
          28 15 20 9 -1.</_>
        <_>
          28 18 20 3 3.</_></rects>
      <tilted>0</tilted></_>
    <_>
      <rects>
        <_>
          28 19 1 3 -1.</_>
        <_>
          28 20 1 1 3.</_></rects>
      <tilted>0</tilted></_>
    <_>
      <rects>
        <_>
          28 20 6 1 -1.</_>
        <_>
          31 20 3 1 2.</_></rects>
      <tilted>0</tilted></_>
    <_>
      <rects>
        <_>
          28 22 3 2 -1.</_>
        <_>
          29 22 1 2 3.</_></rects>
      <tilted>0</tilted></_>
    <_>
      <rects>
        <_>
          29 10 16 4 -1.</_>
        <_>
          33 10 8 4 2.</_></rects>
      <tilted>0</tilted></_>
    <_>
      <rects>
        <_>
          29 16 12 4 -1.</_>
        <_>
          29 16 6 2 2.</_>
        <_>
          35 18 6 2 2.</_></rects>
      <tilted>0</tilted></_>
    <_>
      <rects>
        <_>
          30 7 4 16 -1.</_>
        <_>
          30 15 4 8 2.</_></rects>
      <tilted>0</tilted></_>
    <_>
      <rects>
        <_>
          30 15 4 7 -1.</_>
        <_>
          32 15 2 7 2.</_></rects>
      <tilted>0</tilted></_>
    <_>
      <rects>
        <_>
          30 17 4 6 -1.</_>
        <_>
          32 17 2 6 2.</_></rects>
      <tilted>0</tilted></_>
    <_>
      <rects>
        <_>
          31 5 1 3 -1.</_>
        <_>
          31 6 1 1 3.</_></rects>
      <tilted>0</tilted></_>
    <_>
      <rects>
        <_>
          31 8 2 2 -1.</_>
        <_>
          31 8 1 1 2.</_>
        <_>
          32 9 1 1 2.</_></rects>
      <tilted>0</tilted></_>
    <_>
      <rects>
        <_>
          33 8 10 3 -1.</_>
        <_>
          33 9 10 1 3.</_></rects>
      <tilted>0</tilted></_>
    <_>
      <rects>
        <_>
          33 14 7 4 -1.</_>
        <_>
          33 15 7 2 2.</_></rects>
      <tilted>0</tilted></_>
    <_>
      <rects>
        <_>
          33 16 4 4 -1.</_>
        <_>
          34 16 2 4 2.</_></rects>
      <tilted>0</tilted></_>
    <_>
      <rects>
        <_>
          33 16 3 6 -1.</_>
        <_>
          34 16 1 6 3.</_></rects>
      <tilted>0</tilted></_>
    <_>
      <rects>
        <_>
          33 17 6 4 -1.</_>
        <_>
          35 17 2 4 3.</_></rects>
      <tilted>0</tilted></_>
    <_>
      <rects>
        <_>
          33 18 3 1 -1.</_>
        <_>
          34 18 1 1 3.</_></rects>
      <tilted>0</tilted></_>
    <_>
      <rects>
        <_>
          34 2 12 4 -1.</_>
        <_>
          34 2 12 2 2.</_></rects>
      <tilted>1</tilted></_>
    <_>
      <rects>
        <_>
          34 4 2 10 -1.</_>
        <_>
          34 4 1 5 2.</_>
        <_>
          35 9 1 5 2.</_></rects>
      <tilted>0</tilted></_>
    <_>
      <rects>
        <_>
          34 8 2 2 -1.</_>
        <_>
          34 8 1 1 2.</_>
        <_>
          35 9 1 1 2.</_></rects>
      <tilted>0</tilted></_>
    <_>
      <rects>
        <_>
          34 13 4 2 -1.</_>
        <_>
          35 14 2 2 2.</_></rects>
      <tilted>1</tilted></_>
    <_>
      <rects>
        <_>
          34 17 4 2 -1.</_>
        <_>
          35 17 2 2 2.</_></rects>
      <tilted>0</tilted></_>
    <_>
      <rects>
        <_>
          34 17 3 3 -1.</_>
        <_>
          35 17 1 3 3.</_></rects>
      <tilted>0</tilted></_>
    <_>
      <rects>
        <_>
          34 17 4 5 -1.</_>
        <_>
          35 17 2 5 2.</_></rects>
      <tilted>0</tilted></_>
    <_>
      <rects>
        <_>
          34 20 5 2 -1.</_>
        <_>
          34 21 5 1 2.</_></rects>
      <tilted>0</tilted></_>
    <_>
      <rects>
        <_>
          35 7 3 2 -1.</_>
        <_>
          36 7 1 2 3.</_></rects>
      <tilted>0</tilted></_>
    <_>
      <rects>
        <_>
          35 13 3 4 -1.</_>
        <_>
          36 14 1 4 3.</_></rects>
      <tilted>1</tilted></_>
    <_>
      <rects>
        <_>
          35 14 6 6 -1.</_>
        <_>
          35 14 3 3 2.</_>
        <_>
          38 17 3 3 2.</_></rects>
      <tilted>0</tilted></_>
    <_>
      <rects>
        <_>
          35 15 4 7 -1.</_>
        <_>
          36 15 2 7 2.</_></rects>
      <tilted>0</tilted></_>
    <_>
      <rects>
        <_>
          35 15 6 4 -1.</_>
        <_>
          35 15 3 2 2.</_>
        <_>
          38 17 3 2 2.</_></rects>
      <tilted>0</tilted></_>
    <_>
      <rects>
        <_>
          35 17 3 1 -1.</_>
        <_>
          36 17 1 1 3.</_></rects>
      <tilted>0</tilted></_>
    <_>
      <rects>
        <_>
          36 10 9 11 -1.</_>
        <_>
          39 10 3 11 3.</_></rects>
      <tilted>0</tilted></_>
    <_>
      <rects>
        <_>
          36 12 10 12 -1.</_>
        <_>
          36 15 10 6 2.</_></rects>
      <tilted>0</tilted></_>
    <_>
      <rects>
        <_>
          36 13 4 7 -1.</_>
        <_>
          37 14 2 7 2.</_></rects>
      <tilted>1</tilted></_>
    <_>
      <rects>
        <_>
          36 13 12 9 -1.</_>
        <_>
          36 16 12 3 3.</_></rects>
      <tilted>0</tilted></_>
    <_>
      <rects>
        <_>
          36 14 12 8 -1.</_>
        <_>
          42 14 6 8 2.</_></rects>
      <tilted>0</tilted></_>
    <_>
      <rects>
        <_>
          36 16 3 1 -1.</_>
        <_>
          37 17 1 1 3.</_></rects>
      <tilted>1</tilted></_>
    <_>
      <rects>
        <_>
          36 16 3 6 -1.</_>
        <_>
          37 16 1 6 3.</_></rects>
      <tilted>0</tilted></_>
    <_>
      <rects>
        <_>
          36 17 12 7 -1.</_>
        <_>
          42 17 6 7 2.</_></rects>
      <tilted>0</tilted></_>
    <_>
      <rects>
        <_>
          36 23 6 1 -1.</_>
        <_>
          38 23 2 1 3.</_></rects>
      <tilted>0</tilted></_>
    <_>
      <rects>
        <_>
          37 12 3 8 -1.</_>
        <_>
          38 13 1 8 3.</_></rects>
      <tilted>1</tilted></_>
    <_>
      <rects>
        <_>
          38 6 10 16 -1.</_>
        <_>
          38 6 5 8 2.</_>
        <_>
          43 14 5 8 2.</_></rects>
      <tilted>0</tilted></_>
    <_>
      <rects>
        <_>
          39 18 6 6 -1.</_>
        <_>
          42 18 3 6 2.</_></rects>
      <tilted>0</tilted></_>
    <_>
      <rects>
        <_>
          39 19 6 2 -1.</_>
        <_>
          42 19 3 2 2.</_></rects>
      <tilted>0</tilted></_>
    <_>
      <rects>
        <_>
          39 22 6 1 -1.</_>
        <_>
          41 22 2 1 3.</_></rects>
      <tilted>0</tilted></_>
    <_>
      <rects>
        <_>
          40 14 8 8 -1.</_>
        <_>
          44 14 4 8 2.</_></rects>
      <tilted>0</tilted></_>
    <_>
      <rects>
        <_>
          40 15 8 3 -1.</_>
        <_>
          44 15 4 3 2.</_></rects>
      <tilted>0</tilted></_>
    <_>
      <rects>
        <_>
          40 18 2 6 -1.</_>
        <_>
          41 18 1 6 2.</_></rects>
      <tilted>0</tilted></_>
    <_>
      <rects>
        <_>
          40 21 3 3 -1.</_>
        <_>
          41 21 1 3 3.</_></rects>
      <tilted>0</tilted></_>
    <_>
      <rects>
        <_>
          40 23 8 1 -1.</_>
        <_>
          44 23 4 1 2.</_></rects>
      <tilted>0</tilted></_>
    <_>
      <rects>
        <_>
          41 13 1 6 -1.</_>
        <_>
          39 15 1 2 3.</_></rects>
      <tilted>1</tilted></_>
    <_>
      <rects>
        <_>
          41 19 2 3 -1.</_>
        <_>
          42 19 1 3 2.</_></rects>
      <tilted>0</tilted></_>
    <_>
      <rects>
        <_>
          41 23 6 1 -1.</_>
        <_>
          44 23 3 1 2.</_></rects>
      <tilted>0</tilted></_>
    <_>
      <rects>
        <_>
          42 0 3 13 -1.</_>
        <_>
          43 0 1 13 3.</_></rects>
      <tilted>0</tilted></_>
    <_>
      <rects>
        <_>
          42 22 2 1 -1.</_>
        <_>
          43 22 1 1 2.</_></rects>
      <tilted>0</tilted></_>
    <_>
      <rects>
        <_>
          43 22 3 2 -1.</_>
        <_>
          44 22 1 2 3.</_></rects>
      <tilted>0</tilted></_>
    <_>
      <rects>
        <_>
          45 16 3 8 -1.</_>
        <_>
          45 20 3 4 2.</_></rects>
      <tilted>0</tilted></_>
    <_>
      <rects>
        <_>
          45 20 2 3 -1.</_>
        <_>
          46 20 1 3 2.</_></rects>
      <tilted>0</tilted></_>
    <_>
      <rects>
        <_>
          46 17 2 7 -1.</_>
        <_>
          47 17 1 7 2.</_></rects>
      <tilted>0</tilted></_>
    <_>
      <rects>
        <_>
          46 19 2 3 -1.</_>
        <_>
          47 19 1 3 2.</_></rects>
      <tilted>0</tilted></_>
    <_>
      <rects>
        <_>
          47 11 1 12 -1.</_>
        <_>
          47 17 1 6 2.</_></rects>
      <tilted>0</tilted></_></features></cascade>
</opencv_storage>
